{"learner":{"attributes":{},"feature_names":[],"feature_types":[],"gradient_booster":{"model":{"gbtree_model_param":{"num_parallel_tree":"1","num_trees":"200"},"iteration_indptr":[0,1,2,3,4,5,6,7,8,9,10,11,12,13,14,15,16,17,18,19,20,21,22,23,24,25,26,27,28,29,30,31,32,33,34,35,36,37,38,39,40,41,42,43,44,45,46,47,48,49,50,51,52,53,54,55,56,57,58,59,60,61,62,63,64,65,66,67,68,69,70,71,72,73,74,75,76,77,78,79,80,81,82,83,84,85,86,87,88,89,90,91,92,93,94,95,96,97,98,99,100,101,102,103,104,105,106,107,108,109,110,111,112,113,114,115,116,117,118,119,120,121,122,123,124,125,126,127,128,129,130,131,132,133,134,135,136,137,138,139,140,141,142,143,144,145,146,147,148,149,150,151,152,153,154,155,156,157,158,159,160,161,162,163,164,165,166,167,168,169,170,171,172,173,174,175,176,177,178,179,180,181,182,183,184,185,186,187,188,189,190,191,192,193,194,195,196,197,198,199,200],"tree_info":[0,0,0,0,0,0,0,0,0,0,0,0,0,0,0,0,0,0,0,0,0,0,0,0,0,0,0,0,0,0,0,0,0,0,0,0,0,0,0,0,0,0,0,0,0,0,0,0,0,0,0,0,0,0,0,0,0,0,0,0,0,0,0,0,0,0,0,0,0,0,0,0,0,0,0,0,0,0,0,0,0,0,0,0,0,0,0,0,0,0,0,0,0,0,0,0,0,0,0,0,0,0,0,0,0,0,0,0,0,0,0,0,0,0,0,0,0,0,0,0,0,0,0,0,0,0,0,0,0,0,0,0,0,0,0,0,0,0,0,0,0,0,0,0,0,0,0,0,0,0,0,0,0,0,0,0,0,0,0,0,0,0,0,0,0,0,0,0,0,0,0,0,0,0,0,0,0,0,0,0,0,0,0,0,0,0,0,0,0,0,0,0,0,0,0,0,0,0,0,0],"trees":[{"base_weights":[-4.359008E-4,1.6194287E-1,-6.142179E-1,-2.7654058E-1,4.2415488E-1,-8.0637264E-1,3.533551E-1,2.4860023E-1,-5.493443E-1,2.697666E-1,9.924948E-1,-6.159541E-1,-1.2256E0,-2.6387176E-1,7.767895E-1,9.307229E-1,4.622083E-2,-1.0647649E0,-3.9337957E-1,8.812109E-1,1.1285284E-1,8.395969E-1,1.3405522E0,-8.2613665E-1,-2.4945295E-1,-1.0361311E0,-1.4804217E0,-5.744681E-1,4.4176707E-1,5.090909E-1,1.1828877E0,-7.7922076E-2,1.2328767E0,-6.5179926E-1,2.4327418E-1,-1.2009913E0,-5.859983E-1,-2.5613445E-1,-7.034011E-1,1.2899408E0,7.084307E-1,1.3703925E-2,5.114439E-1,5.980515E-1,1.0568079E0,1.1402806E0,1.5722679E0,-1.071605E0,-6.1427355E-1,-3.246493E-1,3.7777779E-1,-1.1687214E0,-5.3735256E-1,-1.6042482E0,-1.2192882E0,-2.2867514E-1,-8.98451E-1,-2.9457363E-1,6.91689E-1,6.394558E-1,-9.3023255E-2,1.2321428E0,4.6511628E-2,-5.6626506E-2,4.8611112E-2,1.5249042E-1,9.2430286E-2,-9.9412456E-2,-3.9076377E-2,2.8985508E-3,4.074823E-2,-1.1342134E-1,-1.7915633E-1,-6.290749E-2,1.3846155E-1,-4.1059982E-2,-3.3981577E-3,-8.3347715E-2,-4.49162E-2,1.5023232E-1,7.496758E-2,7.670572E-2,1.5235009E-2,1.8007549E-2,-2.2225998E-2,6.889542E-2,2.1468928E-2,4.5804325E-2,8.9514874E-2,1.2685016E-1,9.319073E-2,9.0777576E-2,1.4228188E-1,1.6570584E-1,1.2294618E-1,-9.799353E-2,-1.3609959E-1,-3.871936E-2,-7.806856E-2,-4.7305185E-2,-5.05689E-3,8.246446E-2,9.009009E-3,-1.4007634E-1,-1.03064075E-1,-8.202765E-2,-1.6216217E-2,-1.6418959E-1,-7.619048E-2,-0E0,-1.2568048E-1,-4.1818183E-2,5.043478E-2,-1.14366196E-1,-5.043478E-2,1.3333335E-2,-8.275863E-2,7.621776E-2,-2.857143E-2,9.276596E-2,4.450704E-2,-3.783784E-2,5.9740257E-2,9.189189E-2,1.3774835E-1,-1.07692316E-1,4.7058824E-2],"categories":[],"categories_nodes":[],"categories_segments":[],"categories_sizes":[],"default_left":[0,0,0,0,0,0,0,0,0,0,0,0,0,0,0,0,0,0,0,0,0,0,0,0,0,0,0,0,0,0,0,0,0,0,0,0,0,0,0,0,0,0,0,0,0,0,0,0,0,0,0,0,0,0,0,0,0,0,0,0,0,0,0,0,0,0,0,0,0,0,0,0,0,0,0,0,0,0,0,0,0,0,0,0,0,0,0,0,0,0,0,0,0,0,0,0,0,0,0,0,0,0,0,0,0,0,0,0,0,0,0,0,0,0,0,0,0,0,0,0,0,0,0,0,0,0,0],"id":0,"left_children":[1,3,5,7,9,11,13,15,17,19,21,23,25,27,29,31,33,35,37,39,41,43,45,47,49,51,53,55,57,59,61,63,65,67,69,71,73,75,77,79,81,83,85,87,89,91,93,95,97,99,101,103,105,107,109,111,113,115,117,119,121,123,125,-1,-1,-1,-1,-1,-1,-1,-1,-1,-1,-1,-1,-1,-1,-1,-1,-1,-1,-1,-1,-1,-1,-1,-1,-1,-1,-1,-1,-1,-1,-1,-1,-1,-1,-1,-1,-1,-1,-1,-1,-1,-1,-1,-1,-1,-1,-1,-1,-1,-1,-1,-1,-1,-1,-1,-1,-1,-1,-1,-1,-1,-1,-1,-1],"loss_changes":[2.8581226E3,2.6075059E3,1.1157349E3,1.2159873E3,1.2449878E3,3.9884717E2,2.6018796E2,4.006056E2,4.4860535E2,1.0707798E3,1.6018921E2,2.6511194E2,7.3904785E1,8.912674E1,6.3565002E1,2.0246063E2,3.0816116E2,8.388733E1,1.8234418E2,1.6004785E2,3.510579E2,1.1000635E2,4.1063354E1,1.1315613E2,5.9397835E1,5.8858826E1,1.9514526E1,3.1387291E1,2.3115204E1,2.8121277E1,1.3026245E1,4.2693283E1,4.4637756E1,4.368788E1,6.1461517E1,3.7750244E1,2.5424706E1,1.0207295E2,4.3138E1,7.643982E1,5.218335E1,2.7934863E2,9.3063965E1,4.1217224E1,2.8140625E1,3.1488464E1,1.0330566E1,2.5526245E1,4.41752E1,4.5643066E1,1.7281048E1,2.1297058E1,2.0115158E1,1.2932251E1,9.960663E0,1.9346142E1,1.345993E1,7.4659176E0,6.6423035E0,1.6057762E1,1.2933612E1,8.93161E0,5.628328E0,0E0,0E0,0E0,0E0,0E0,0E0,0E0,0E0,0E0,0E0,0E0,0E0,0E0,0E0,0E0,0E0,0E0,0E0,0E0,0E0,0E0,0E0,0E0,0E0,0E0,0E0,0E0,0E0,0E0,0E0,0E0,0E0,0E0,0E0,0E0,0E0,0E0,0E0,0E0,0E0,0E0,0E0,0E0,0E0,0E0,0E0,0E0,0E0,0E0,0E0,0E0,0E0,0E0,0E0,0E0,0E0,0E0,0E0,0E0,0E0,0E0,0E0,0E0,0E0],"parents":[2147483647,0,0,1,1,2,2,3,3,4,4,5,5,6,6,7,7,8,8,9,9,10,10,11,11,12,12,13,13,14,14,15,15,16,16,17,17,18,18,19,19,20,20,21,21,22,22,23,23,24,24,25,25,26,26,27,27,28,28,29,29,30,30,31,31,32,32,33,33,34,34,35,35,36,36,37,37,38,38,39,39,40,40,41,41,42,42,43,43,44,44,45,45,46,46,47,47,48,48,49,49,50,50,51,51,52,52,53,53,54,54,55,55,56,56,57,57,58,58,59,59,60,60,61,61,62,62],"right_children":[2,4,6,8,10,12,14,16,18,20,22,24,26,28,30,32,34,36,38,40,42,44,46,48,50,52,54,56,58,60,62,64,66,68,70,72,74,76,78,80,82,84,86,88,90,92,94,96,98,100,102,104,106,108,110,112,114,116,118,120,122,124,126,-1,-1,-1,-1,-1,-1,-1,-1,-1,-1,-1,-1,-1,-1,-1,-1,-1,-1,-1,-1,-1,-1,-1,-1,-1,-1,-1,-1,-1,-1,-1,-1,-1,-1,-1,-1,-1,-1,-1,-1,-1,-1,-1,-1,-1,-1,-1,-1,-1,-1,-1,-1,-1,-1,-1,-1,-1,-1,-1,-1,-1,-1,-1,-1],"split_conditions":[1.3620387E-1,-6.3970363E-1,1.4711425E0,-9.794177E-1,9.131027E-1,1.1511236E0,-6.403325E-1,-6.7044246E-1,-1.3127549E0,-5.044849E-1,1.8593441E0,-1.5595865E-1,9.3632746E-1,2.7155132E0,9.613801E-1,-1.9697098E0,-1.3626295E0,-3.0434623E-1,-1.07528925E-1,-6.320937E-1,-8.833341E-2,-3.2505473E-1,9.613801E-1,-2.2723944E-1,5.74394E-1,9.7031845E-3,-6.5161124E-2,1.0577639E0,-6.650625E-1,1.0343604E0,-3.4777235E-2,-5.783726E-1,-1.3959293E0,-5.561443E-1,-1.0036426E0,1.0514063E1,2.4591796E0,-2.8285864E-1,-2.6202303E-1,-1.2464607E0,-2.528437E-1,-5.1033635E-2,2.2024027E-1,3.6263493E-1,-5.2509487E-1,-2.978756E-1,6.582787E-1,1.9191834E0,-4.911057E-2,-1.8689428E-2,4.3922573E-1,-2.2398818E-1,-6.4576834E-1,1.0571232E0,2.912674E-1,1.1976615E0,9.676608E-1,-7.343753E-1,2.594091E0,-6.91951E-1,2.0778506E0,1.1861423E0,-2.6268303E-1,-5.6626506E-2,4.8611112E-2,1.5249042E-1,9.2430286E-2,-9.9412456E-2,-3.9076377E-2,2.8985508E-3,4.074823E-2,-1.1342134E-1,-1.7915633E-1,-6.290749E-2,1.3846155E-1,-4.1059982E-2,-3.3981577E-3,-8.3347715E-2,-4.49162E-2,1.5023232E-1,7.496758E-2,7.670572E-2,1.5235009E-2,1.8007549E-2,-2.2225998E-2,6.889542E-2,2.1468928E-2,4.5804325E-2,8.9514874E-2,1.2685016E-1,9.319073E-2,9.0777576E-2,1.4228188E-1,1.6570584E-1,1.2294618E-1,-9.799353E-2,-1.3609959E-1,-3.871936E-2,-7.806856E-2,-4.7305185E-2,-5.05689E-3,8.246446E-2,9.009009E-3,-1.4007634E-1,-1.03064075E-1,-8.202765E-2,-1.6216217E-2,-1.6418959E-1,-7.619048E-2,-0E0,-1.2568048E-1,-4.1818183E-2,5.043478E-2,-1.14366196E-1,-5.043478E-2,1.3333335E-2,-8.275863E-2,7.621776E-2,-2.857143E-2,9.276596E-2,4.450704E-2,-3.783784E-2,5.9740257E-2,9.189189E-2,1.3774835E-1,-1.07692316E-1,4.7058824E-2],"split_indices":[11,25,25,35,25,11,9,11,24,11,25,19,33,19,23,22,24,19,35,11,19,9,23,25,19,19,19,33,12,110,21,8,34,8,25,1,12,19,19,34,35,39,36,19,36,9,101,125,18,31,39,26,9,100,30,23,19,21,24,21,26,19,17,0,0,0,0,0,0,0,0,0,0,0,0,0,0,0,0,0,0,0,0,0,0,0,0,0,0,0,0,0,0,0,0,0,0,0,0,0,0,0,0,0,0,0,0,0,0,0,0,0,0,0,0,0,0,0,0,0,0,0,0,0,0,0,0],"split_type":[0,0,0,0,0,0,0,0,0,0,0,0,0,0,0,0,0,0,0,0,0,0,0,0,0,0,0,0,0,0,0,0,0,0,0,0,0,0,0,0,0,0,0,0,0,0,0,0,0,0,0,0,0,0,0,0,0,0,0,0,0,0,0,0,0,0,0,0,0,0,0,0,0,0,0,0,0,0,0,0,0,0,0,0,0,0,0,0,0,0,0,0,0,0,0,0,0,0,0,0,0,0,0,0,0,0,0,0,0,0,0,0,0,0,0,0,0,0,0,0,0,0,0,0,0,0,0],"sum_hessian":[2.867525E4,2.267675E4,5.9985E3,8.486E3,1.419075E4,5.00475E3,9.9375E2,2.90125E3,5.58475E3,1.11605E4,3.03025E3,3.44325E3,1.5615E3,4.045E2,5.8925E2,6.63E2,2.23825E3,1.296E3,4.28875E3,2.27825E3,8.88225E3,2.10775E3,9.225E2,2.1875E3,1.25575E3,8.985E2,6.63E2,2.81E2,1.235E2,3.565E2,2.3275E2,1.53E2,5.1E2,4.9225E2,1.746E3,1.00775E3,2.8825E2,2.974E3,1.31475E3,6.75E2,1.60325E3,7.11375E3,1.7685E3,9.9975E2,1.108E3,4.98E2,4.245E2,1.0115E3,1.176E3,1.12175E3,1.34E2,7.0875E2,1.8975E2,4.4625E2,2.1675E2,1.3675E2,1.4425E2,3.125E1,9.225E1,2.93E2,6.35E1,2.23E2,9.75E0,8.2E1,7.1E1,2.6E2,2.5E2,2.1175E2,2.805E2,7.58E2,9.88E2,9.08E2,9.975E1,2.8275E2,5.5E0,1.75375E3,1.22025E3,8.6825E2,4.465E2,4.8325E2,1.9175E2,1.45E3,1.5325E2,4.17225E3,2.9415E3,1.10575E3,6.6275E2,6.8125E2,3.185E2,4.0775E2,7.0025E2,2.755E2,2.225E2,3.3725E2,8.725E1,7.715E2,2.4E2,4.9875E2,6.7725E2,7.2725E2,3.945E2,5.175E1,8.225E1,2.61E2,4.4775E2,1.075E2,8.225E1,4.2625E2,2E1,6.5E0,2.1025E2,1.09E2,2.775E1,8.775E1,5.65E1,1.775E1,1.35E1,8.625E1,6E0,1.165E2,1.765E2,4.525E1,1.825E1,7.3E1,1.5E2,2.25E0,7.5E0],"tree_param":{"num_deleted":"0","num_feature":"136","num_nodes":"127","size_leaf_vector":"1"}},{"base_weights":[-1.2746485E-3,1.47374E-1,-5.637397E-1,-6.468431E-2,6.661135E-1,-7.9002726E-1,2.8537965E-1,4.766662E-1,-2.3281993E-1,5.26572E-1,1.2059063E0,-6.243965E-1,-1.1931571E0,5.510133E-1,-6.1175275E-1,-6.4280903E-1,6.585851E-1,-8.188795E-1,-8.437164E-2,8.438407E-1,3.1761402E-1,1.0718511E0,1.5487063E0,-9.258574E-1,-3.8980535E-1,-1.3156132E0,-9.2478794E-1,1.9920269E-1,9.742577E-1,-8.9017665E-1,1.8113159E-1,3.9887902E-1,-1.0342448E0,1.3016367E0,4.6655554E-1,-1.39116E0,-6.744699E-1,1.11520804E-1,-3.1591502E-1,9.363793E-1,4.9266887E-1,2.1306242E-1,5.6814104E-1,8.901284E-1,1.2774541E0,1.1676085E0,1.6141868E0,-1.0923796E0,-7.313355E-1,-2.8982994E-1,-6.846851E-1,-1.1887687E0,-1.540177E0,-6.432752E-1,-1.1469444E0,3.6230853E-1,-1.9668046E-1,1.0086358E0,-3.125794E-1,-9.5641375E-1,8.529427E-2,1.0805889E0,-3.582455E-2,-3.0665865E-4,1.1136886E-1,-1.4154091E-1,-5.9305865E-2,1.431561E-1,6.944879E-2,5.864996E-3,6.6625014E-2,-1.5446725E-1,-8.455795E-2,-7.703357E-2,-2.5149046E-2,-1.1037035E-2,3.0157043E-2,-5.4199576E-2,-1.6587231E-2,6.722512E-2,1.0291375E-1,2.0567227E-2,7.620781E-2,3.505419E-2,3.7585236E-3,6.821706E-2,2.796503E-2,1.0631237E-1,7.220668E-2,-4.8246127E-2,1.2941377E-1,1.3004339E-1,3.3935323E-2,1.6194937E-1,1.4381075E-2,-9.189763E-2,-1.20962046E-1,-4.4999894E-2,-8.839745E-2,-4.125383E-2,-4.823543E-4,-7.0506364E-2,6.8410866E-2,-1.1994239E-1,4.1647766E-2,-1.08016066E-1,-1.6202293E-1,-7.398485E-2,-1.54332295E-2,-5.6506116E-2,-1.23296596E-1,-1.4366396E-2,4.4910643E-2,-3.1077493E-2,5.3163465E-2,1.1062621E-1,6.696632E-2,-1.22803226E-1,6.1578967E-2,-3.7315685E-2,-1.0404247E-1,-8.6279176E-2,9.078477E-2,-3.2862976E-2,1.3275485E-1,-3.4746956E-2,3.5501726E-2],"categories":[],"categories_nodes":[],"categories_segments":[],"categories_sizes":[],"default_left":[0,0,0,0,0,0,0,0,0,0,0,0,0,0,0,0,0,0,0,0,0,0,0,0,0,0,0,0,0,0,0,0,0,0,0,0,0,0,0,0,0,0,0,0,0,0,0,0,0,0,0,0,0,0,0,0,0,0,0,0,0,0,0,0,0,0,0,0,0,0,0,0,0,0,0,0,0,0,0,0,0,0,0,0,0,0,0,0,0,0,0,0,0,0,0,0,0,0,0,0,0,0,0,0,0,0,0,0,0,0,0,0,0,0,0,0,0,0,0,0,0,0,0,0,0,0,0],"id":1,"left_children":[1,3,5,7,9,11,13,15,17,19,21,23,25,27,29,31,33,35,37,39,41,43,45,47,49,51,53,55,57,59,61,63,65,67,69,71,73,75,77,79,81,83,85,87,89,91,93,95,97,99,101,103,105,107,109,111,113,115,117,119,121,123,125,-1,-1,-1,-1,-1,-1,-1,-1,-1,-1,-1,-1,-1,-1,-1,-1,-1,-1,-1,-1,-1,-1,-1,-1,-1,-1,-1,-1,-1,-1,-1,-1,-1,-1,-1,-1,-1,-1,-1,-1,-1,-1,-1,-1,-1,-1,-1,-1,-1,-1,-1,-1,-1,-1,-1,-1,-1,-1,-1,-1,-1,-1,-1,-1],"loss_changes":[2.3905461E3,2.4877654E3,1.1486216E3,1.4613197E3,4.9366553E2,3.1436963E2,3.0021423E2,7.7527655E2,1.0656663E3,3.455431E2,6.0249268E1,2.3634729E2,4.391272E1,1.4445093E2,6.3727448E1,2.1748633E2,4.0360767E2,2.036571E2,4.4341644E2,6.6829346E1,8.229532E1,3.5168945E1,7.510193E0,4.6625244E1,5.534482E1,2.4961914E1,2.6382019E1,3.440542E1,1.9810669E1,1.3862076E1,1.4804277E1,4.198838E1,6.4279785E1,5.8339478E1,2.0541272E2,4.0394104E1,8.0043945E1,2.2336804E2,1.5188708E2,3.9432007E1,3.339704E1,5.3582497E1,3.0267303E1,1.4324921E1,1.394281E1,6.0293427E0,2.25354E0,1.4883484E1,2.8729828E1,4.926586E1,1.3768234E1,1.0855469E1,1.0628357E1,9.024796E0,1.1371155E1,1.6618233E1,1.3111664E1,1.3470917E1,1.1150224E1,9.401962E0,1.207517E1,5.564829E0,7.666557E0,0E0,0E0,0E0,0E0,0E0,0E0,0E0,0E0,0E0,0E0,0E0,0E0,0E0,0E0,0E0,0E0,0E0,0E0,0E0,0E0,0E0,0E0,0E0,0E0,0E0,0E0,0E0,0E0,0E0,0E0,0E0,0E0,0E0,0E0,0E0,0E0,0E0,0E0,0E0,0E0,0E0,0E0,0E0,0E0,0E0,0E0,0E0,0E0,0E0,0E0,0E0,0E0,0E0,0E0,0E0,0E0,0E0,0E0,0E0,0E0,0E0,0E0,0E0,0E0],"parents":[2147483647,0,0,1,1,2,2,3,3,4,4,5,5,6,6,7,7,8,8,9,9,10,10,11,11,12,12,13,13,14,14,15,15,16,16,17,17,18,18,19,19,20,20,21,21,22,22,23,23,24,24,25,25,26,26,27,27,28,28,29,29,30,30,31,31,32,32,33,33,34,34,35,35,36,36,37,37,38,38,39,39,40,40,41,41,42,42,43,43,44,44,45,45,46,46,47,47,48,48,49,49,50,50,51,51,52,52,53,53,54,54,55,55,56,56,57,57,58,58,59,59,60,60,61,61,62,62],"right_children":[2,4,6,8,10,12,14,16,18,20,22,24,26,28,30,32,34,36,38,40,42,44,46,48,50,52,54,56,58,60,62,64,66,68,70,72,74,76,78,80,82,84,86,88,90,92,94,96,98,100,102,104,106,108,110,112,114,116,118,120,122,124,126,-1,-1,-1,-1,-1,-1,-1,-1,-1,-1,-1,-1,-1,-1,-1,-1,-1,-1,-1,-1,-1,-1,-1,-1,-1,-1,-1,-1,-1,-1,-1,-1,-1,-1,-1,-1,-1,-1,-1,-1,-1,-1,-1,-1,-1,-1,-1,-1,-1,-1,-1,-1,-1,-1,-1,-1,-1,-1,-1,-1,-1,-1,-1,-1],"split_conditions":[1.3620387E-1,-1.2057238E-1,6.162115E-1,-5.507679E-1,9.640636E-1,1.2172422E0,2.466883E0,-6.6984737E-1,-5.4925865E-1,-3.0150095E-1,2.6569438E0,-2.252593E-1,4.9709495E-2,1.9181721E0,3.5282304E0,-6.9688994E-1,-6.7705435E-1,-6.758106E-1,-3.0745164E-1,2.0629135E-1,3.4124267E-1,-3.0331144E-1,6.78077E-1,-2.5584686E-1,1.1333656E0,2.6751564E0,2.2850568E0,9.7260356E-1,2.6360626E0,1.3088653E0,7.5143254E-1,-6.9568783E-1,-6.9568783E-1,-1.279676E0,-5.3666973E-1,-9.560664E-1,-7.973837E-1,-4.0680495E-1,-3.484983E-1,9.874376E-2,9.41908E-2,2.1760352E-1,3.813111E-2,2.2543846E-1,-7.6571834E-1,3.4149736E-1,2.435818E0,-1.7493777E-2,3.2464173E-1,9.940265E-2,2.107966E0,3.337942E0,6.5692663E-1,5.819105E-1,-7.2003376E-1,-6.776304E-1,1.1412374E0,1.038325E0,1.1452901E0,5.205866E-1,-6.783833E-1,1.183483E0,3.2084358E0,-3.0665865E-4,1.1136886E-1,-1.4154091E-1,-5.9305865E-2,1.431561E-1,6.944879E-2,5.864996E-3,6.6625014E-2,-1.5446725E-1,-8.455795E-2,-7.703357E-2,-2.5149046E-2,-1.1037035E-2,3.0157043E-2,-5.4199576E-2,-1.6587231E-2,6.722512E-2,1.0291375E-1,2.0567227E-2,7.620781E-2,3.505419E-2,3.7585236E-3,6.821706E-2,2.796503E-2,1.0631237E-1,7.220668E-2,-4.8246127E-2,1.2941377E-1,1.3004339E-1,3.3935323E-2,1.6194937E-1,1.4381075E-2,-9.189763E-2,-1.20962046E-1,-4.4999894E-2,-8.839745E-2,-4.125383E-2,-4.823543E-4,-7.0506364E-2,6.8410866E-2,-1.1994239E-1,4.1647766E-2,-1.08016066E-1,-1.6202293E-1,-7.398485E-2,-1.54332295E-2,-5.6506116E-2,-1.23296596E-1,-1.4366396E-2,4.4910643E-2,-3.1077493E-2,5.3163465E-2,1.1062621E-1,6.696632E-2,-1.22803226E-1,6.1578967E-2,-3.7315685E-2,-1.0404247E-1,-8.6279176E-2,9.078477E-2,-3.2862976E-2,1.3275485E-1,-3.4746956E-2,3.5501726E-2],"split_indices":[11,2,2,11,2,11,11,2,2,11,2,2,2,2,2,11,11,2,11,39,2,9,23,29,36,11,11,11,39,23,33,2,2,34,2,29,24,2,2,29,31,30,21,30,22,14,115,18,11,2,29,80,33,23,21,31,103,110,103,33,9,28,29,0,0,0,0,0,0,0,0,0,0,0,0,0,0,0,0,0,0,0,0,0,0,0,0,0,0,0,0,0,0,0,0,0,0,0,0,0,0,0,0,0,0,0,0,0,0,0,0,0,0,0,0,0,0,0,0,0,0,0,0,0,0,0,0],"split_type":[0,0,0,0,0,0,0,0,0,0,0,0,0,0,0,0,0,0,0,0,0,0,0,0,0,0,0,0,0,0,0,0,0,0,0,0,0,0,0,0,0,0,0,0,0,0,0,0,0,0,0,0,0,0,0,0,0,0,0,0,0,0,0,0,0,0,0,0,0,0,0,0,0,0,0,0,0,0,0,0,0,0,0,0,0,0,0,0,0,0,0,0,0,0,0,0,0,0,0,0,0,0,0,0,0,0,0,0,0,0,0,0,0,0,0,0,0,0,0,0,0,0,0,0,0,0,0],"sum_hessian":[2.8589746E4,2.2614033E4,5.975714E3,1.6052656E4,6.5613765E3,4.718357E3,1.2573569E3,3.8037598E3,1.2248896E4,5.215179E3,1.3461975E3,3.3461145E3,1.3722423E3,9.7041174E2,2.8694522E2,5.3136456E2,3.272395E3,2.4746602E3,9.774236E3,2.0696753E3,3.145504E3,9.707166E2,3.754809E2,1.4630623E3,1.8830522E3,9.3960236E2,4.3264E2,5.307285E2,4.396832E2,2.1227977E2,7.4665436E1,1.4512889E2,3.862357E2,7.511688E2,2.5212263E3,4.968925E2,1.9777677E3,5.2950166E3,4.47922E3,1.6367125E3,4.3296262E2,2.2206274E3,9.248764E2,5.1811163E2,4.5260495E2,5.7816917E1,3.1766397E2,7.8577625E2,6.77286E2,1.4077533E3,4.7529886E2,6.0446497E2,3.351374E2,1.9254543E2,2.4009459E2,3.7592877E2,1.5479974E2,4.284532E2,1.1230007E1,1.9880025E2,1.3479533E1,1.373639E1,6.0929047E1,9.353103E1,5.159786E1,2.0602849E2,1.8020721E2,6.176414E2,1.3352736E2,8.290543E2,1.6921719E3,3.863517E2,1.10540764E2,1.6116708E3,3.6609683E2,2.4430588E3,2.8519578E3,1.785803E3,2.693417E3,4.27541E2,1.2091716E3,2.1049243E2,2.224702E2,1.2445632E3,9.760641E2,6.618912E2,2.6298523E2,2.5268394E2,2.654277E2,3.9880867E0,4.4861688E2,4.933508E1,8.481838E0,3.1642056E2,1.2434183E0,3.2053406E2,4.6524222E2,2.3960541E2,4.3768057E2,9.837544E2,4.2399896E2,4.6880423E2,6.4946313E0,6.007303E2,3.7346723E0,5.182444E1,2.8331296E2,1.6035905E2,3.218638E1,3.189733E1,2.0819725E2,5.4950382E1,3.209784E2,1.3432959E2,2.0470152E1,3.3089087E2,9.756234E1,5.4918146E0,5.7381926E0,2.5714647E1,1.730856E2,6.2392135E0,7.2403197E0,1.9989768E0,1.1737413E1,3.3960766E1,2.696828E1],"tree_param":{"num_deleted":"0","num_feature":"136","num_nodes":"127","size_leaf_vector":"1"}},{"base_weights":[1.1205849E-3,1.4766593E-1,-4.767744E-1,-2.0908639E-1,3.763752E-1,3.7404126E-1,-6.678573E-1,3.1608286E-1,-3.971499E-1,7.2549003E-1,1.9966912E-1,5.631466E-1,-4.0846175E-1,-5.2021664E-1,-1.0555313E0,-2.603131E-1,5.21167E-1,-2.688668E-1,-9.219034E-1,1.0698762E0,5.6392103E-1,7.378527E-1,3.8819402E-2,3.243547E-1,9.43373E-1,-8.161085E-1,-3.3751488E-2,-2.80719E-1,-7.901767E-1,-1.2553666E0,-8.7053514E-1,4.999063E-1,-4.769967E-1,1.3165158E0,3.697832E-1,-9.839357E-2,-4.9785185E-1,-7.523354E-1,-1.1814579E0,9.453931E-1,1.3396738E0,2.8219888E-1,7.5645113E-1,1.0704896E0,5.2442527E-1,1.2851839E-1,-2.6492977E-1,-4.1567227E-1,4.2433822E-1,7.585963E-1,1.3121165E0,6.5775174E-1,-8.611091E-1,6.960456E-1,-2.1116237E-1,-4.9237987E-1,-1.359708E-1,-6.294845E-1,-9.899095E-1,-1.1162761E0,-1.4213887E0,-7.205014E-1,-1.260357E0,2.8278865E-3,1.0559539E-1,-1.0193258E-1,-2.3954308E-2,1.4448182E-1,1.0063851E-1,4.5401994E-2,-9.139832E-3,-1.3441442E-1,-6.347959E-3,-1.5492648E-1,-4.693628E-2,-6.295066E-2,-1.23102E-1,-1.3216493E-1,-8.713394E-2,8.250921E-2,1.1802931E-1,1.4948082E-1,1.1416876E-1,3.160883E-2,-4.1354332E-2,9.065998E-2,5.4863106E-2,1.3270795E-1,8.51398E-2,6.3252464E-2,5.7821847E-3,3.1818745E-3,4.4842463E-2,-3.7432164E-2,1.113064E-2,-1.4567229E-1,-2.7521094E-2,2.516672E-2,8.73824E-2,8.455785E-2,-3.1836536E-3,1.3665988E-1,5.7369024E-2,-2.9058738E-2,1.342849E-1,-7.269512E-2,-1.3533565E-1,2.8495109E-2,1.21557474E-1,-4.6062164E-2,3.1502005E-2,-2.9269448E-2,-6.720145E-2,-3.8788568E-3,-4.5290593E-2,-7.737287E-2,-3.6377206E-2,-1.0659154E-1,-6.931234E-2,-9.6057184E-2,-1.3230829E-1,-1.4290325E-1,3.2107215E-2,-9.4883434E-2,-5.644373E-2,-8.923348E-2,-1.3633601E-1],"categories":[],"categories_nodes":[],"categories_segments":[],"categories_sizes":[],"default_left":[0,0,0,0,0,0,0,0,0,0,0,0,0,0,0,0,0,0,0,0,0,0,0,0,0,0,0,0,0,0,0,0,0,0,0,0,0,0,0,0,0,0,0,0,0,0,0,0,0,0,0,0,0,0,0,0,0,0,0,0,0,0,0,0,0,0,0,0,0,0,0,0,0,0,0,0,0,0,0,0,0,0,0,0,0,0,0,0,0,0,0,0,0,0,0,0,0,0,0,0,0,0,0,0,0,0,0,0,0,0,0,0,0,0,0,0,0,0,0,0,0,0,0,0,0,0,0],"id":2,"left_children":[1,3,5,7,9,11,13,15,17,19,21,23,25,27,29,31,33,35,37,39,41,43,45,47,49,51,53,55,57,59,61,63,65,67,69,71,73,75,77,79,81,83,85,87,89,91,93,95,97,99,101,103,105,107,109,111,113,115,117,119,121,123,125,-1,-1,-1,-1,-1,-1,-1,-1,-1,-1,-1,-1,-1,-1,-1,-1,-1,-1,-1,-1,-1,-1,-1,-1,-1,-1,-1,-1,-1,-1,-1,-1,-1,-1,-1,-1,-1,-1,-1,-1,-1,-1,-1,-1,-1,-1,-1,-1,-1,-1,-1,-1,-1,-1,-1,-1,-1,-1,-1,-1,-1,-1,-1,-1],"loss_changes":[1.9984497E3,1.781968E3,1.0889971E3,8.427848E2,8.208301E2,1.8206714E2,3.1247705E2,2.661358E2,4.2268512E2,2.4821973E2,7.649674E2,8.958865E1,3.6593952E1,2.5598035E2,5.4633545E1,9.76248E1,1.9938705E2,1.970795E2,5.3411865E1,4.665625E1,1.6499854E2,1.4379614E2,1.854346E2,4.5286484E1,2.4992096E1,8.179436E0,1.6456055E1,6.431261E1,5.914795E1,1.5094482E1,4.5063354E1,3.4487118E1,5.9068184E1,9.092499E0,5.42735E1,1.25876564E2,6.3819397E1,4.3263336E1,1.9967773E1,2.6713806E1,1.2056763E1,2.9324074E1,5.5944336E1,4.3493896E1,6.253882E1,1.6251787E2,6.3904068E1,1.0284299E1,4.1505043E1,1.7659317E1,4.2831726E0,2.9680896E0,6.4004364E0,4.9643793E0,1.3546629E1,3.040184E1,3.8461426E1,3.937793E1,1.7950867E1,1.1536102E1,4.7960205E0,1.9772888E1,7.01355E0,0E0,0E0,0E0,0E0,0E0,0E0,0E0,0E0,0E0,0E0,0E0,0E0,0E0,0E0,0E0,0E0,0E0,0E0,0E0,0E0,0E0,0E0,0E0,0E0,0E0,0E0,0E0,0E0,0E0,0E0,0E0,0E0,0E0,0E0,0E0,0E0,0E0,0E0,0E0,0E0,0E0,0E0,0E0,0E0,0E0,0E0,0E0,0E0,0E0,0E0,0E0,0E0,0E0,0E0,0E0,0E0,0E0,0E0,0E0,0E0,0E0,0E0,0E0,0E0],"parents":[2147483647,0,0,1,1,2,2,3,3,4,4,5,5,6,6,7,7,8,8,9,9,10,10,11,11,12,12,13,13,14,14,15,15,16,16,17,17,18,18,19,19,20,20,21,21,22,22,23,23,24,24,25,25,26,26,27,27,28,28,29,29,30,30,31,31,32,32,33,33,34,34,35,35,36,36,37,37,38,38,39,39,40,40,41,41,42,42,43,43,44,44,45,45,46,46,47,47,48,48,49,49,50,50,51,51,52,52,53,53,54,54,55,55,56,56,57,57,58,58,59,59,60,60,61,61,62,62],"right_children":[2,4,6,8,10,12,14,16,18,20,22,24,26,28,30,32,34,36,38,40,42,44,46,48,50,52,54,56,58,60,62,64,66,68,70,72,74,76,78,80,82,84,86,88,90,92,94,96,98,100,102,104,106,108,110,112,114,116,118,120,122,124,126,-1,-1,-1,-1,-1,-1,-1,-1,-1,-1,-1,-1,-1,-1,-1,-1,-1,-1,-1,-1,-1,-1,-1,-1,-1,-1,-1,-1,-1,-1,-1,-1,-1,-1,-1,-1,-1,-1,-1,-1,-1,-1,-1,-1,-1,-1,-1,-1,-1,-1,-1,-1,-1,-1,-1,-1,-1,-1,-1,-1,-1,-1,-1,-1],"split_conditions":[6.3473456E-2,-6.15441E-1,-6.140025E-1,-1.0520751E0,-4.8897496E-1,2.466883E0,1.1511236E0,-1.3626295E0,9.950478E-1,-6.248745E-1,-5.044849E-1,9.3836975E-1,7.989297E-1,-3.4220347E-1,2.3872213E-1,-6.9688994E-1,-6.929228E-1,-4.4659677E-1,-4.2237765E-1,1.6515957E0,-3.413622E-1,-1.068965E0,2.9183152E-1,2.9925266E-1,8.351717E-1,6.489805E-1,7.5143254E-1,1.9846098E-1,9.338938E-1,1.6785201E0,3.557839E0,-5.7559407E-1,-5.90876E-1,-1.1559294E0,9.40688E-1,-6.8467027E-1,-4.998469E-1,3.8380656E0,-1.2795051E0,6.4827025E-1,-6.5235627E-1,1.1049548E0,-2.0246442E-1,-6.320937E-1,-4.4659677E-1,2.9149193E-1,5.0314105E-1,2.7833068E-1,-2.3944902E-3,1.4853576E0,8.3676153E-1,1.0221821E0,3.2259111E0,2.4416463E0,3.2084358E0,3.4371987E-1,1.1333656E0,2.0249449E-1,3.0182162E-1,-2.824077E-1,4.192628E0,3.2449865E-1,-5.759506E-1,2.8278865E-3,1.0559539E-1,-1.0193258E-1,-2.3954308E-2,1.4448182E-1,1.0063851E-1,4.5401994E-2,-9.139832E-3,-1.3441442E-1,-6.347959E-3,-1.5492648E-1,-4.693628E-2,-6.295066E-2,-1.23102E-1,-1.3216493E-1,-8.713394E-2,8.250921E-2,1.1802931E-1,1.4948082E-1,1.1416876E-1,3.160883E-2,-4.1354332E-2,9.065998E-2,5.4863106E-2,1.3270795E-1,8.51398E-2,6.3252464E-2,5.7821847E-3,3.1818745E-3,4.4842463E-2,-3.7432164E-2,1.113064E-2,-1.4567229E-1,-2.7521094E-2,2.516672E-2,8.73824E-2,8.455785E-2,-3.1836536E-3,1.3665988E-1,5.7369024E-2,-2.9058738E-2,1.342849E-1,-7.269512E-2,-1.3533565E-1,2.8495109E-2,1.21557474E-1,-4.6062164E-2,3.1502005E-2,-2.9269448E-2,-6.720145E-2,-3.8788568E-3,-4.5290593E-2,-7.737287E-2,-3.6377206E-2,-1.0659154E-1,-6.931234E-2,-9.6057184E-2,-1.3230829E-1,-1.4290325E-1,3.2107215E-2,-9.4883434E-2,-5.644373E-2,-8.923348E-2,-1.3633601E-1],"split_indices":[11,25,0,35,0,11,11,24,0,0,11,23,23,0,20,11,11,35,35,28,9,36,39,20,20,24,33,20,35,39,11,8,8,37,0,0,0,0,24,20,3,101,36,11,35,29,29,23,31,18,6,110,36,25,29,30,36,20,28,0,64,26,0,0,0,0,0,0,0,0,0,0,0,0,0,0,0,0,0,0,0,0,0,0,0,0,0,0,0,0,0,0,0,0,0,0,0,0,0,0,0,0,0,0,0,0,0,0,0,0,0,0,0,0,0,0,0,0,0,0,0,0,0,0,0,0,0],"split_type":[0,0,0,0,0,0,0,0,0,0,0,0,0,0,0,0,0,0,0,0,0,0,0,0,0,0,0,0,0,0,0,0,0,0,0,0,0,0,0,0,0,0,0,0,0,0,0,0,0,0,0,0,0,0,0,0,0,0,0,0,0,0,0,0,0,0,0,0,0,0,0,0,0,0,0,0,0,0,0,0,0,0,0,0,0,0,0,0,0,0,0,0,0,0,0,0,0,0,0,0,0,0,0,0,0,0,0,0,0,0,0,0,0,0,0,0,0,0,0,0,0,0,0,0,0,0,0],"sum_hessian":[2.8533707E4,2.183787E4,6.6958384E3,8.530948E3,1.330692E4,1.2278328E3,5.468006E3,2.2492405E3,6.2817075E3,4.4708467E3,8.836073E3,9.890839E2,2.3874884E2,3.961617E3,1.5063888E3,5.901983E2,1.6590421E3,5.048939E3,1.2327689E3,1.4259008E3,3.044946E3,2.0323824E3,6.803691E3,6.0867413E2,3.8040982E2,1.13784676E2,1.2496416E2,2.1003293E3,1.8612877E3,7.213697E2,7.850191E2,1.3062E2,4.5957834E2,2.640523E2,1.3949897E3,2.8950676E3,2.153871E3,7.479976E2,4.8477127E2,9.787945E2,4.4710626E2,1.2371444E3,1.8078018E3,7.9278046E2,1.239602E3,5.2530195E3,1.5506716E3,7.207253E1,5.3660156E2,2.5545767E2,1.2495214E2,2.967765E0,1.1081691E2,2.3865936E1,1.0109822E2,8.520302E2,1.2482991E3,1.0337504E3,8.2753735E2,3.9672473E2,3.2464496E2,5.689076E2,2.161115E2,7.124359E1,5.9376408E1,1.3894469E2,3.2063364E2,1.8419244E2,7.985987E1,1.1795547E3,2.1543512E2,7.790417E1,2.8171636E3,5.5413376E1,2.0984578E3,5.970991E2,1.508985E2,3.3160504E2,1.5316621E2,6.502764E2,3.285181E2,2.4700923E2,2.0009703E2,1.1802026E3,5.6941715E1,1.0475739E3,7.602279E2,3.6281317E2,4.2996725E2,1.006149E3,2.3345302E2,4.0345696E3,1.2184497E3,1.2013737E3,3.4929803E2,7.454129E0,6.46184E1,3.888022E2,1.477994E2,2.3007011E2,2.5387556E1,1.1557422E2,9.377923E0,1.486264E0,1.4815011E0,8.902948E1,2.1787432E1,1.418783E1,9.678105E0,6.866788E1,3.2430344E1,4.047412E2,4.4728897E2,9.562158E2,2.920833E2,6.687837E2,3.6496664E2,6.567537E2,1.7078363E2,2.2954536E2,1.6717935E2,3.2340613E2,1.2388359E0,2.2891255E2,3.3999503E2,4.9372078E1,1.6673943E2],"tree_param":{"num_deleted":"0","num_feature":"136","num_nodes":"127","size_leaf_vector":"1"}},{"base_weights":[1.5311112E-3,1.0255247E-1,-5.406795E-1,-7.2455E-2,5.044658E-1,-6.851612E-1,1.353407E-1,3.4394506E-1,-2.0838095E-1,2.5311875E-1,7.643829E-1,-5.4158664E-1,-1.0380182E0,4.1149595E-1,-4.262955E-1,-2.587759E-1,5.2478296E-1,-5.773248E-1,-8.315424E-2,1.881906E-2,5.340966E-1,6.406468E-1,1.1476588E0,-7.3902917E-1,-3.2161713E-1,-1.1898535E0,-8.31595E-1,1.0607172E-1,7.2461843E-1,-6.422086E-1,1.1391717E-1,4.8288006E-1,-4.7462824E-1,1.0861622E0,3.8931507E-1,-7.5174844E-1,-3.121829E-1,-3.004997E-1,7.261968E-2,-1.1697015E-1,2.4499498E-1,3.6200874E-3,6.0023004E-1,8.4772724E-1,4.5102334E-1,9.0125877E-1,1.2760042E0,-8.45274E-1,-4.7374982E-1,-4.5033503E-1,2.1152305E-4,-9.994742E-1,-1.3007423E0,-7.088228E-1,-1.1752154E0,-2.592181E-1,3.2242638E-1,3.5490128E-1,8.3512557E-1,-6.932124E-1,1.249836E0,4.2142662E-1,-5.332501E-1,-1.6029937E-2,8.092236E-2,-7.6954596E-2,-1.147189E-2,1.2098884E-1,5.512907E-2,1.3548384E-2,5.414768E-2,-4.7916453E-2,-8.753117E-2,1.9135745E-2,-3.9992664E-2,-3.89485E-2,9.435518E-3,-1.3831342E-2,2.2818211E-2,-1.957919E-3,-4.400312E-2,4.4461362E-2,4.860638E-3,2.4216035E-2,-4.005999E-2,7.9907976E-2,4.7124866E-2,7.096727E-2,9.885052E-2,5.6470763E-2,2.42514E-2,1.2876555E-1,7.091638E-2,8.276313E-2,1.3215804E-1,-7.550736E-2,-1.151702E-1,-1.0135738E-2,-6.1866727E-2,-5.1838774E-2,-1.0795693E-2,-1.0776155E-2,6.9220565E-2,-1.4502506E-1,-8.8819586E-2,-1.3356103E-1,-4.074048E-2,-4.559906E-2,-8.776263E-2,-1.2160428E-1,9.973002E-2,1.8681465E-2,-6.0343422E-2,4.64613E-2,-3.3855631E-3,1.3618149E-1,1.2066996E-2,9.2178665E-2,1.6662074E-2,2.7076755E-2,-7.88771E-2,2.6974812E-2,1.4879338E-1,5.9124745E-2,-7.492441E-2,-8.483376E-2,5.3374123E-2],"categories":[],"categories_nodes":[],"categories_segments":[],"categories_sizes":[],"default_left":[0,0,0,0,0,0,0,0,0,0,0,0,0,0,0,0,0,0,0,0,0,0,0,0,0,0,0,0,0,0,0,0,0,0,0,0,0,0,0,0,0,0,0,0,0,0,0,0,0,0,0,0,0,0,0,0,0,0,0,0,0,0,0,0,0,0,0,0,0,0,0,0,0,0,0,0,0,0,0,0,0,0,0,0,0,0,0,0,0,0,0,0,0,0,0,0,0,0,0,0,0,0,0,0,0,0,0,0,0,0,0,0,0,0,0,0,0,0,0,0,0,0,0,0,0,0,0],"id":3,"left_children":[1,3,5,7,9,11,13,15,17,19,21,23,25,27,29,31,33,35,37,39,41,43,45,47,49,51,53,55,57,59,61,63,65,67,69,71,73,75,77,79,81,83,85,87,89,91,93,95,97,99,101,103,105,107,109,111,113,115,117,119,121,123,125,-1,-1,-1,-1,-1,-1,-1,-1,-1,-1,-1,-1,-1,-1,-1,-1,-1,-1,-1,-1,-1,-1,-1,-1,-1,-1,-1,-1,-1,-1,-1,-1,-1,-1,-1,-1,-1,-1,-1,-1,-1,-1,-1,-1,-1,-1,-1,-1,-1,-1,-1,-1,-1,-1,-1,-1,-1,-1,-1,-1,-1,-1,-1,-1],"loss_changes":[1.5583126E3,1.6868324E3,4.3649927E2,9.457111E2,4.750652E2,1.8594482E2,1.2233317E2,4.483286E2,5.8192993E2,2.4356355E2,1.6885376E2,1.1350104E2,3.2347168E1,5.046694E1,3.0411686E1,1.5226385E2,2.401474E2,1.4738025E2,3.1846494E2,6.2022976E1,5.901718E1,1.058551E2,2.6408813E1,3.847461E1,5.1388412E1,1.1588745E1,1.832428E1,2.1320581E1,1.0358658E1,1.8814056E1,1.5174993E1,4.5170826E1,7.804477E1,3.9992737E1,9.8414795E1,6.440369E1,5.6112175E1,1.3801501E2,1.7983691E2,3.969738E1,2.967736E1,1.8175169E1,3.798822E1,2.4410095E1,3.3390594E1,2.1492538E1,1.056604E1,2.631665E1,2.1346466E1,2.0590118E1,2.6629272E1,1.0200745E1,1.1370056E1,1.3986328E1,1.1680725E1,1.5543866E1,8.587437E0,1.439981E1,1.1435471E1,1.6955238E1,8.211193E-1,1.0678211E1,8.7364E0,0E0,0E0,0E0,0E0,0E0,0E0,0E0,0E0,0E0,0E0,0E0,0E0,0E0,0E0,0E0,0E0,0E0,0E0,0E0,0E0,0E0,0E0,0E0,0E0,0E0,0E0,0E0,0E0,0E0,0E0,0E0,0E0,0E0,0E0,0E0,0E0,0E0,0E0,0E0,0E0,0E0,0E0,0E0,0E0,0E0,0E0,0E0,0E0,0E0,0E0,0E0,0E0,0E0,0E0,0E0,0E0,0E0,0E0,0E0,0E0,0E0,0E0,0E0,0E0],"parents":[2147483647,0,0,1,1,2,2,3,3,4,4,5,5,6,6,7,7,8,8,9,9,10,10,11,11,12,12,13,13,14,14,15,15,16,16,17,17,18,18,19,19,20,20,21,21,22,22,23,23,24,24,25,25,26,26,27,27,28,28,29,29,30,30,31,31,32,32,33,33,34,34,35,35,36,36,37,37,38,38,39,39,40,40,41,41,42,42,43,43,44,44,45,45,46,46,47,47,48,48,49,49,50,50,51,51,52,52,53,53,54,54,55,55,56,56,57,57,58,58,59,59,60,60,61,61,62,62],"right_children":[2,4,6,8,10,12,14,16,18,20,22,24,26,28,30,32,34,36,38,40,42,44,46,48,50,52,54,56,58,60,62,64,66,68,70,72,74,76,78,80,82,84,86,88,90,92,94,96,98,100,102,104,106,108,110,112,114,116,118,120,122,124,126,-1,-1,-1,-1,-1,-1,-1,-1,-1,-1,-1,-1,-1,-1,-1,-1,-1,-1,-1,-1,-1,-1,-1,-1,-1,-1,-1,-1,-1,-1,-1,-1,-1,-1,-1,-1,-1,-1,-1,-1,-1,-1,-1,-1,-1,-1,-1,-1,-1,-1,-1,-1,-1,-1,-1,-1,-1,-1,-1,-1,-1,-1,-1,-1],"split_conditions":[3.2464173E-1,2.9149193E-1,1.4711425E0,-5.348995E-1,3.4760782E-1,1.6205654E0,9.59496E-1,-1.100693E0,-9.308548E-1,-2.8156814E-1,6.90154E-1,2.223905E-1,3.3152252E-1,1.1861423E0,2.7155132E0,-6.929228E-1,-6.7705435E-1,-3.0054843E-1,-2.978756E-1,-9.5222466E-2,-8.5806704E-1,-1.466213E-2,5.044949E-1,-1.5595865E-1,-1.5506226E-2,1.4825871E0,1.9191834E0,1.1335933E0,5.652229E-1,1.3155786E0,3.212646E0,-8.644001E-1,-1.0788876E0,-9.6355397E-1,-8.7811947E-1,-3.0846706E-1,-9.7831905E-1,-1.0174894E-1,-2.7474925E-1,7.2626656E-1,-1.4091636E-1,2.3953965E-2,-1.10753275E-1,1.622589E-1,3.5974374E-1,-2.2281031E-1,5.159815E-1,1.9191834E0,2.9527655E-1,8.622047E-1,1.8476081E0,-2.8956643E-1,1.2285165E0,1.6658651E0,1.1976615E0,8.4686935E-1,1.5219932E0,2.7976927E-1,1.1245489E0,3.107123E-1,1.2598411E0,1.9504797E0,-6.5014964E-1,-1.6029937E-2,8.092236E-2,-7.6954596E-2,-1.147189E-2,1.2098884E-1,5.512907E-2,1.3548384E-2,5.414768E-2,-4.7916453E-2,-8.753117E-2,1.9135745E-2,-3.9992664E-2,-3.89485E-2,9.435518E-3,-1.3831342E-2,2.2818211E-2,-1.957919E-3,-4.400312E-2,4.4461362E-2,4.860638E-3,2.4216035E-2,-4.005999E-2,7.9907976E-2,4.7124866E-2,7.096727E-2,9.885052E-2,5.6470763E-2,2.42514E-2,1.2876555E-1,7.091638E-2,8.276313E-2,1.3215804E-1,-7.550736E-2,-1.151702E-1,-1.0135738E-2,-6.1866727E-2,-5.1838774E-2,-1.0795693E-2,-1.0776155E-2,6.9220565E-2,-1.4502506E-1,-8.8819586E-2,-1.3356103E-1,-4.074048E-2,-4.559906E-2,-8.776263E-2,-1.2160428E-1,9.973002E-2,1.8681465E-2,-6.0343422E-2,4.64613E-2,-3.3855631E-3,1.3618149E-1,1.2066996E-2,9.2178665E-2,1.6662074E-2,2.7076755E-2,-7.88771E-2,2.6974812E-2,1.4879338E-1,5.9124745E-2,-7.492441E-2,-8.483376E-2,5.3374123E-2],"split_indices":[11,29,25,11,20,11,33,25,25,9,23,20,20,19,19,11,11,19,9,19,25,36,20,19,19,39,125,26,20,102,39,6,28,39,29,18,36,19,19,36,18,30,30,23,30,36,24,125,30,29,109,19,25,36,23,39,39,30,113,30,103,73,12,0,0,0,0,0,0,0,0,0,0,0,0,0,0,0,0,0,0,0,0,0,0,0,0,0,0,0,0,0,0,0,0,0,0,0,0,0,0,0,0,0,0,0,0,0,0,0,0,0,0,0,0,0,0,0,0,0,0,0,0,0,0,0,0],"split_type":[0,0,0,0,0,0,0,0,0,0,0,0,0,0,0,0,0,0,0,0,0,0,0,0,0,0,0,0,0,0,0,0,0,0,0,0,0,0,0,0,0,0,0,0,0,0,0,0,0,0,0,0,0,0,0,0,0,0,0,0,0,0,0,0,0,0,0,0,0,0,0,0,0,0,0,0,0,0,0,0,0,0,0,0,0,0,0,0,0,0,0,0,0,0,0,0,0,0,0,0,0,0,0,0,0,0,0,0,0,0,0,0,0,0,0,0,0,0,0,0,0,0,0,0,0,0,0],"sum_hessian":[2.84474E4,2.3980342E4,4.4670596E3,1.6706537E4,7.2738047E3,3.6804468E3,7.866126E2,4.1110576E3,1.25954795E4,3.698869E3,3.574936E3,2.6178152E3,1.0626317E3,5.275063E2,2.591063E2,9.486933E2,3.1623643E3,3.190879E3,9.404601E3,2.0175535E3,1.6813153E3,2.7044937E3,8.704423E2,1.3783033E3,1.2395117E3,6.0952734E2,4.5310437E2,2.6771347E2,2.5979282E2,1.8498314E2,7.412317E1,2.1358629E2,7.35107E2,6.13403E2,2.5489612E3,1.923602E3,1.267277E3,3.9259463E3,5.4786543E3,1.2609812E3,7.565723E2,1.8648853E2,1.4948268E3,1.2910824E3,1.4134114E3,3.008627E2,5.695796E2,9.825886E2,3.9571478E2,8.8510693E2,3.5440475E2,2.2803625E2,3.814911E2,3.3608667E2,1.1701773E2,9.950785E1,1.6820561E2,6.0751526E1,1.9904129E2,1.8074443E2,4.238706E0,5.048393E1,2.3639244E1,7.2064865E1,1.4152142E2,4.0340765E2,3.3169934E2,4.971423E2,1.1626071E2,9.560313E2,1.5929299E3,6.0151697E2,1.3220851E3,1.878826E2,1.0793944E3,3.2039185E3,7.220277E2,2.325513E3,3.1531414E3,9.6971E2,2.9127112E2,3.7457382E2,3.8199847E2,1.175313E2,6.895722E1,5.8607837E2,9.087484E2,6.548964E2,6.361859E2,9.135912E2,4.9982016E2,9.8011215E1,2.0285149E2,5.43223E1,5.152573E2,7.618067E2,2.2078195E2,1.1133026E2,2.8438452E2,7.379202E2,1.471867E2,3.073004E2,4.710436E1,4.2765446E1,1.8527081E2,3.666839E2,1.4807196E1,1.3603543E2,2.0005122E2,1.1529135E2,1.726374E0,4.3542747E1,5.5965103E1,1.2000816E2,4.819745E1,1.0556646E1,5.0194878E1,1.7586438E2,2.317692E1,1.6135777E1,1.6460866E2,1.2453537E0,2.9933524E0,4.4520596E1,5.963333E0,1.8408155E1,5.231089E0],"tree_param":{"num_deleted":"0","num_feature":"136","num_nodes":"127","size_leaf_vector":"1"}},{"base_weights":[-1.5733734E-3,9.1960244E-2,-4.743322E-1,-3.4893416E-2,5.266336E-1,-6.421288E-1,2.379733E-1,3.079881E-1,-1.7702222E-1,4.2441037E-1,9.213392E-1,-9.0150577E-1,-4.9604172E-1,-2.5911897E-1,5.119011E-1,-1.2197044E-1,4.959811E-1,-5.640194E-1,-5.4629274E-2,2.023038E-1,6.207448E-1,8.077803E-1,1.2254539E0,-1.0011765E0,-5.8024657E-1,-8.5802424E-1,-3.5408115E-1,-5.087424E-1,3.780628E-1,2.715008E-1,8.6906105E-1,2.890936E-1,-3.5384506E-1,8.3571196E-1,3.5657793E-1,-8.5890996E-1,-4.2827126E-1,7.9305574E-2,-2.6251218E-1,4.4550255E-1,1.026665E-1,4.975582E-1,8.2621795E-1,6.6984457E-1,1.0356873E0,5.408777E-1,1.2834783E0,-1.2068487E0,-9.197245E-1,-1.2326406E0,-4.725038E-1,-7.3187363E-1,-1.1942096E0,-4.7451782E-1,-5.0754074E-2,-5.8075166E-1,4.6384907E-1,-3.967398E-1,5.5303717E-1,4.252294E-1,-1.5111855E-1,1.0540972E0,5.65864E-1,-1.3138908E-2,5.4425713E-2,-7.696552E-2,-1.2885471E-2,9.8772824E-2,5.744298E-2,2.1748848E-2,5.4941155E-2,-6.1631616E-2,-9.728813E-2,-2.8973347E-2,-5.8307063E-2,-1.9606957E-3,3.3221167E-2,-4.179089E-2,-5.8739292E-3,5.972712E-2,2.1353345E-2,1.5784979E-2,-4.2347014E-2,7.515808E-2,3.5788875E-2,9.481485E-2,6.5625235E-2,3.847506E-2,7.936727E-2,4.1307233E-2,1.0803483E-1,7.407141E-2,-7.072897E-2,1.3084908E-1,5.321319E-2,-1.2204673E-1,4.1548353E-2,-9.742346E-2,-5.9192162E-2,-1.3533388E-1,-1.292172E-2,6.4873593E-3,-5.676747E-2,-7.967985E-2,-1.8483263E-2,-1.2145573E-1,-5.607097E-3,-1.062539E-1,-4.373492E-2,1.1668931E-2,-2.8975004E-2,-6.338519E-2,6.60244E-2,7.098381E-2,-6.6075064E-2,9.8880656E-2,-7.276439E-2,9.6034735E-2,3.4834627E-2,6.605454E-2,1.3143936E-2,-7.059648E-4,-8.061299E-2,1.07689716E-1,-8.719831E-2,7.3108874E-2,-1.8145604E-2],"categories":[],"categories_nodes":[],"categories_segments":[],"categories_sizes":[],"default_left":[0,0,0,0,0,0,0,0,0,0,0,0,0,0,0,0,0,0,0,0,0,0,0,0,0,0,0,0,0,0,0,0,0,0,0,0,0,0,0,0,0,0,0,0,0,0,0,0,0,0,0,0,0,0,0,0,0,0,0,0,0,0,0,0,0,0,0,0,0,0,0,0,0,0,0,0,0,0,0,0,0,0,0,0,0,0,0,0,0,0,0,0,0,0,0,0,0,0,0,0,0,0,0,0,0,0,0,0,0,0,0,0,0,0,0,0,0,0,0,0,0,0,0,0,0,0,0],"id":4,"left_children":[1,3,5,7,9,11,13,15,17,19,21,23,25,27,29,31,33,35,37,39,41,43,45,47,49,51,53,55,57,59,61,63,65,67,69,71,73,75,77,79,81,83,85,87,89,91,93,95,97,99,101,103,105,107,109,111,113,115,117,119,121,123,125,-1,-1,-1,-1,-1,-1,-1,-1,-1,-1,-1,-1,-1,-1,-1,-1,-1,-1,-1,-1,-1,-1,-1,-1,-1,-1,-1,-1,-1,-1,-1,-1,-1,-1,-1,-1,-1,-1,-1,-1,-1,-1,-1,-1,-1,-1,-1,-1,-1,-1,-1,-1,-1,-1,-1,-1,-1,-1,-1,-1,-1,-1,-1,-1],"loss_changes":[1.2469015E3,1.2980638E3,5.5682715E2,8.8816046E2,2.1418652E2,1.42396E2,1.2114553E2,4.3174612E2,6.1023254E2,1.8415894E2,3.676172E1,4.2870728E1,1.2373309E2,5.051805E1,4.8988678E1,1.550424E2,1.756977E2,1.2355145E2,2.725869E2,4.8038345E1,5.6354248E1,2.4419922E1,1.10347595E1,1.6217285E1,2.2170769E1,2.7933167E1,6.337712E1,1.6221146E1,1.2371537E1,2.2421024E1,1.2317581E1,6.3030674E1,9.717285E1,4.23479E1,7.059964E1,2.6352722E1,4.53338E1,1.4895987E2,1.2144656E2,2.0165176E1,4.097405E1,4.956491E1,1.6766663E1,1.7363571E1,7.878235E0,6.709788E0,4.405487E0,6.919037E0,1.2737244E1,5.852951E0,1.4328209E1,1.7486664E1,4.187439E0,2.6683624E1,1.9817442E1,1.4422287E1,4.9663434E0,8.5576315E0,5.7967854E0,1.7375786E1,8.724842E0,7.1656647E0,1.1171141E1,0E0,0E0,0E0,0E0,0E0,0E0,0E0,0E0,0E0,0E0,0E0,0E0,0E0,0E0,0E0,0E0,0E0,0E0,0E0,0E0,0E0,0E0,0E0,0E0,0E0,0E0,0E0,0E0,0E0,0E0,0E0,0E0,0E0,0E0,0E0,0E0,0E0,0E0,0E0,0E0,0E0,0E0,0E0,0E0,0E0,0E0,0E0,0E0,0E0,0E0,0E0,0E0,0E0,0E0,0E0,0E0,0E0,0E0,0E0,0E0,0E0,0E0,0E0,0E0],"parents":[2147483647,0,0,1,1,2,2,3,3,4,4,5,5,6,6,7,7,8,8,9,9,10,10,11,11,12,12,13,13,14,14,15,15,16,16,17,17,18,18,19,19,20,20,21,21,22,22,23,23,24,24,25,25,26,26,27,27,28,28,29,29,30,30,31,31,32,32,33,33,34,34,35,35,36,36,37,37,38,38,39,39,40,40,41,41,42,42,43,43,44,44,45,45,46,46,47,47,48,48,49,49,50,50,51,51,52,52,53,53,54,54,55,55,56,56,57,57,58,58,59,59,60,60,61,61,62,62],"right_children":[2,4,6,8,10,12,14,16,18,20,22,24,26,28,30,32,34,36,38,40,42,44,46,48,50,52,54,56,58,60,62,64,66,68,70,72,74,76,78,80,82,84,86,88,90,92,94,96,98,100,102,104,106,108,110,112,114,116,118,120,122,124,126,-1,-1,-1,-1,-1,-1,-1,-1,-1,-1,-1,-1,-1,-1,-1,-1,-1,-1,-1,-1,-1,-1,-1,-1,-1,-1,-1,-1,-1,-1,-1,-1,-1,-1,-1,-1,-1,-1,-1,-1,-1,-1,-1,-1,-1,-1,-1,-1,-1,-1,-1,-1,-1,-1,-1,-1,-1,-1,-1,-1,-1,-1,-1,-1],"split_conditions":[9.0967464E-1,5.0063854E-1,1.4711425E0,-9.0676033E-1,1.3700091E0,-9.848523E-2,-6.5120417E-1,-1.0521678E0,-9.065922E-1,-3.413622E-1,1.9191834E0,-4.7119546E-1,-6.5120417E-1,2.7155132E0,9.8795134E-1,-1.362714E0,-1.0332804E0,-1.0097023E0,4.38408E-2,-3.9920992E-1,1.0586783E0,9.676608E-1,4.109173E-2,-7.34265E-1,-4.2445013E-1,2.9440818E0,-1.5506226E-2,2.4311368E0,-6.725189E-1,4.8741677E-1,4.7600645E-1,-1.3958793E0,-1.0903236E0,-3.249421E-1,-4.9412805E-1,-6.6456896E-1,-2.545164E-1,-2.0419484E-1,7.7239587E-3,3.234377E-1,1.1333656E0,-6.4034986E-1,-5.626581E-1,-4.5551452E-1,-5.751026E-1,2.287838E0,3.0921304E-1,3.624809E0,4.561463E-1,1.1264617E0,-7.451304E-1,1.0412087E0,2.7061555E0,-7.852792E-1,-1.1271045E-1,1.2946266E0,3.6706557E0,1.4968492E0,1.6181271E0,4.9354282E-1,7.0499444E-1,5.5740285E0,2.1142235E0,-1.3138908E-2,5.4425713E-2,-7.696552E-2,-1.2885471E-2,9.8772824E-2,5.744298E-2,2.1748848E-2,5.4941155E-2,-6.1631616E-2,-9.728813E-2,-2.8973347E-2,-5.8307063E-2,-1.9606957E-3,3.3221167E-2,-4.179089E-2,-5.8739292E-3,5.972712E-2,2.1353345E-2,1.5784979E-2,-4.2347014E-2,7.515808E-2,3.5788875E-2,9.481485E-2,6.5625235E-2,3.847506E-2,7.936727E-2,4.1307233E-2,1.0803483E-1,7.407141E-2,-7.072897E-2,1.3084908E-1,5.321319E-2,-1.2204673E-1,4.1548353E-2,-9.742346E-2,-5.9192162E-2,-1.3533388E-1,-1.292172E-2,6.4873593E-3,-5.676747E-2,-7.967985E-2,-1.8483263E-2,-1.2145573E-1,-5.607097E-3,-1.062539E-1,-4.373492E-2,1.1668931E-2,-2.8975004E-2,-6.338519E-2,6.60244E-2,7.098381E-2,-6.6075064E-2,9.8880656E-2,-7.276439E-2,9.6034735E-2,3.4834627E-2,6.605454E-2,1.3143936E-2,-7.059648E-4,-8.061299E-2,1.07689716E-1,-8.719831E-2,7.3108874E-2,-1.8145604E-2],"split_indices":[35,25,25,35,29,26,9,25,25,9,125,12,9,19,23,34,38,28,36,21,25,19,22,31,5,35,19,27,12,18,101,24,28,18,25,35,18,19,26,30,36,35,3,9,9,27,18,64,69,112,6,100,34,25,21,102,35,24,39,30,101,67,117,0,0,0,0,0,0,0,0,0,0,0,0,0,0,0,0,0,0,0,0,0,0,0,0,0,0,0,0,0,0,0,0,0,0,0,0,0,0,0,0,0,0,0,0,0,0,0,0,0,0,0,0,0,0,0,0,0,0,0,0,0,0,0,0],"split_type":[0,0,0,0,0,0,0,0,0,0,0,0,0,0,0,0,0,0,0,0,0,0,0,0,0,0,0,0,0,0,0,0,0,0,0,0,0,0,0,0,0,0,0,0,0,0,0,0,0,0,0,0,0,0,0,0,0,0,0,0,0,0,0,0,0,0,0,0,0,0,0,0,0,0,0,0,0,0,0,0,0,0,0,0,0,0,0,0,0,0,0,0,0,0,0,0,0,0,0,0,0,0,0,0,0,0,0,0,0,0,0,0,0,0,0,0,0,0,0,0,0,0,0,0,0,0,0],"sum_hessian":[2.8196432E4,2.3539945E4,4.6564873E3,1.8222787E4,5.317159E3,3.7687803E3,8.8770685E2,5.339715E3,1.2883071E4,4.2250146E3,1.0921443E3,1.3560138E3,2.4127666E3,3.1540347E2,5.723034E2,1.624553E3,3.715162E3,3.0945935E3,9.788478E3,1.9833491E3,2.2416658E3,7.978696E2,2.9427472E2,1.0333123E3,3.2270157E2,6.782545E2,1.734512E3,2.2676657E2,8.8636894E1,3.4311606E2,2.2918735E2,5.85803E2,1.03875E3,1.0794663E3,2.6356958E3,9.7381433E2,2.120779E3,5.9534233E3,3.8350547E3,5.754054E2,1.4079438E3,1.4035945E3,8.380712E2,4.994983E2,2.9837134E2,2.380018E1,2.7047452E2,2.8921252E2,7.4409973E2,4.426027E1,2.784413E2,4.954996E2,1.8275491E2,1.2411473E3,4.9336472E2,2.115096E2,1.5256976E1,1.6095798E1,7.25411E1,2.5159259E2,9.152346E1,1.4078935E2,8.8397995E1,2.2141664E2,3.6438635E2,3.6386377E2,6.748862E2,6.8066754E2,3.9879874E2,1.5324668E3,1.103229E3,3.1331497E2,6.604994E2,1.1206892E3,1.00008984E3,4.2803027E3,1.6731204E3,2.1752007E3,1.6598541E3,3.4688E2,2.2852538E2,1.2749247E3,1.3301917E2,4.9639648E2,9.0719794E2,4.8532706E2,3.5274414E2,1.5249974E2,3.4699854E2,2.0656029E1,2.777153E2,2.0866013E1,2.9341688E0,2.6104288E2,9.431665E0,2.870506E2,2.1619334E0,6.363155E2,1.0778421E2,3.9692055E1,4.568212E0,4.1941147E1,2.3650017E2,4.4252286E2,5.297677E1,1.7947902E2,3.2758923E0,7.214837E1,1.1689989E3,2.9041107E2,2.0295364E2,2.0329994E2,8.209647E0,1.2821317E1,2.4356594E0,2.7197192E0,1.337608E1,2.3027485E1,4.9513615E1,1.390055E2,1.1258709E2,7.5851875E1,1.5671588E1,1.3957799E2,1.2113703E0,7.241051E1,1.5987486E1],"tree_param":{"num_deleted":"0","num_feature":"136","num_nodes":"127","size_leaf_vector":"1"}},{"base_weights":[-2.9385115E-3,-1.06464006E-1,4.2080608E-1,5.0842024E-2,-4.8768094E-1,5.9723103E-1,-1.4866889E-1,-2.7944827E-1,2.0469774E-1,-3.5955235E-1,-7.844753E-1,4.5705706E-1,8.996084E-1,-3.9843974E-1,3.1848997E-1,2.7737868E-1,-4.4854328E-1,5.4116285E-1,7.7044725E-2,-6.525739E-1,-2.1128003E-1,-7.0462245E-1,-1.1545929E0,6.9238603E-1,2.8461123E-1,8.1234753E-1,1.1735139E0,-1.5300474E-1,-6.8547595E-1,5.4716593E-1,-2.4524866E-1,-5.5795735E-1,5.0614786E-1,-1.0876822E0,-3.416383E-1,9.6005E-1,4.3665874E-1,-1.0275822E-1,2.3089802E-1,-8.0539995E-1,-4.085727E-1,-4.223757E-1,-1.2467864E-1,-8.378218E-1,-5.221623E-1,-7.7408934E-1,-1.2152406E0,8.231079E-1,5.112914E-1,4.2990866E-1,1.5585299E-1,9.699401E-1,6.4087784E-1,1.2150518E0,6.4783865E-1,1.7583546E-1,-2.8257522E-1,-4.414964E-1,-8.6237454E-1,4.8354805E-1,1.2357302E0,-1.4714167E-1,-9.231078E-1,3.5307778E-3,-9.746012E-2,1.0262536E-1,3.030377E-2,-1.2181838E-1,-6.3330956E-2,-2.1609798E-2,-5.679347E-2,1.13050185E-1,4.9500316E-2,4.9809303E-2,-1.05136096E-4,1.3712074E-2,-1.9414853E-2,3.6234394E-2,6.674453E-3,-5.7914298E-2,-9.175255E-2,-6.419038E-2,-2.7921578E-2,-2.500375E-2,-5.9099413E-2,-9.857676E-4,-2.9291619E-2,-8.560044E-2,1.2575035E-2,-4.233472E-2,-8.859157E-2,3.910984E-2,-9.622372E-2,-1.22607365E-1,-2.6619673E-4,7.525038E-2,1.14166655E-1,5.3937554E-2,-7.030279E-2,3.8312264E-2,8.467377E-2,2.713764E-2,-4.2205374E-3,9.904738E-2,-2.2419331E-4,9.130036E-2,5.0286252E-2,-4.656133E-2,1.2234372E-1,1.156371E-1,-1.9675815E-2,-2.3157243E-2,4.0530656E-2,-3.745864E-2,1.6410267E-2,1.362194E-1,-4.9646776E-2,-5.137462E-2,-9.726494E-2,3.94384E-2,1.0527176E-1,1.3153006E-2,1.3309112E-1,9.061479E-2,-2.2404606E-2,-1.13525964E-1,5.608659E-2],"categories":[],"categories_nodes":[],"categories_segments":[],"categories_sizes":[],"default_left":[0,0,0,0,0,0,0,0,0,0,0,0,0,0,0,0,0,0,0,0,0,0,0,0,0,0,0,0,0,0,0,0,0,0,0,0,0,0,0,0,0,0,0,0,0,0,0,0,0,0,0,0,0,0,0,0,0,0,0,0,0,0,0,0,0,0,0,0,0,0,0,0,0,0,0,0,0,0,0,0,0,0,0,0,0,0,0,0,0,0,0,0,0,0,0,0,0,0,0,0,0,0,0,0,0,0,0,0,0,0,0,0,0,0,0,0,0,0,0,0,0,0,0,0,0,0,0],"id":5,"left_children":[1,3,5,7,9,11,13,15,17,19,21,23,25,27,29,31,33,35,37,39,41,43,45,47,49,51,53,55,57,59,61,63,65,67,69,71,73,75,77,79,81,83,85,87,89,91,93,95,97,99,101,103,105,107,109,111,113,115,117,119,121,123,125,-1,-1,-1,-1,-1,-1,-1,-1,-1,-1,-1,-1,-1,-1,-1,-1,-1,-1,-1,-1,-1,-1,-1,-1,-1,-1,-1,-1,-1,-1,-1,-1,-1,-1,-1,-1,-1,-1,-1,-1,-1,-1,-1,-1,-1,-1,-1,-1,-1,-1,-1,-1,-1,-1,-1,-1,-1,-1,-1,-1,-1,-1,-1,-1],"loss_changes":[1.232672E3,1.3542291E3,5.543889E2,8.124549E2,2.5056885E2,1.7813135E2,1.5248395E2,4.7851624E2,4.6841864E2,2.0012164E2,5.7948364E1,1.16684326E2,3.0911621E1,5.98665E1,5.8849308E1,2.2656903E2,2.6594525E2,1.3089465E2,2.1879024E2,5.7403442E1,5.5925568E1,3.9370728E1,7.165436E0,2.8396484E1,3.1060806E1,2.6787964E1,6.197174E0,1.965704E1,1.6542007E1,1.3609886E1,8.6510515E0,6.3077522E1,9.794183E1,3.231964E1,9.478177E1,4.6851562E1,6.4607574E1,7.998416E1,9.193672E1,2.359314E1,1.7878593E1,2.5725266E1,4.196793E1,1.6666504E1,2.456401E1,1.1566965E1,3.9535522E0,1.5005066E1,1.7873001E1,1.490947E1,2.0230915E1,1.0514557E1,1.7896164E1,4.7312317E0,1.1208263E1,1.2311577E1,1.3644529E1,1.7219734E1,8.1983185E0,1.4735809E1,2.6403885E0,9.648933E0,5.836301E0,0E0,0E0,0E0,0E0,0E0,0E0,0E0,0E0,0E0,0E0,0E0,0E0,0E0,0E0,0E0,0E0,0E0,0E0,0E0,0E0,0E0,0E0,0E0,0E0,0E0,0E0,0E0,0E0,0E0,0E0,0E0,0E0,0E0,0E0,0E0,0E0,0E0,0E0,0E0,0E0,0E0,0E0,0E0,0E0,0E0,0E0,0E0,0E0,0E0,0E0,0E0,0E0,0E0,0E0,0E0,0E0,0E0,0E0,0E0,0E0,0E0,0E0,0E0,0E0],"parents":[2147483647,0,0,1,1,2,2,3,3,4,4,5,5,6,6,7,7,8,8,9,9,10,10,11,11,12,12,13,13,14,14,15,15,16,16,17,17,18,18,19,19,20,20,21,21,22,22,23,23,24,24,25,25,26,26,27,27,28,28,29,29,30,30,31,31,32,32,33,33,34,34,35,35,36,36,37,37,38,38,39,39,40,40,41,41,42,42,43,43,44,44,45,45,46,46,47,47,48,48,49,49,50,50,51,51,52,52,53,53,54,54,55,55,56,56,57,57,58,58,59,59,60,60,61,61,62,62],"right_children":[2,4,6,8,10,12,14,16,18,20,22,24,26,28,30,32,34,36,38,40,42,44,46,48,50,52,54,56,58,60,62,64,66,68,70,72,74,76,78,80,82,84,86,88,90,92,94,96,98,100,102,104,106,108,110,112,114,116,118,120,122,124,126,-1,-1,-1,-1,-1,-1,-1,-1,-1,-1,-1,-1,-1,-1,-1,-1,-1,-1,-1,-1,-1,-1,-1,-1,-1,-1,-1,-1,-1,-1,-1,-1,-1,-1,-1,-1,-1,-1,-1,-1,-1,-1,-1,-1,-1,-1,-1,-1,-1,-1,-1,-1,-1,-1,-1,-1,-1,-1,-1,-1,-1,-1,-1,-1],"split_conditions":[1.7228594E-1,-1.216585E-1,5.0646776E-1,-5.0287837E-1,5.89116E-1,1.1363331E0,1.6034489E0,-6.0829103E-1,-5.01179E-1,-3.3127135E-1,2.6751564E0,-2.4067189E-1,3.5282304E0,6.5692663E-1,3.005749E0,-6.910498E-1,-6.758106E-1,-6.5325165E-1,-3.0278063E-1,-2.7593264E-1,2.8121106E-2,2.3068868E-1,5.734465E-1,-1.821006E-1,2.2150394E-1,2.3755315E-1,6.7632514E-1,-4.9919125E-1,5.657407E-1,3.6392379E0,3.657299E0,-6.9688994E-1,-6.929228E-1,-1.100693E0,-4.0266234E-1,-1.279676E0,-1.2025061E-1,-4.2514265E-1,1.1329426E-1,-1.808472E-1,-3.0070856E-2,4.1826013E-1,3.4768432E-1,1.6429771E0,1.9191834E0,-8.4556806E-1,9.251607E0,1.0473678E0,3.8855305E0,2.5364902E0,5.978468E-1,3.425695E0,-7.631888E-1,1.1314662E0,4.6895632E-1,6.414864E-1,9.995192E-1,-6.629263E-1,-6.0508144E-1,3.4705455E0,1.4768716E0,-1.4026806E0,4.034704E0,3.5307778E-3,-9.746012E-2,1.0262536E-1,3.030377E-2,-1.2181838E-1,-6.3330956E-2,-2.1609798E-2,-5.679347E-2,1.13050185E-1,4.9500316E-2,4.9809303E-2,-1.05136096E-4,1.3712074E-2,-1.9414853E-2,3.6234394E-2,6.674453E-3,-5.7914298E-2,-9.175255E-2,-6.419038E-2,-2.7921578E-2,-2.500375E-2,-5.9099413E-2,-9.857676E-4,-2.9291619E-2,-8.560044E-2,1.2575035E-2,-4.233472E-2,-8.859157E-2,3.910984E-2,-9.622372E-2,-1.22607365E-1,-2.6619673E-4,7.525038E-2,1.14166655E-1,5.3937554E-2,-7.030279E-2,3.8312264E-2,8.467377E-2,2.713764E-2,-4.2205374E-3,9.904738E-2,-2.2419331E-4,9.130036E-2,5.0286252E-2,-4.656133E-2,1.2234372E-1,1.156371E-1,-1.9675815E-2,-2.3157243E-2,4.0530656E-2,-3.745864E-2,1.6410267E-2,1.362194E-1,-4.9646776E-2,-5.137462E-2,-9.726494E-2,3.94384E-2,1.0527176E-1,1.3153006E-2,1.3309112E-1,9.061479E-2,-2.2404606E-2,-1.13525964E-1,5.608659E-2],"split_indices":[2,11,11,2,11,2,2,11,11,2,11,11,2,33,11,2,2,11,2,26,20,20,33,36,30,30,30,21,30,65,36,11,11,25,11,34,36,11,30,18,20,39,30,71,125,6,98,103,99,64,39,99,21,25,39,102,17,0,21,28,62,31,105,0,0,0,0,0,0,0,0,0,0,0,0,0,0,0,0,0,0,0,0,0,0,0,0,0,0,0,0,0,0,0,0,0,0,0,0,0,0,0,0,0,0,0,0,0,0,0,0,0,0,0,0,0,0,0,0,0,0,0,0,0,0,0,0],"split_type":[0,0,0,0,0,0,0,0,0,0,0,0,0,0,0,0,0,0,0,0,0,0,0,0,0,0,0,0,0,0,0,0,0,0,0,0,0,0,0,0,0,0,0,0,0,0,0,0,0,0,0,0,0,0,0,0,0,0,0,0,0,0,0,0,0,0,0,0,0,0,0,0,0,0,0,0,0,0,0,0,0,0,0,0,0,0,0,0,0,0,0,0,0,0,0,0,0,0,0,0,0,0,0,0,0,0,0,0,0,0,0,0,0,0,0,0,0,0,0,0,0,0,0,0,0,0,0],"sum_hessian":[2.8097314E4,2.258122E4,5.5160938E3,1.5985715E4,6.595507E3,4.211355E3,1.3047385E3,5.079806E3,1.0905908E4,4.608284E3,1.9872229E3,2.8791638E3,1.3321913E3,8.50277E2,4.544615E2,1.1831322E3,3.896674E3,2.998716E3,7.907192E3,1.5472155E3,3.0610684E3,1.636954E3,3.50269E2,1.2163083E3,1.6628555E3,1.0133301E3,3.188611E2,4.5918036E2,3.9109665E2,3.2333334E2,1.3112811E2,2.540491E2,9.290831E2,5.570626E2,3.3396116E3,5.971111E2,2.401605E3,3.6462637E3,4.260928E3,9.499374E2,5.972781E2,8.8935046E2,2.171718E3,9.441295E2,6.928244E2,5.004575E1,3.0022327E2,7.0434015E2,5.1196817E2,7.8015234E2,8.827032E2,5.2560535E2,4.8772476E2,2.9429507E2,2.4566046E1,1.296871E2,3.2949326E2,1.6585052E2,2.2524612E2,2.9754483E2,2.5788513E1,1.1561251E2,1.5515608E1,1.05187035E2,1.4886206E2,2.5978836E2,6.6929474E2,4.3146066E2,1.2560194E2,2.1492483E3,1.1903633E3,4.359083E2,1.6120279E2,2.1058965E3,2.957086E2,1.00579034E3,2.6404734E3,2.365526E3,1.8954023E3,3.1681174E2,6.331257E2,2.1161302E2,3.8566507E2,4.4105173E2,4.4829877E2,1.291403E3,8.8031506E2,9.2675336E2,1.7376188E1,5.46523E2,1.4630139E2,6.807662E0,4.3238087E1,2.9755383E2,2.6694477E0,5.7930707E2,1.2503311E2,5.0093854E2,1.102963E1,7.031482E2,7.700416E1,5.572818E2,3.2542136E2,5.1471515E2,1.0890206E1,1.6223325E2,3.2549152E2,1.1903492E0,2.9310474E2,1.5103237E1,9.462809E0,4.6723698E1,8.296341E1,2.7334775E2,5.61455E1,4.2018437E0,1.6164868E2,5.5486633E1,1.6975949E2,2.587093E2,3.8835556E1,2.2355585E0,2.3552956E1,7.1331697E0,1.0847934E2,1.3780505E1,1.7351022E0],"tree_param":{"num_deleted":"0","num_feature":"136","num_nodes":"127","size_leaf_vector":"1"}},{"base_weights":[3.5211968E-4,-7.645403E-2,4.400766E-1,6.1876662E-2,-3.991557E-1,-1.1958046E-1,5.795136E-1,-2.8917196E-1,1.7625082E-1,-7.259725E-1,-2.701341E-1,-3.0932686E-1,3.764013E-1,4.6042055E-1,8.648369E-1,4.620529E-1,-3.937793E-1,1.02812186E-1,6.084223E-1,-9.0327543E-1,-5.9907544E-1,-4.400557E-1,-3.4140334E-2,-5.1464558E-2,-4.8196527E-1,-1.3169321E-1,6.606989E-1,2.840493E-1,7.033467E-1,6.4523005E-1,9.928854E-1,-2.2764327E-1,6.658182E-1,-9.3137604E-1,-2.634395E-1,2.1980242E-1,-7.168707E-2,8.622706E-1,4.5376956E-1,-7.774895E-1,-1.0808786E0,-8.5458916E-1,-4.8565504E-1,-6.473727E-1,-3.3097875E-1,1.23167776E-1,-1.6649702E-1,-2.2662452E-1,2.5671098E-1,-4.0878516E-1,-1.0648736E0,1.0917732E-2,-1.2702775E0,7.1546644E-1,-6.2949395E-1,4.4010863E-1,1.5120289E-1,6.163482E-1,8.950914E-1,7.7078074E-1,1.9562922E-1,1.1076691E0,8.1883645E-1,1.7715639E-2,-7.780644E-2,1.256256E-1,5.517518E-2,-1.1298516E-1,-6.463297E-2,-3.729639E-2,1.8624444E-2,3.3876677E-3,3.6093637E-2,-1.8152265E-2,1.14196185E-2,7.1131155E-2,1.10871375E-1,6.0989756E-2,2.346127E-2,-8.480041E-2,-3.0027155E-2,-6.7609474E-2,-1.1456726E-1,-8.989235E-2,-2.7766402E-3,-5.2199908E-2,6.324733E-3,-5.1573373E-2,-8.455556E-2,-2.5365142E-2,-5.0293397E-2,-2.807342E-2,1.7996408E-2,-2.2412049E-2,1.6998822E-2,-4.4736356E-2,5.941139E-3,3.3114467E-2,-1.0023115E-1,-5.2483864E-2,5.3552664E-3,-1.1747936E-1,4.0845633E-3,-2.1304037E-2,5.082796E-2,-2.6528854E-3,-1.5488568E-1,8.324074E-2,1.3615458E-2,-1.2041885E-1,2.6828079E-2,3.424197E-2,6.3799195E-2,4.7244104E-3,3.493275E-2,4.869143E-2,7.797842E-2,1.2091585E-1,7.4971E-2,8.913766E-2,4.9814895E-2,-2.3259679E-2,3.872667E-2,1.134849E-1,3.9861005E-2,7.541802E-2,1.2246769E-1],"categories":[],"categories_nodes":[],"categories_segments":[],"categories_sizes":[],"default_left":[0,0,0,0,0,0,0,0,0,0,0,0,0,0,0,0,0,0,0,0,0,0,0,0,0,0,0,0,0,0,0,0,0,0,0,0,0,0,0,0,0,0,0,0,0,0,0,0,0,0,0,0,0,0,0,0,0,0,0,0,0,0,0,0,0,0,0,0,0,0,0,0,0,0,0,0,0,0,0,0,0,0,0,0,0,0,0,0,0,0,0,0,0,0,0,0,0,0,0,0,0,0,0,0,0,0,0,0,0,0,0,0,0,0,0,0,0,0,0,0,0,0,0,0,0,0,0],"id":6,"left_children":[1,3,5,7,9,11,13,15,17,19,21,23,25,27,29,31,33,35,37,39,41,43,45,47,49,51,53,55,57,59,61,63,65,67,69,71,73,75,77,79,81,83,85,87,89,91,93,95,97,99,101,103,105,107,109,111,113,115,117,119,121,123,125,-1,-1,-1,-1,-1,-1,-1,-1,-1,-1,-1,-1,-1,-1,-1,-1,-1,-1,-1,-1,-1,-1,-1,-1,-1,-1,-1,-1,-1,-1,-1,-1,-1,-1,-1,-1,-1,-1,-1,-1,-1,-1,-1,-1,-1,-1,-1,-1,-1,-1,-1,-1,-1,-1,-1,-1,-1,-1,-1,-1,-1,-1,-1,-1],"loss_changes":[9.4297076E2,1.0610508E3,3.2405188E2,6.6807776E2,3.0052808E2,7.812417E1,1.12543335E2,3.2151196E2,3.9824677E2,4.486267E1,2.0509146E2,2.6688953E1,3.3283417E1,1.00362885E2,2.6851196E1,7.045563E1,2.5129028E2,2.1902988E2,7.1162476E1,1.7921814E1,3.3757935E1,6.70293E1,4.462311E1,1.3108523E1,1.4892242E1,1.3537525E1,1.0874626E1,2.8160255E1,1.5906311E1,2.0336517E1,1.1393494E1,2.572426E1,2.5332E1,3.887805E1,1.4243831E2,1.6852167E2,8.794626E1,2.484082E1,3.8683228E1,1.6409515E1,8.29071E0,1.3215118E1,1.6371109E1,2.6281403E1,2.5807892E1,2.2518524E1,2.260347E1,9.792921E0,8.5865135E0,1.7244297E1,4.843403E0,8.463242E0,3.1740074E0,9.505569E0,3.6969764E0,1.1873779E1,1.5162878E1,1.4045013E1,1.3052383E1,8.872879E0,6.7017894E0,6.6433105E0,5.5975494E0,0E0,0E0,0E0,0E0,0E0,0E0,0E0,0E0,0E0,0E0,0E0,0E0,0E0,0E0,0E0,0E0,0E0,0E0,0E0,0E0,0E0,0E0,0E0,0E0,0E0,0E0,0E0,0E0,0E0,0E0,0E0,0E0,0E0,0E0,0E0,0E0,0E0,0E0,0E0,0E0,0E0,0E0,0E0,0E0,0E0,0E0,0E0,0E0,0E0,0E0,0E0,0E0,0E0,0E0,0E0,0E0,0E0,0E0,0E0,0E0,0E0,0E0,0E0,0E0],"parents":[2147483647,0,0,1,1,2,2,3,3,4,4,5,5,6,6,7,7,8,8,9,9,10,10,11,11,12,12,13,13,14,14,15,15,16,16,17,17,18,18,19,19,20,20,21,21,22,22,23,23,24,24,25,25,26,26,27,27,28,28,29,29,30,30,31,31,32,32,33,33,34,34,35,35,36,36,37,37,38,38,39,39,40,40,41,41,42,42,43,43,44,44,45,45,46,46,47,47,48,48,49,49,50,50,51,51,52,52,53,53,54,54,55,55,56,56,57,57,58,58,59,59,60,60,61,61,62,62],"right_children":[2,4,6,8,10,12,14,16,18,20,22,24,26,28,30,32,34,36,38,40,42,44,46,48,50,52,54,56,58,60,62,64,66,68,70,72,74,76,78,80,82,84,86,88,90,92,94,96,98,100,102,104,106,108,110,112,114,116,118,120,122,124,126,-1,-1,-1,-1,-1,-1,-1,-1,-1,-1,-1,-1,-1,-1,-1,-1,-1,-1,-1,-1,-1,-1,-1,-1,-1,-1,-1,-1,-1,-1,-1,-1,-1,-1,-1,-1,-1,-1,-1,-1,-1,-1,-1,-1,-1,-1,-1,-1,-1,-1,-1,-1,-1,-1,-1,-1,-1,-1,-1,-1,-1,-1,-1,-1],"split_conditions":[3.5780707E-1,2.799772E-1,-6.131534E-1,-5.3335685E-1,-6.077176E-1,1.0571433E0,1.6034489E0,-1.1228794E0,6.0447127E-1,-6.426932E-1,-1.821919E-1,7.992733E-1,-6.5760607E-1,-3.3049056E-1,6.90154E-1,-6.9568783E-1,-6.758106E-1,1.1329426E-1,-1.011412E0,2.3386035E0,-2.4508451E-1,-5.933135E-1,2.7244484E-1,5.74394E-1,3.4654E0,1.9112763E0,2.6439657E0,2.4547562E-1,9.746843E-1,4.7910953E-1,3.396575E-1,-5.743897E-1,-6.4576834E-1,-1.0788876E0,7.3493105E-1,-3.484983E-1,-1.821919E-1,2.1047587E0,-1.096992E0,8.7656796E-1,5.353475E-1,-2.3258984E-1,7.668827E-1,-1.4091636E-1,-3.9274234E-2,-3.8198614E-1,-1.4311273E-1,3.8438195E-1,1.3831027E0,1.8399824E0,2.5945435E0,3.2084358E0,1.3535348E0,7.799073E-1,1.3088653E0,1.0724407E0,1.1335933E0,2.3028553E-1,-3.039785E-1,2.05974E0,1.2153785E0,1.2487426E0,1.9686716E0,1.7715639E-2,-7.780644E-2,1.256256E-1,5.517518E-2,-1.1298516E-1,-6.463297E-2,-3.729639E-2,1.8624444E-2,3.3876677E-3,3.6093637E-2,-1.8152265E-2,1.14196185E-2,7.1131155E-2,1.10871375E-1,6.0989756E-2,2.346127E-2,-8.480041E-2,-3.0027155E-2,-6.7609474E-2,-1.1456726E-1,-8.989235E-2,-2.7766402E-3,-5.2199908E-2,6.324733E-3,-5.1573373E-2,-8.455556E-2,-2.5365142E-2,-5.0293397E-2,-2.807342E-2,1.7996408E-2,-2.2412049E-2,1.6998822E-2,-4.4736356E-2,5.941139E-3,3.3114467E-2,-1.0023115E-1,-5.2483864E-2,5.3552664E-3,-1.1747936E-1,4.0845633E-3,-2.1304037E-2,5.082796E-2,-2.6528854E-3,-1.5488568E-1,8.324074E-2,1.3615458E-2,-1.2041885E-1,2.6828079E-2,3.424197E-2,6.3799195E-2,4.7244104E-3,3.493275E-2,4.869143E-2,7.797842E-2,1.2091585E-1,7.4971E-2,8.913766E-2,4.9814895E-2,-2.3259679E-2,3.872667E-2,1.134849E-1,3.9861005E-2,7.541802E-2,1.2246769E-1],"split_indices":[2,35,9,2,9,23,2,38,9,12,2,18,12,9,23,2,2,30,38,35,26,26,30,19,38,73,24,30,103,30,30,17,9,28,9,2,2,9,34,29,30,12,23,18,18,26,12,23,61,29,27,29,64,32,23,29,26,19,115,120,26,35,64,0,0,0,0,0,0,0,0,0,0,0,0,0,0,0,0,0,0,0,0,0,0,0,0,0,0,0,0,0,0,0,0,0,0,0,0,0,0,0,0,0,0,0,0,0,0,0,0,0,0,0,0,0,0,0,0,0,0,0,0,0,0,0,0],"split_type":[0,0,0,0,0,0,0,0,0,0,0,0,0,0,0,0,0,0,0,0,0,0,0,0,0,0,0,0,0,0,0,0,0,0,0,0,0,0,0,0,0,0,0,0,0,0,0,0,0,0,0,0,0,0,0,0,0,0,0,0,0,0,0,0,0,0,0,0,0,0,0,0,0,0,0,0,0,0,0,0,0,0,0,0,0,0,0,0,0,0,0,0,0,0,0,0,0,0,0,0,0,0,0,0,0,0,0,0,0,0,0,0,0,0,0,0,0,0,0,0,0,0,0,0,0,0,0],"sum_hessian":[2.7918404E4,2.3767748E4,4.1506577E3,1.6636908E4,7.13084E3,8.27893E2,3.3227646E3,4.0880195E3,1.2548888E4,2.0170208E3,5.1138193E3,5.990807E2,2.2881233E2,2.3461167E3,9.7664795E2,4.992561E2,3.5887634E3,1.072725E4,1.8216373E3,8.3884827E2,1.1781725E3,2.9726033E3,2.1412158E3,2.4076254E2,3.5831815E2,8.228679E1,1.4652553E2,1.3605143E3,9.856024E2,3.6194345E2,6.1470447E2,1.1383502E2,3.8542108E2,6.991049E2,2.8896587E3,6.4216787E3,4.305572E3,6.8791376E2,1.1337235E3,4.9420767E2,3.446406E2,3.6019327E2,8.1797925E2,1.0231048E3,1.9494985E3,9.7841864E2,1.1627971E3,1.5367932E2,8.708321E1,3.1986285E2,3.8455284E1,7.4007545E1,8.279245E0,1.4098625E2,5.539279E0,6.245365E2,7.359777E2,6.8088513E2,3.0471732E2,2.8237585E2,7.956761E1,3.671851E2,2.4751938E2,6.598523E1,4.7849785E1,6.0782352E1,3.2463873E2,4.103899E2,2.88715E2,2.3238384E3,5.658201E2,2.7716404E3,3.6500383E3,2.7064153E3,1.5991562E3,4.2900964E2,2.5890414E2,6.610247E2,4.7269882E2,4.2990692E2,6.430074E1,4.9132435E1,2.9550815E2,3.4177982E2,1.8413465E1,7.672284E2,5.075084E1,6.169263E2,4.0617856E2,1.3464723E3,6.0302625E2,1.2013638E2,8.582822E2,9.9306726E2,1.6972989E2,8.642195E1,6.725738E1,8.291806E1,4.165152E0,2.5557472E2,6.428814E1,3.4921276E1,3.5340097E0,5.1423576E1,2.2583967E1,1.7154874E0,6.5637584E0,1.1694302E2,2.404323E1,3.169242E0,2.370037E0,4.1995038E2,2.0458614E2,4.8351108E2,2.5246663E2,3.8218835E2,2.9869675E2,9.410513E1,2.1061218E2,1.9420277E2,8.817307E1,2.4533106E1,5.5034508E1,3.5305136E2,1.4133745E1,2.1597046E2,3.1548916E1],"tree_param":{"num_deleted":"0","num_feature":"136","num_nodes":"127","size_leaf_vector":"1"}},{"base_weights":[2.0226561E-4,-8.6556226E-2,3.4391415E-1,6.029113E-2,-3.7332544E-1,4.88421E-1,-1.5940908E-1,-2.65285E-1,1.8116488E-1,-2.9369786E-1,-7.1409994E-1,3.7707523E-1,7.4826133E-1,-3.0107167E-1,3.240604E-1,4.1715303E-1,-3.7017462E-1,6.0757774E-1,1.0110475E-1,-5.915646E-1,-1.9566272E-1,-6.099202E-1,-9.958841E-1,6.678406E-1,2.4533917E-1,6.378861E-1,1.0275754E0,-7.3501565E-2,-5.5737025E-1,5.200752E-1,-2.1893129E-1,-3.2514358E-1,6.9624853E-1,-9.016994E-1,-2.482171E-1,8.1460726E-1,2.8382462E-1,-3.297025E-2,2.1809316E-1,-6.684509E-1,-3.51434E-1,-6.0647726E-2,-3.1734288E-1,-5.3865474E-1,-9.4143945E-1,-8.0657125E-1,-1.2019389E0,8.0085456E-1,5.0377315E-1,3.2735556E-1,2.1088077E-2,7.748976E-1,4.022297E-1,1.1202943E0,7.21969E-1,-1.949868E-1,3.3570117E-1,-6.0420316E-1,3.3379704E-1,1.7606527E-1,6.788844E-1,-3.589892E-1,9.109911E-1,-4.5638024E-3,-8.2509525E-2,9.695482E-2,4.2364977E-2,-1.0768843E-1,-6.170273E-2,1.2717255E-3,-3.594716E-2,1.0936896E-1,6.913414E-2,3.6150508E-2,-2.4923675E-2,1.2353996E-2,-1.7216688E-2,3.9757073E-2,1.0748727E-2,-5.158132E-2,-7.969867E-2,-5.3029247E-2,-7.71729E-3,3.2507114E-3,-2.7543118E-2,-4.7009643E-2,-1.9845901E-2,-5.6300312E-2,4.197952E-2,-9.629563E-2,7.637063E-2,-6.9636464E-2,-1.16432585E-1,-1.22369245E-1,2.055644E-2,5.8007162E-2,8.759822E-2,3.6114775E-2,7.6459326E-2,3.8216244E-2,-6.1556307E-4,-3.4324792E-3,4.3823082E-2,7.982575E-2,-2.9500354E-2,2.8473979E-2,8.759028E-2,1.1573167E-1,6.357638E-2,9.5998816E-2,2.9535526E-2,-4.053986E-2,-1.876583E-3,5.302013E-2,-1.727387E-2,-6.4335175E-2,2.9377118E-2,-2.140568E-2,9.384241E-2,3.400978E-2,-7.5341165E-2,8.59274E-2,4.138289E-2,-2.315059E-2,-1.1433472E-1,2.695761E-2,1.522343E-1],"categories":[],"categories_nodes":[],"categories_segments":[],"categories_sizes":[],"default_left":[0,0,0,0,0,0,0,0,0,0,0,0,0,0,0,0,0,0,0,0,0,0,0,0,0,0,0,0,0,0,0,0,0,0,0,0,0,0,0,0,0,0,0,0,0,0,0,0,0,0,0,0,0,0,0,0,0,0,0,0,0,0,0,0,0,0,0,0,0,0,0,0,0,0,0,0,0,0,0,0,0,0,0,0,0,0,0,0,0,0,0,0,0,0,0,0,0,0,0,0,0,0,0,0,0,0,0,0,0,0,0,0,0,0,0,0,0,0,0,0,0,0,0,0,0,0,0],"id":7,"left_children":[1,3,5,7,9,11,13,15,17,19,21,23,25,27,29,31,33,35,37,39,41,43,45,47,49,51,53,55,57,59,61,63,65,67,69,71,73,75,77,79,81,83,85,87,89,91,93,95,97,99,101,103,105,107,109,111,113,115,117,119,121,123,125,-1,-1,-1,-1,-1,-1,-1,-1,-1,-1,-1,-1,-1,-1,-1,-1,-1,-1,-1,-1,-1,-1,-1,-1,-1,-1,-1,-1,-1,-1,-1,-1,-1,-1,-1,-1,-1,-1,-1,-1,-1,-1,-1,-1,-1,-1,-1,-1,-1,-1,-1,-1,-1,-1,-1,-1,-1,-1,-1,-1,-1,-1,-1,-1],"loss_changes":[8.256369E2,9.3098566E2,4.0594757E2,5.75449E2,2.0294775E2,1.25159546E2,8.540085E1,2.835452E2,3.6396817E2,1.7715198E2,4.1001465E1,1.1617172E2,3.940985E1,5.6171646E1,3.02056E1,1.0959287E2,2.2225919E2,1.1273401E2,1.4084291E2,2.7509338E1,7.504001E1,2.4001953E1,1.3892975E1,2.0250061E1,3.8464935E1,2.9849152E1,9.574951E0,2.5500473E1,1.911316E1,1.124564E1,1.2305988E1,2.021492E1,2.8195572E1,3.1259949E1,8.108534E1,3.459027E1,2.7374596E1,9.1189415E1,9.514632E1,2.1899261E1,1.7940456E1,4.33659E1,4.3542053E1,2.0216599E1,7.420517E0,7.1379547E0,5.7749023E0,8.133118E0,1.5586998E1,2.799649E1,1.2987757E1,1.4971588E1,1.897895E1,4.2752075E0,8.663677E0,1.4644255E1,1.1710726E1,1.5335388E1,7.9082737E0,1.0479637E1,6.4327927E0,6.541172E0,2.9738922E0,0E0,0E0,0E0,0E0,0E0,0E0,0E0,0E0,0E0,0E0,0E0,0E0,0E0,0E0,0E0,0E0,0E0,0E0,0E0,0E0,0E0,0E0,0E0,0E0,0E0,0E0,0E0,0E0,0E0,0E0,0E0,0E0,0E0,0E0,0E0,0E0,0E0,0E0,0E0,0E0,0E0,0E0,0E0,0E0,0E0,0E0,0E0,0E0,0E0,0E0,0E0,0E0,0E0,0E0,0E0,0E0,0E0,0E0,0E0,0E0,0E0,0E0,0E0,0E0],"parents":[2147483647,0,0,1,1,2,2,3,3,4,4,5,5,6,6,7,7,8,8,9,9,10,10,11,11,12,12,13,13,14,14,15,15,16,16,17,17,18,18,19,19,20,20,21,21,22,22,23,23,24,24,25,25,26,26,27,27,28,28,29,29,30,30,31,31,32,32,33,33,34,34,35,35,36,36,37,37,38,38,39,39,40,40,41,41,42,42,43,43,44,44,45,45,46,46,47,47,48,48,49,49,50,50,51,51,52,52,53,53,54,54,55,55,56,56,57,57,58,58,59,59,60,60,61,61,62,62],"right_children":[2,4,6,8,10,12,14,16,18,20,22,24,26,28,30,32,34,36,38,40,42,44,46,48,50,52,54,56,58,60,62,64,66,68,70,72,74,76,78,80,82,84,86,88,90,92,94,96,98,100,102,104,106,108,110,112,114,116,118,120,122,124,126,-1,-1,-1,-1,-1,-1,-1,-1,-1,-1,-1,-1,-1,-1,-1,-1,-1,-1,-1,-1,-1,-1,-1,-1,-1,-1,-1,-1,-1,-1,-1,-1,-1,-1,-1,-1,-1,-1,-1,-1,-1,-1,-1,-1,-1,-1,-1,-1,-1,-1,-1,-1,-1,-1,-1,-1,-1,-1,-1,-1,-1,-1,-1,-1],"split_conditions":[1.4578293E-1,-1.8447112E-1,5.659745E-1,-5.3335685E-1,8.211921E-1,1.1363331E0,2.4548583E0,-6.7044246E-1,-5.765541E-1,-3.8759026E-1,1.9191834E0,-3.0745164E-1,1.9191834E0,6.5692663E-1,3.557839E0,-6.9568783E-1,-6.758106E-1,-9.6355397E-1,-3.484983E-1,7.7239587E-3,2.5325227E-1,2.9123042E0,9.6121067E-1,-2.9579616E-1,5.9608066E-1,3.4768432E-1,6.2235373E-1,1.2913493E0,1.23696506E-1,6.0406446E-1,1.9001786E0,-1.1228794E0,-6.9688994E-1,-1.1038588E0,-9.139658E-1,-6.7705435E-1,-2.6028136E-2,-4.3373805E-1,-5.5679746E-2,-1.4533558E-1,-1.5445165E-1,-1.0669203E-1,-1.4340301E-1,2.2600198E0,-6.185892E-1,1.1616162E0,-6.0228175E-1,-1.7009223E-1,8.0868685E-1,9.1883445E-1,1.5230969E0,2.2732286E0,2.7570603E0,1.7008413E0,-3.9274234E-2,-5.584803E-1,1.5219932E0,2.7155132E0,9.616279E-1,3.7000686E-1,9.626267E-1,1.810159E0,1.7336056E0,-4.5638024E-3,-8.2509525E-2,9.695482E-2,4.2364977E-2,-1.0768843E-1,-6.170273E-2,1.2717255E-3,-3.594716E-2,1.0936896E-1,6.913414E-2,3.6150508E-2,-2.4923675E-2,1.2353996E-2,-1.7216688E-2,3.9757073E-2,1.0748727E-2,-5.158132E-2,-7.969867E-2,-5.3029247E-2,-7.71729E-3,3.2507114E-3,-2.7543118E-2,-4.7009643E-2,-1.9845901E-2,-5.6300312E-2,4.197952E-2,-9.629563E-2,7.637063E-2,-6.9636464E-2,-1.16432585E-1,-1.22369245E-1,2.055644E-2,5.8007162E-2,8.759822E-2,3.6114775E-2,7.6459326E-2,3.8216244E-2,-6.1556307E-4,-3.4324792E-3,4.3823082E-2,7.982575E-2,-2.9500354E-2,2.8473979E-2,8.759028E-2,1.1573167E-1,6.357638E-2,9.5998816E-2,2.9535526E-2,-4.053986E-2,-1.876583E-3,5.302013E-2,-1.727387E-2,-6.4335175E-2,2.9377118E-2,-2.140568E-2,9.384241E-2,3.400978E-2,-7.5341165E-2,8.59274E-2,4.138289E-2,-2.315059E-2,-1.1433472E-1,2.695761E-2,1.522343E-1],"split_indices":[2,11,11,2,11,2,2,11,11,2,125,11,125,33,11,2,2,39,2,26,30,115,37,36,38,30,36,28,31,22,63,38,11,27,38,11,115,11,30,18,25,3,28,88,9,33,9,19,111,101,29,98,25,98,18,31,39,19,25,15,18,73,60,0,0,0,0,0,0,0,0,0,0,0,0,0,0,0,0,0,0,0,0,0,0,0,0,0,0,0,0,0,0,0,0,0,0,0,0,0,0,0,0,0,0,0,0,0,0,0,0,0,0,0,0,0,0,0,0,0,0,0,0,0,0,0,0],"split_type":[0,0,0,0,0,0,0,0,0,0,0,0,0,0,0,0,0,0,0,0,0,0,0,0,0,0,0,0,0,0,0,0,0,0,0,0,0,0,0,0,0,0,0,0,0,0,0,0,0,0,0,0,0,0,0,0,0,0,0,0,0,0,0,0,0,0,0,0,0,0,0,0,0,0,0,0,0,0,0,0,0,0,0,0,0,0,0,0,0,0,0,0,0,0,0,0,0,0,0,0,0,0,0,0,0,0,0,0,0,0,0,0,0,0,0,0,0,0,0,0,0,0,0,0,0,0,0],"sum_hessian":[2.7685426E4,2.2106207E4,5.579219E3,1.4620304E4,7.485903E3,4.3347256E3,1.2444937E3,3.95804E3,1.0662264E4,6.069521E3,1.4163817E3,3.0361414E3,1.2985844E3,9.627679E2,2.8172574E2,5.2690283E2,3.4311372E3,1.6843832E3,8.977881E3,1.5017175E3,4.5678037E3,1.036381E3,3.800008E2,9.4540063E2,2.0907405E3,9.331282E2,3.6545615E2,5.1064648E2,4.521214E2,2.0703154E2,7.469419E1,1.4393118E2,3.8297165E2,6.3915E2,2.7919873E3,1.0264718E3,6.579114E2,4.1837715E3,4.794109E3,1.136154E3,3.6556357E2,2.1659675E3,2.4018362E3,8.5517255E2,1.812084E2,2.006072E2,1.7939359E2,5.199675E2,4.2543317E2,1.5305175E3,5.602231E2,5.886163E2,3.4451187E2,2.783429E2,8.711325E1,3.9415283E2,1.16493675E2,4.298536E2,2.226781E1,6.6054344E1,1.4097719E2,6.70637E1,7.630497E0,9.301886E1,5.091232E1,1.8996327E2,1.9300839E2,3.939399E2,2.4521013E2,8.348441E2,1.9571431E3,3.1206433E2,7.144075E2,5.745123E2,8.339905E1,1.9694591E3,2.2143123E3,1.8269559E3,2.967153E3,5.2167346E2,6.144805E2,2.2070078E2,1.4486281E2,1.5113296E3,6.546379E2,1.049886E3,1.3519502E3,8.343884E2,2.078413E1,1.7938011E2,1.8282915E0,1.5561604E2,4.4991158E1,1.7679178E2,2.6018019E0,1.3422667E2,3.857408E2,2.7657635E2,1.4885681E2,1.3143763E3,2.1614113E2,4.9534027E2,6.488284E1,5.762877E2,1.2328595E1,2.7732523E2,6.718664E1,2.5729483E2,2.104807E1,5.5113632E1,3.199962E1,1.7905573E2,2.1509709E2,8.422948E1,3.22642E1,4.1216806E2,1.768553E1,1.2021276E1,1.0246534E1,5.6684803E1,9.369541E0,8.255241E1,5.842479E1,5.880169E1,8.262007E0,4.426879E0,3.203618E0],"tree_param":{"num_deleted":"0","num_feature":"136","num_nodes":"127","size_leaf_vector":"1"}},{"base_weights":[-1.2051238E-3,9.293017E-2,-2.7587065E-1,-4.256367E-2,3.7523815E-1,-4.1697115E-1,1.4457428E-1,3.8405773E-1,-1.1505422E-1,2.3544376E-1,5.468843E-1,-3.1585938E-1,-6.8929696E-1,2.6403466E-1,-2.9581374E-1,-4.3282974E-1,5.024887E-1,-6.1342144E-1,-4.4138536E-2,4.544482E-1,9.875339E-2,4.0804675E-1,7.149089E-1,-4.781718E-1,-1.5007949E-1,-6.138269E-1,-1.0231893E0,6.9023974E-2,5.59035E-1,-4.0460765E-1,4.0468296E-1,5.849217E-2,-7.835978E-1,9.476167E-1,3.5781866E-1,-8.1559896E-1,-3.6671776E-1,7.52411E-2,-2.1238169E-1,5.0277096E-1,-8.0706514E-2,1.128166E-2,2.4615517E-1,6.5468824E-1,2.9976034E-1,6.058298E-1,9.509415E-1,-4.0138635E-1,-7.473008E-1,-2.2139068E-1,5.694293E-2,-6.8666476E-1,-3.468347E-1,-1.0355537E0,3.6362123E-1,-4.969093E-3,3.20909E-1,3.264222E-1,6.691746E-1,-2.7952932E-3,-5.268724E-1,-2.1537182E-1,7.405284E-1,2.9387003E-2,-7.33812E-2,-9.065811E-2,6.081816E-3,1.03106394E-1,1.0428036E-2,4.2972863E-2,-1.5136666E-2,-1.1101293E-1,-6.77099E-2,-5.5951625E-2,-2.0364752E-2,-5.7474882E-3,2.1290759E-2,-3.3079695E-2,1.6132264E-3,8.4680535E-2,4.458572E-2,-7.5182654E-2,1.4427289E-2,8.559878E-3,-2.0179944E-2,3.4987923E-2,-3.2176308E-3,7.101259E-2,1.1412755E-2,1.25691695E-2,4.3265842E-2,7.052522E-2,4.3622844E-2,9.587499E-2,-1.03523396E-1,-4.6697933E-2,-1.4218757E-2,-9.689977E-2,-6.143896E-2,-2.9022742E-2,-2.0473455E-3,1.51032E-2,-3.7577104E-2,-7.1020626E-2,5.2489215E-3,-7.183047E-2,-2.0681959E-2,-9.235611E-2,-1.22624375E-1,-2.3298042E-2,7.8587405E-2,-6.426763E-2,3.057679E-3,3.4894954E-2,-8.10928E-2,5.2314747E-2,-2.4325553E-2,9.543871E-2,5.4971553E-2,-2.0281535E-2,5.824569E-2,-4.4065844E-2,-9.227613E-2,-1.01771116E-1,2.285984E-2,8.9781195E-2,-1.0399149E-2],"categories":[],"categories_nodes":[],"categories_segments":[],"categories_sizes":[],"default_left":[0,0,0,0,0,0,0,0,0,0,0,0,0,0,0,0,0,0,0,0,0,0,0,0,0,0,0,0,0,0,0,0,0,0,0,0,0,0,0,0,0,0,0,0,0,0,0,0,0,0,0,0,0,0,0,0,0,0,0,0,0,0,0,0,0,0,0,0,0,0,0,0,0,0,0,0,0,0,0,0,0,0,0,0,0,0,0,0,0,0,0,0,0,0,0,0,0,0,0,0,0,0,0,0,0,0,0,0,0,0,0,0,0,0,0,0,0,0,0,0,0,0,0,0,0,0,0],"id":8,"left_children":[1,3,5,7,9,11,13,15,17,19,21,23,25,27,29,31,33,35,37,39,41,43,45,47,49,51,53,55,57,59,61,63,65,67,69,71,73,75,77,79,81,83,85,87,89,91,93,95,97,99,101,103,105,107,109,111,113,115,117,119,121,123,125,-1,-1,-1,-1,-1,-1,-1,-1,-1,-1,-1,-1,-1,-1,-1,-1,-1,-1,-1,-1,-1,-1,-1,-1,-1,-1,-1,-1,-1,-1,-1,-1,-1,-1,-1,-1,-1,-1,-1,-1,-1,-1,-1,-1,-1,-1,-1,-1,-1,-1,-1,-1,-1,-1,-1,-1,-1,-1,-1,-1,-1,-1,-1,-1],"loss_changes":[7.116384E2,7.8409155E2,4.168346E2,4.2841537E2,1.5938391E2,1.446258E2,9.298523E1,1.9486856E2,4.1843958E2,1.09686035E2,6.929962E1,1.0319772E2,3.5240723E1,7.9908134E1,2.8917648E1,4.4044167E1,1.1285144E2,7.3265564E1,2.0822675E2,3.6460938E1,2.9113094E1,4.3491974E1,3.4139465E1,3.976468E1,2.806387E1,2.2388641E1,4.8506165E0,1.5615864E1,1.3947311E1,1.6067081E1,1.0825835E1,2.0221302E1,1.5531273E1,3.0191132E1,4.8696655E1,3.2281128E1,2.082846E1,1.1081587E2,1.1644188E2,2.4917389E1,1.784955E1,2.2475883E1,2.4289104E1,1.484935E1,2.6284279E1,1.5289093E1,7.574829E0,2.5615433E1,1.2051483E1,1.9543274E1,1.9909407E1,1.5925964E1,1.292716E1,4.396057E0,9.503995E-1,1.4720619E1,6.3206367E0,2.0258028E1,1.2227951E1,9.168357E0,8.152351E0,6.9190006E0,4.5365257E0,0E0,0E0,0E0,0E0,0E0,0E0,0E0,0E0,0E0,0E0,0E0,0E0,0E0,0E0,0E0,0E0,0E0,0E0,0E0,0E0,0E0,0E0,0E0,0E0,0E0,0E0,0E0,0E0,0E0,0E0,0E0,0E0,0E0,0E0,0E0,0E0,0E0,0E0,0E0,0E0,0E0,0E0,0E0,0E0,0E0,0E0,0E0,0E0,0E0,0E0,0E0,0E0,0E0,0E0,0E0,0E0,0E0,0E0,0E0,0E0,0E0,0E0,0E0,0E0],"parents":[2147483647,0,0,1,1,2,2,3,3,4,4,5,5,6,6,7,7,8,8,9,9,10,10,11,11,12,12,13,13,14,14,15,15,16,16,17,17,18,18,19,19,20,20,21,21,22,22,23,23,24,24,25,25,26,26,27,27,28,28,29,29,30,30,31,31,32,32,33,33,34,34,35,35,36,36,37,37,38,38,39,39,40,40,41,41,42,42,43,43,44,44,45,45,46,46,47,47,48,48,49,49,50,50,51,51,52,52,53,53,54,54,55,55,56,56,57,57,58,58,59,59,60,60,61,61,62,62],"right_children":[2,4,6,8,10,12,14,16,18,20,22,24,26,28,30,32,34,36,38,40,42,44,46,48,50,52,54,56,58,60,62,64,66,68,70,72,74,76,78,80,82,84,86,88,90,92,94,96,98,100,102,104,106,108,110,112,114,116,118,120,122,124,126,-1,-1,-1,-1,-1,-1,-1,-1,-1,-1,-1,-1,-1,-1,-1,-1,-1,-1,-1,-1,-1,-1,-1,-1,-1,-1,-1,-1,-1,-1,-1,-1,-1,-1,-1,-1,-1,-1,-1,-1,-1,-1,-1,-1,-1,-1,-1,-1,-1,-1,-1,-1,-1,-1,-1,-1,-1,-1,-1,-1,-1,-1,-1,-1],"split_conditions":[1.0578614E-2,-1.8682992E-1,4.0418735E-1,-6.0829103E-1,3.555721E-1,9.7260356E-1,2.1164546E0,-6.910498E-1,-6.069027E-1,-3.352214E-1,2.6648617E-1,-2.0273173E-1,3.557839E0,1.6034489E0,3.2084358E0,-6.9688994E-1,-6.929228E-1,-1.0599817E0,-3.497675E-1,5.695798E-1,4.129852E-1,-5.056004E-1,6.4827025E-1,1.9191834E0,1.5992804E-1,4.4375494E-1,1.2322662E0,1.2992862E-1,6.3687605E-1,7.2057074E-1,-7.786882E-1,-4.7934014E-1,-1.0810727E0,-8.521234E-1,1.4842861E0,-6.910498E-1,-1.2795051E0,-4.37946E-1,1.5335537E-1,-5.957285E-1,-3.978366E-1,4.9016538E-1,4.5028493E-1,2.4089266E-1,6.984265E-1,-2.0126636E-1,5.9842753E0,-3.891748E-1,-5.458543E-1,7.035256E-1,1.553421E0,2.226271E0,-3.3927438E-1,1.9191834E0,4.1829343E0,-4.414971E-1,9.541703E-1,1.0235136E0,-6.699481E-2,2.1036932E0,3.4654E0,1.0151539E0,8.803591E0,2.9387003E-2,-7.33812E-2,-9.065811E-2,6.081816E-3,1.03106394E-1,1.0428036E-2,4.2972863E-2,-1.5136666E-2,-1.1101293E-1,-6.77099E-2,-5.5951625E-2,-2.0364752E-2,-5.7474882E-3,2.1290759E-2,-3.3079695E-2,1.6132264E-3,8.4680535E-2,4.458572E-2,-7.5182654E-2,1.4427289E-2,8.559878E-3,-2.0179944E-2,3.4987923E-2,-3.2176308E-3,7.101259E-2,1.1412755E-2,1.25691695E-2,4.3265842E-2,7.052522E-2,4.3622844E-2,9.587499E-2,-1.03523396E-1,-4.6697933E-2,-1.4218757E-2,-9.689977E-2,-6.143896E-2,-2.9022742E-2,-2.0473455E-3,1.51032E-2,-3.7577104E-2,-7.1020626E-2,5.2489215E-3,-7.183047E-2,-2.0681959E-2,-9.235611E-2,-1.22624375E-1,-2.3298042E-2,7.8587405E-2,-6.426763E-2,3.057679E-3,3.4894954E-2,-8.10928E-2,5.2314747E-2,-2.4325553E-2,9.543871E-2,5.4971553E-2,-2.0281535E-2,5.824569E-2,-4.4065844E-2,-9.227613E-2,-1.01771116E-1,2.285984E-2,8.9781195E-2,-1.0399149E-2],"split_indices":[11,2,2,11,20,11,11,2,2,11,22,2,11,2,29,11,11,29,11,115,23,36,20,125,31,20,23,31,23,33,31,17,29,36,0,2,24,2,20,11,31,115,36,79,26,18,46,12,26,29,73,88,5,125,115,23,32,110,18,2,38,100,18,0,0,0,0,0,0,0,0,0,0,0,0,0,0,0,0,0,0,0,0,0,0,0,0,0,0,0,0,0,0,0,0,0,0,0,0,0,0,0,0,0,0,0,0,0,0,0,0,0,0,0,0,0,0,0,0,0,0,0,0,0,0,0,0],"split_type":[0,0,0,0,0,0,0,0,0,0,0,0,0,0,0,0,0,0,0,0,0,0,0,0,0,0,0,0,0,0,0,0,0,0,0,0,0,0,0,0,0,0,0,0,0,0,0,0,0,0,0,0,0,0,0,0,0,0,0,0,0,0,0,0,0,0,0,0,0,0,0,0,0,0,0,0,0,0,0,0,0,0,0,0,0,0,0,0,0,0,0,0,0,0,0,0,0,0,0,0,0,0,0,0,0,0,0,0,0,0,0,0,0,0,0,0,0,0,0,0,0,0,0,0,0,0,0],"sum_hessian":[2.7521451E4,2.0497176E4,7.024274E3,1.3850481E4,6.6466953E3,5.259279E3,1.7649955E3,2.0110067E3,1.1839475E4,3.6645413E3,2.9821538E3,3.836854E3,1.4224246E3,1.3886959E3,3.762995E2,2.5429955E2,1.7567072E3,1.4738928E3,1.0365582E4,1.4073573E3,2.257184E3,1.6347772E3,1.3473767E3,1.9377501E3,1.899104E3,1.1625012E3,2.599233E2,8.367767E2,5.519193E2,3.260787E2,5.0220776E1,1.0627419E2,1.4802534E2,4.295367E2,1.3271704E3,8.087794E2,6.651134E2,6.063606E3,4.301976E3,1.2908575E3,1.164998E2,1.4172378E3,8.399462E2,4.972214E2,1.1375558E3,9.239519E2,4.2342474E2,1.5095504E3,4.2819977E2,1.4124874E3,4.8661658E2,9.1210016E2,2.5040105E2,2.5787744E2,2.0458724E0,6.4753796E2,1.8923872E2,1.7862675E2,3.7329254E2,7.631127E1,2.4976744E2,1.7770569E1,3.2450203E1,8.241841E1,2.3855783E1,1.2914296E2,1.8882387E1,3.906588E2,3.8877884E1,1.1630712E3,1.6409929E2,2.5643536E2,5.5234406E2,3.0366183E2,3.6145157E2,3.0876096E3,2.975996E3,2.8333137E3,1.4686622E3,1.8126451E2,1.109593E3,2.8661116E1,8.7838684E1,1.0512037E3,3.660341E2,6.1172235E2,2.2822383E2,4.5068713E2,4.653427E1,4.9333542E2,6.4422034E2,5.804982E2,3.434537E2,4.222819E2,1.1428533E0,1.204051E3,3.0549936E2,1.5813647E2,2.700633E2,1.051713E3,3.607744E2,4.0023965E2,8.6376915E1,8.8398505E2,2.811511E1,6.741476E1,1.829863E2,1.6614403E2,9.1733406E1,1.0336587E0,1.0122138E0,3.3286407E1,6.142515E2,1.8533878E2,3.899952E0,1.328364E2,4.579035E1,1.081328E2,2.6515976E2,5.7360714E1,1.8950558E1,2.06837E2,4.2930435E1,5.8700204E0,1.1900549E1,2.7302313E1,5.147891E0],"tree_param":{"num_deleted":"0","num_feature":"136","num_nodes":"127","size_leaf_vector":"1"}},{"base_weights":[3.924781E-3,1.0791922E-1,-2.0419225E-1,-2.0110548E-1,2.0836139E-1,1.4886217E-1,-3.5436243E-1,2.456215E-1,-3.195282E-1,7.150567E-2,3.7027684E-1,-1.4723164E-1,3.0438647E-1,-1.89221E-1,-5.116145E-1,-1.5627338E-1,4.334207E-1,-9.2132735E-1,-2.537782E-1,4.211768E-1,-2.2284996E-2,2.4552353E-1,5.1695776E-1,-2.8222144E-1,2.968578E-1,1.7578056E-1,5.5884194E-1,-4.0883505E-1,-4.519445E-2,-4.1346183E-1,-7.413441E-1,2.6518998E-1,-4.7933227E-1,6.813154E-1,1.7554353E-1,-1.0431485E0,-5.884531E-1,-1.15838766E-1,-4.4515535E-1,5.5397373E-1,1.7036511E-1,8.838281E-2,-1.9659472E-1,4.7005466E-1,1.3729563E-1,9.020651E-1,4.6678174E-1,-1.3134015E-1,-5.412098E-1,7.8366756E-1,1.3196544E-1,3.6108205E-1,5.5496648E-2,6.5926516E-1,2.93137E-1,-1.661805E-1,-4.9049568E-1,2.1555528E-2,-3.298226E-1,-5.9574264E-1,-2.2912206E-1,-6.8270636E-1,-1.0656588E0,4.6015006E-2,-4.7424465E-2,-6.1532885E-2,3.227162E-2,5.124718E-2,8.985946E-2,2.9963374E-2,-3.4408968E-2,-1.08128205E-1,-4.6523802E-2,-1.548102E-2,-8.396582E-2,-2.4305694E-2,9.547525E-3,-4.9788427E-2,7.152146E-3,1.2551019E-1,5.207792E-2,5.483038E-3,5.420983E-2,3.041999E-2,-5.81563E-4,-3.5581473E-2,-8.22158E-3,2.6744677E-2,6.184417E-2,2.0203577E-2,-8.805093E-3,9.143039E-2,-1.0288187E-1,4.090227E-2,8.507566E-2,-3.2949623E-2,5.5154758E-3,1.0675171E-2,-5.966842E-2,8.744531E-2,-5.558148E-2,4.1577306E-2,-1.9014139E-2,-1.0490866E-1,3.9428923E-2,-1.1673651E-3,5.0876137E-2,5.0061006E-2,8.229965E-2,-4.598713E-2,3.585735E-2,-4.6035357E-2,1.06774E-3,-5.7327777E-2,-2.224922E-2,-4.041133E-3,4.0984E-2,-5.1347625E-2,-1.3220218E-2,-6.7636214E-2,-3.7109967E-2,9.371324E-3,-2.7998565E-2,-7.968172E-2,-5.3392697E-2,-1.08283006E-1,4.0832516E-2],"categories":[],"categories_nodes":[],"categories_segments":[],"categories_sizes":[],"default_left":[0,0,0,0,0,0,0,0,0,0,0,0,0,0,0,0,0,0,0,0,0,0,0,0,0,0,0,0,0,0,0,0,0,0,0,0,0,0,0,0,0,0,0,0,0,0,0,0,0,0,0,0,0,0,0,0,0,0,0,0,0,0,0,0,0,0,0,0,0,0,0,0,0,0,0,0,0,0,0,0,0,0,0,0,0,0,0,0,0,0,0,0,0,0,0,0,0,0,0,0,0,0,0,0,0,0,0,0,0,0,0,0,0,0,0,0,0,0,0,0,0,0,0,0,0,0,0],"id":9,"left_children":[1,3,5,7,9,11,13,15,17,19,21,23,25,27,29,31,33,35,37,39,41,43,45,47,49,51,53,55,57,59,61,63,65,67,69,71,73,75,77,79,81,83,85,87,89,91,93,95,97,99,101,103,105,107,109,111,113,115,117,119,121,123,125,-1,-1,-1,-1,-1,-1,-1,-1,-1,-1,-1,-1,-1,-1,-1,-1,-1,-1,-1,-1,-1,-1,-1,-1,-1,-1,-1,-1,-1,-1,-1,-1,-1,-1,-1,-1,-1,-1,-1,-1,-1,-1,-1,-1,-1,-1,-1,-1,-1,-1,-1,-1,-1,-1,-1,-1,-1,-1,-1,-1,-1,-1,-1,-1],"loss_changes":[5.898524E2,5.641107E2,4.815032E2,2.3593451E2,3.038969E2,1.2486607E2,1.6535773E2,7.0619865E1,1.3922614E2,2.4382097E2,1.1483301E2,5.6081814E1,5.8068054E1,9.832843E1,7.326959E1,4.076054E1,4.062317E1,1.3447998E1,8.386302E1,5.2276306E1,1.1311455E2,8.248013E1,5.5355286E1,2.794196E1,1.741501E1,2.6329002E1,1.57174835E1,2.4318253E1,3.5704365E1,7.675992E1,1.7824158E1,1.897876E1,1.8664345E1,1.1448273E1,2.033265E1,5.062958E0,1.024041E1,4.9720253E1,3.6300476E1,2.3262299E1,2.340968E1,7.2919464E1,4.1439636E1,3.3037247E1,3.3476723E1,8.778381E0,5.633551E1,1.680689E1,9.538017E0,7.1763153E0,1.5091831E1,2.2195087E1,2.186689E1,1.0808334E1,8.312556E0,1.6214447E1,2.0301147E1,3.6659153E1,1.2888634E1,2.0576935E1,1.8736427E1,1.3647766E1,4.177719E0,0E0,0E0,0E0,0E0,0E0,0E0,0E0,0E0,0E0,0E0,0E0,0E0,0E0,0E0,0E0,0E0,0E0,0E0,0E0,0E0,0E0,0E0,0E0,0E0,0E0,0E0,0E0,0E0,0E0,0E0,0E0,0E0,0E0,0E0,0E0,0E0,0E0,0E0,0E0,0E0,0E0,0E0,0E0,0E0,0E0,0E0,0E0,0E0,0E0,0E0,0E0,0E0,0E0,0E0,0E0,0E0,0E0,0E0,0E0,0E0,0E0,0E0,0E0,0E0],"parents":[2147483647,0,0,1,1,2,2,3,3,4,4,5,5,6,6,7,7,8,8,9,9,10,10,11,11,12,12,13,13,14,14,15,15,16,16,17,17,18,18,19,19,20,20,21,21,22,22,23,23,24,24,25,25,26,26,27,27,28,28,29,29,30,30,31,31,32,32,33,33,34,34,35,35,36,36,37,37,38,38,39,39,40,40,41,41,42,42,43,43,44,44,45,45,46,46,47,47,48,48,49,49,50,50,51,51,52,52,53,53,54,54,55,55,56,56,57,57,58,58,59,59,60,60,61,61,62,62],"right_children":[2,4,6,8,10,12,14,16,18,20,22,24,26,28,30,32,34,36,38,40,42,44,46,48,50,52,54,56,58,60,62,64,66,68,70,72,74,76,78,80,82,84,86,88,90,92,94,96,98,100,102,104,106,108,110,112,114,116,118,120,122,124,126,-1,-1,-1,-1,-1,-1,-1,-1,-1,-1,-1,-1,-1,-1,-1,-1,-1,-1,-1,-1,-1,-1,-1,-1,-1,-1,-1,-1,-1,-1,-1,-1,-1,-1,-1,-1,-1,-1,-1,-1,-1,-1,-1,-1,-1,-1,-1,-1,-1,-1,-1,-1,-1,-1,-1,-1,-1,-1,-1,-1,-1,-1,-1,-1],"split_conditions":[2.9183152E-1,-5.148048E-1,-5.433348E-1,-1.3128912E0,1.8311219E-1,-6.131534E-1,3.234377E-1,-6.6984737E-1,-6.910498E-1,-9.560436E-1,2.6035568E-1,1.0571433E0,1.2680259E0,-3.4253514E-1,5.573136E-1,-5.7998085E-1,-1.1874851E0,-1.1249557E0,-5.6769246E-1,-2.991376E-1,-2.3264217E-1,-2.963064E-1,-8.8486755E-1,1.0577639E0,4.2438403E-1,-1.891533E-1,9.978759E-1,1.3298018E-2,1.3653208E0,-1.6259711E-2,3.0409584E0,-1.1143713E0,8.0480546E-1,2.1047587E0,-3.3119738E-1,2.0289457E-1,-8.832321E-1,-9.488357E-1,-3.0002725E-1,-6.185892E-1,-2.5486246E-2,-3.0415162E-1,-3.3598512E-1,-4.1485286E-1,1.8482722E-1,8.441977E0,9.3836975E-1,7.8801924E-1,-6.683623E-1,5.4463577E0,-5.283164E-1,-4.2984265E-1,2.2756615E0,6.738727E-1,-1.5035702E-1,-8.070467E-1,1.3922505E-1,1.4011463E0,1.5162877E0,2.4256507E-1,-5.389035E-1,1.8914478E-1,1.3088653E0,4.6015006E-2,-4.7424465E-2,-6.1532885E-2,3.227162E-2,5.124718E-2,8.985946E-2,2.9963374E-2,-3.4408968E-2,-1.08128205E-1,-4.6523802E-2,-1.548102E-2,-8.396582E-2,-2.4305694E-2,9.547525E-3,-4.9788427E-2,7.152146E-3,1.2551019E-1,5.207792E-2,5.483038E-3,5.420983E-2,3.041999E-2,-5.81563E-4,-3.5581473E-2,-8.22158E-3,2.6744677E-2,6.184417E-2,2.0203577E-2,-8.805093E-3,9.143039E-2,-1.0288187E-1,4.090227E-2,8.507566E-2,-3.2949623E-2,5.5154758E-3,1.0675171E-2,-5.966842E-2,8.744531E-2,-5.558148E-2,4.1577306E-2,-1.9014139E-2,-1.0490866E-1,3.9428923E-2,-1.1673651E-3,5.0876137E-2,5.0061006E-2,8.229965E-2,-4.598713E-2,3.585735E-2,-4.6035357E-2,1.06774E-3,-5.7327777E-2,-2.224922E-2,-4.041133E-3,4.0984E-2,-5.1347625E-2,-1.3220218E-2,-6.7636214E-2,-3.7109967E-2,9.371324E-3,-2.7998565E-2,-7.968172E-2,-5.3392697E-2,-1.08283006E-1,4.0832516E-2],"split_indices":[39,2,0,34,20,9,30,2,2,39,28,23,26,2,33,17,39,25,35,18,18,18,36,33,33,18,110,33,75,26,35,37,100,9,14,96,6,26,25,9,105,0,28,5,3,41,23,28,0,66,21,28,65,20,34,26,28,63,60,20,21,26,23,0,0,0,0,0,0,0,0,0,0,0,0,0,0,0,0,0,0,0,0,0,0,0,0,0,0,0,0,0,0,0,0,0,0,0,0,0,0,0,0,0,0,0,0,0,0,0,0,0,0,0,0,0,0,0,0,0,0,0,0,0,0,0,0],"split_type":[0,0,0,0,0,0,0,0,0,0,0,0,0,0,0,0,0,0,0,0,0,0,0,0,0,0,0,0,0,0,0,0,0,0,0,0,0,0,0,0,0,0,0,0,0,0,0,0,0,0,0,0,0,0,0,0,0,0,0,0,0,0,0,0,0,0,0,0,0,0,0,0,0,0,0,0,0,0,0,0,0,0,0,0,0,0,0,0,0,0,0,0,0,0,0,0,0,0,0,0,0,0,0,0,0,0,0,0,0,0,0,0,0,0,0,0,0,0,0,0,0,0,0,0,0,0,0],"sum_hessian":[2.725169E4,1.8171844E4,9.079847E3,4.4573047E3,1.3714539E4,2.7095723E3,6.370274E3,9.3376843E2,3.5235361E3,7.4332114E3,6.2813276E3,9.331172E2,1.776455E3,3.1082676E3,3.2620063E3,2.974296E2,6.363388E2,3.457678E2,3.1777683E3,1.571361E3,5.8618506E3,3.3958252E3,2.8855027E3,7.158768E2,2.1724043E2,1.1811656E3,5.9528937E2,1.2303583E3,1.8779093E3,2.2874756E3,9.745309E2,1.291367E2,1.682929E2,3.236119E2,3.1272693E2,2.5156824E2,9.4199554E1,1.8476432E3,1.3301252E3,1.0265997E3,5.4476117E2,3.5857686E3,2.276082E3,1.1033845E3,2.2924407E3,3.3066086E2,2.5548418E3,4.533004E2,2.6257635E2,5.4016266E1,1.6322417E2,4.6414008E2,7.170256E2,4.3093594E2,1.6435341E2,3.10561E2,9.197973E2,1.5219187E3,3.559907E2,1.149039E3,1.1384366E3,8.279402E2,1.4659071E2,1.0249142E2,2.6645287E1,1.4409305E2,2.419984E1,1.8399298E2,1.3961893E2,2.5278448E2,5.994243E1,2.3517894E2,1.6389305E1,3.5145645E1,5.905391E1,1.1532173E3,6.944259E2,1.2069841E3,1.23141106E2,4.47427E1,9.8185706E2,4.164698E2,1.282914E2,1.088861E3,2.4969077E3,9.5064105E2,1.325441E3,4.676529E2,6.357317E2,1.7809053E3,5.1153534E2,3.2910135E2,1.5595047E0,2.222578E3,3.3226392E2,2.1940724E2,2.3389317E2,2.0634413E1,2.4194194E2,5.0912746E1,3.1035194E0,8.661612E1,7.6608055E1,9.974462E0,4.541656E2,6.253307E2,9.1694885E1,2.2092137E2,2.1001456E2,1.265849E1,1.5169493E2,1.1600442E2,1.9455658E2,7.018636E2,2.1793373E2,1.3132338E3,2.0868489E2,1.8368723E2,1.7230347E2,8.440992E2,3.049397E2,1.5483621E2,9.836004E2,4.6609723E2,3.6184293E2,1.4516496E2,1.4257407E0],"tree_param":{"num_deleted":"0","num_feature":"136","num_nodes":"127","size_leaf_vector":"1"}},{"base_weights":[-1.7603154E-4,-1.2193234E-1,1.4394237E-1,9.093689E-2,-2.7131566E-1,2.2998159E-1,-1.8843628E-1,-8.966555E-2,2.7427343E-1,-1.8045543E-1,-4.8792148E-1,9.364446E-2,3.8357314E-1,-3.1771955E-1,1.7312957E-1,-5.9387624E-1,-2.3176426E-2,6.3399374E-1,1.8105857E-1,-3.958776E-1,-5.3256508E-2,-3.5503334E-1,-7.0311743E-1,2.2080445E-1,-7.938155E-2,3.2616118E-1,6.9901425E-1,-2.4576992E-1,-7.0938766E-1,3.1146774E-1,-1.2939045E-1,2.3989016E-2,-8.241908E-1,4.5115358E-1,-1.2067178E-1,1.0588591E0,5.386686E-1,2.246605E-1,-1.01243004E-1,-7.263034E-1,-3.1740642E-1,-1.6114175E-1,8.8394314E-2,-4.802023E-1,-1.4793599E-1,-5.6434864E-1,-8.3563477E-1,-1.0189403E-1,2.9892686E-1,-4.1865715E-1,-2.7904747E-2,4.7323576E-1,1.8057199E-1,9.6612304E-1,5.978133E-1,-2.9469657E-1,4.740375E-2,-8.28306E-1,-3.3527938E-1,3.3835965E-1,-7.761055E-1,-2.6612037E-1,3.4898788E-1,-2.9859135E-2,5.3085864E-2,-9.30779E-2,-4.6225715E-2,9.061145E-2,2.8967863E-2,-3.80718E-2,-7.003912E-3,1.1430347E-1,6.071982E-3,4.803751E-2,1.0821867E-1,1.270468E-2,3.6141288E-2,6.7678265E-2,-1.5541158E-2,-8.084242E-2,-1.4219592E-2,-2.6692448E-2,-5.4597404E-2,-2.631237E-2,-8.1839174E-4,1.728559E-2,-1.2585654E-2,-5.6318086E-2,-2.0402705E-2,-2.309605E-2,2.715351E-2,-7.2630785E-2,-3.742226E-2,-8.437502E-2,1.3794707E-1,3.7548285E-2,-2.7348218E-2,5.5381436E-2,2.2661088E-2,-3.0799264E-2,-8.720316E-2,-5.3269123E-3,5.0389152E-2,7.205668E-2,4.062553E-2,2.2233132E-2,-1.1930692E-2,1.0061791E-1,-5.4359626E-2,2.8569391E-2,7.110571E-2,-3.0573353E-2,9.245669E-2,1.6670939E-2,-3.3134844E-2,-9.137262E-2,-4.8069865E-2,3.557163E-2,-5.762279E-2,3.6497284E-2,-6.918632E-2,-1.4394937E-1,-2.6318891E-2,3.227596E-3,-4.6833288E-2,1.0859519E-1,1.1255597E-2],"categories":[],"categories_nodes":[],"categories_segments":[],"categories_sizes":[],"default_left":[0,0,0,0,0,0,0,0,0,0,0,0,0,0,0,0,0,0,0,0,0,0,0,0,0,0,0,0,0,0,0,0,0,0,0,0,0,0,0,0,0,0,0,0,0,0,0,0,0,0,0,0,0,0,0,0,0,0,0,0,0,0,0,0,0,0,0,0,0,0,0,0,0,0,0,0,0,0,0,0,0,0,0,0,0,0,0,0,0,0,0,0,0,0,0,0,0,0,0,0,0,0,0,0,0,0,0,0,0,0,0,0,0,0,0,0,0,0,0,0,0,0,0,0,0,0,0],"id":10,"left_children":[1,3,5,7,9,11,13,15,17,19,21,23,25,27,29,31,33,35,37,39,41,43,45,47,49,51,53,55,57,59,61,63,65,67,69,71,73,75,77,79,81,83,85,87,89,91,93,95,97,99,101,103,105,107,109,111,113,115,117,119,121,123,125,-1,-1,-1,-1,-1,-1,-1,-1,-1,-1,-1,-1,-1,-1,-1,-1,-1,-1,-1,-1,-1,-1,-1,-1,-1,-1,-1,-1,-1,-1,-1,-1,-1,-1,-1,-1,-1,-1,-1,-1,-1,-1,-1,-1,-1,-1,-1,-1,-1,-1,-1,-1,-1,-1,-1,-1,-1,-1,-1,-1,-1,-1,-1,-1],"loss_changes":[4.7556653E2,4.6717615E2,3.5497473E2,2.0063788E2,1.6981482E2,2.0642554E2,1.1937805E2,1.0233378E2,1.0071013E2,1.6667175E2,7.2688354E1,1.14966644E2,8.373175E1,5.282399E1,2.8204857E1,5.0628258E1,1.248362E2,2.4476028E1,2.9434448E1,5.832483E1,5.8484062E1,4.0856018E1,1.7415741E1,7.595378E1,3.865281E1,8.393887E1,1.869571E1,2.2825897E1,1.2683334E1,1.3777668E1,1.3951986E1,1.610716E1,9.5651245E0,3.355066E1,2.9454063E1,9.365166E0,1.5547913E1,2.7587608E1,1.360707E1,2.0636398E1,2.093161E1,3.388244E1,2.9967178E1,2.242656E1,2.082676E1,1.4454025E1,1.0070892E1,4.824512E1,4.4571457E1,1.43605E1,2.5969265E1,3.203592E1,2.474163E1,1.2296051E1,1.8166046E1,1.8625E1,1.0371952E1,6.1046143E0,1.2184339E1,1.2635574E1,3.518538E0,9.992454E0,8.159784E0,0E0,0E0,0E0,0E0,0E0,0E0,0E0,0E0,0E0,0E0,0E0,0E0,0E0,0E0,0E0,0E0,0E0,0E0,0E0,0E0,0E0,0E0,0E0,0E0,0E0,0E0,0E0,0E0,0E0,0E0,0E0,0E0,0E0,0E0,0E0,0E0,0E0,0E0,0E0,0E0,0E0,0E0,0E0,0E0,0E0,0E0,0E0,0E0,0E0,0E0,0E0,0E0,0E0,0E0,0E0,0E0,0E0,0E0,0E0,0E0,0E0,0E0,0E0,0E0],"parents":[2147483647,0,0,1,1,2,2,3,3,4,4,5,5,6,6,7,7,8,8,9,9,10,10,11,11,12,12,13,13,14,14,15,15,16,16,17,17,18,18,19,19,20,20,21,21,22,22,23,23,24,24,25,25,26,26,27,27,28,28,29,29,30,30,31,31,32,32,33,33,34,34,35,35,36,36,37,37,38,38,39,39,40,40,41,41,42,42,43,43,44,44,45,45,46,46,47,47,48,48,49,49,50,50,51,51,52,52,53,53,54,54,55,55,56,56,57,57,58,58,59,59,60,60,61,61,62,62],"right_children":[2,4,6,8,10,12,14,16,18,20,22,24,26,28,30,32,34,36,38,40,42,44,46,48,50,52,54,56,58,60,62,64,66,68,70,72,74,76,78,80,82,84,86,88,90,92,94,96,98,100,102,104,106,108,110,112,114,116,118,120,122,124,126,-1,-1,-1,-1,-1,-1,-1,-1,-1,-1,-1,-1,-1,-1,-1,-1,-1,-1,-1,-1,-1,-1,-1,-1,-1,-1,-1,-1,-1,-1,-1,-1,-1,-1,-1,-1,-1,-1,-1,-1,-1,-1,-1,-1,-1,-1,-1,-1,-1,-1,-1,-1,-1,-1,-1,-1,-1,-1,-1,-1,-1,-1,-1,-1],"split_conditions":[1.7134823E-1,-6.161307E-1,3.643129E-1,-8.338044E-1,3.4768432E-1,3.124193E-1,1.0170696E0,-6.910498E-1,-6.0829103E-1,-4.1806874E-1,8.171057E-1,-2.2647533E-1,1.6034489E0,2.6751564E0,2.466883E0,-6.9688994E-1,-6.426727E-1,-6.9688994E-1,-3.1670824E-1,-6.2015426E-1,-3.0331144E-1,-2.3298657E-2,3.4120777E-1,-8.9514947E-1,-4.783631E-1,-2.2348106E-1,-3.527045E-1,1.0977917E0,5.4824424E-1,1.3936667E0,4.244884E0,-5.783726E-1,-5.18634E-1,-6.9953465E-1,-6.2545484E-1,-9.2465544E-1,3.103364E0,-3.4253514E-1,-4.837722E-1,-7.272027E-2,5.298726E-1,-1.8224216E-1,5.0279878E-2,-8.1971146E-2,1.5068667E0,5.0450023E-2,2.3230553E0,-1.3128912E0,-1.0002393E0,1.2016838E0,1.2562127E0,-4.9522832E-1,-1.2911658E-1,9.43836E-1,1.3340219E0,5.428784E-1,1.5219932E0,4.273775E-1,9.154976E-1,1.2764239E0,1.483026E0,2.444415E0,8.617231E-1,-2.9859135E-2,5.3085864E-2,-9.30779E-2,-4.6225715E-2,9.061145E-2,2.8967863E-2,-3.80718E-2,-7.003912E-3,1.1430347E-1,6.071982E-3,4.803751E-2,1.0821867E-1,1.270468E-2,3.6141288E-2,6.7678265E-2,-1.5541158E-2,-8.084242E-2,-1.4219592E-2,-2.6692448E-2,-5.4597404E-2,-2.631237E-2,-8.1839174E-4,1.728559E-2,-1.2585654E-2,-5.6318086E-2,-2.0402705E-2,-2.309605E-2,2.715351E-2,-7.2630785E-2,-3.742226E-2,-8.437502E-2,1.3794707E-1,3.7548285E-2,-2.7348218E-2,5.5381436E-2,2.2661088E-2,-3.0799264E-2,-8.720316E-2,-5.3269123E-3,5.0389152E-2,7.205668E-2,4.062553E-2,2.2233132E-2,-1.1930692E-2,1.0061791E-1,-5.4359626E-2,2.8569391E-2,7.110571E-2,-3.0573353E-2,9.245669E-2,1.6670939E-2,-3.3134844E-2,-9.137262E-2,-4.8069865E-2,3.557163E-2,-5.762279E-2,3.6497284E-2,-6.918632E-2,-1.4394937E-1,-2.6318891E-2,3.227596E-3,-4.6833288E-2,1.0859519E-1,1.1255597E-2],"split_indices":[20,35,11,25,30,29,2,2,11,2,39,39,2,11,11,11,11,11,11,2,9,29,32,28,2,11,14,29,20,61,19,8,8,11,2,36,122,2,30,68,115,19,3,69,63,27,105,34,36,72,111,11,3,30,29,12,39,2,33,112,61,14,33,0,0,0,0,0,0,0,0,0,0,0,0,0,0,0,0,0,0,0,0,0,0,0,0,0,0,0,0,0,0,0,0,0,0,0,0,0,0,0,0,0,0,0,0,0,0,0,0,0,0,0,0,0,0,0,0,0,0,0,0,0,0,0,0],"split_type":[0,0,0,0,0,0,0,0,0,0,0,0,0,0,0,0,0,0,0,0,0,0,0,0,0,0,0,0,0,0,0,0,0,0,0,0,0,0,0,0,0,0,0,0,0,0,0,0,0,0,0,0,0,0,0,0,0,0,0,0,0,0,0,0,0,0,0,0,0,0,0,0,0,0,0,0,0,0,0,0,0,0,0,0,0,0,0,0,0,0,0,0,0,0,0,0,0,0,0,0,0,0,0,0,0,0,0,0,0,0,0,0,0,0,0,0,0,0,0,0,0,0,0,0,0,0,0],"sum_hessian":[2.709994E4,1.4689709E4,1.241023E4,6.057806E3,8.631902E3,9.858561E3,2.5516694E3,3.0519153E3,3.005891E3,6.0823545E3,2.549548E3,5.223488E3,4.6350728E3,1.8796823E3,6.7198724E2,3.546379E2,2.6972773E3,6.174237E2,2.3884673E3,2.257305E3,3.8250493E3,1.5778447E3,9.717034E2,3.0106384E3,2.2128496E3,3.9230842E3,7.119886E2,1.589346E3,2.903362E2,4.6110214E2,2.1088512E2,9.654157E1,2.5809634E2,4.592632E2,2.2380142E3,1.1129094E2,5.0613278E2,2.0690962E3,3.193711E2,4.3161374E2,1.8256912E3,2.1712368E3,1.6538126E3,9.8262854E2,5.952162E2,4.7722464E2,4.9447876E2,5.867321E2,2.4239062E3,2.905759E2,1.9222737E3,1.9504668E3,1.9726174E3,1.9328566E2,5.1870294E2,1.3620358E3,2.273102E2,2.1938567E2,7.095056E1,4.5064807E2,1.0454078E1,1.643534E2,4.6531723E1,5.9246815E1,3.7294758E1,1.981656E2,5.9930744E1,1.1909572E2,3.401675E2,3.6367627E2,1.8743379E3,1.02501564E2,8.789373E0,4.588084E2,4.732439E1,1.2084412E3,8.606551E2,2.0040108E1,2.99331E2,3.7807535E2,5.353837E1,1.497187E3,3.2850415E2,1.3022585E3,8.689782E2,1.1863322E3,4.6748044E2,7.5480383E2,2.278247E2,4.9724713E2,9.796904E1,2.5617847E2,2.2104617E2,4.9329062E2,1.1881593E0,1.5481943E2,4.3191272E2,5.3424146E2,1.8896648E3,2.3491472E2,5.5661186E1,1.8356222E3,8.665139E1,4.1356915E2,1.5368977E3,1.7317263E3,2.4089116E2,1.8861484E2,4.670823E0,1.3903139E2,3.7967157E2,1.3505596E3,1.1476233E1,1.7328564E2,5.402454E1,1.7480173E2,4.458393E1,1.8220692E1,5.2729874E1,4.3992935E2,1.0718717E1,3.7707007E0,6.6833773E0,6.672724E1,9.7626144E1,1.0429531E1,3.6102192E1],"tree_param":{"num_deleted":"0","num_feature":"136","num_nodes":"127","size_leaf_vector":"1"}},{"base_weights":[-1.2640605E-3,1.1883439E-1,-1.372739E-1,-1.4434062E-1,2.1589896E-1,-2.2266942E-1,1.7119834E-1,1.883345E-1,-2.596408E-1,5.105396E-1,1.5862986E-1,-1.2528796E-1,-4.2687827E-1,2.993335E-1,-1.2576826E-1,-2.9046378E-1,3.0482104E-1,-5.480946E-1,-1.5906905E-1,4.0697214E-1,7.230337E-1,2.966266E-1,-2.505214E-3,-2.5433403E-1,2.2194156E-2,-3.482607E-1,-6.5477824E-1,2.508889E-1,7.454549E-1,-2.6017895E-1,2.1881251E-1,1.0976323E-1,-6.2682074E-1,8.662968E-1,1.881674E-1,-6.8930405E-1,-2.512412E-1,-2.6136981E-2,-3.132852E-1,5.046072E-1,1.6385321E-1,7.48708E-1,-2.6488182E-1,6.9109124E-1,2.5514215E-1,7.011515E-2,-2.8351927E-1,-1.002543E-1,-4.1068757E-1,-1.7673342E-1,1.0708294E-1,-5.250186E-1,-2.3208031E-1,5.4264027E-3,-6.8973994E-1,5.891866E-1,2.0717593E-1,8.680437E-1,4.2616597E-1,-1.9553365E-2,-3.910015E-1,-2.0925057E-1,4.2807472E-1,-1.6659606E-2,9.3643874E-2,-7.697106E-2,3.269785E-2,9.3804054E-2,-2.888347E-3,-5.0421054E-3,2.8335169E-2,-1.0554206E-1,-5.6961674E-2,1.3204035E-2,-3.8072284E-2,1.5580514E-2,-1.2354337E-2,-2.3432208E-2,-6.529706E-2,5.1844805E-2,-8.050259E-2,3.9788418E-5,5.0232846E-2,6.644812E-2,9.650329E-2,-9.939062E-2,1.6860675E-2,8.147459E-2,2.977534E-2,4.3162264E-2,1.905431E-2,-7.6598E-3,1.8219179E-2,-3.931496E-2,9.378354E-5,-4.687472E-2,-2.9986596E-3,-7.969934E-2,-3.6405675E-2,1.031198E-3,-2.6677087E-2,5.080189E-2,7.3548183E-3,-3.4322057E-2,-6.645619E-2,-1.0623573E-2,-3.740378E-2,3.132824E-2,-7.657387E-2,-6.0155142E-2,-9.355002E-2,6.9980435E-2,-3.80339E-2,1.1643069E-2,3.522366E-2,9.225573E-2,-1.7464958E-2,5.4162305E-2,-1.0959367E-1,-1.1172249E-2,5.8990624E-2,-4.326974E-2,3.506295E-2,-2.888509E-2,8.579072E-2,4.906669E-2,-6.501305E-2],"categories":[],"categories_nodes":[],"categories_segments":[],"categories_sizes":[],"default_left":[0,0,0,0,0,0,0,0,0,0,0,0,0,0,0,0,0,0,0,0,0,0,0,0,0,0,0,0,0,0,0,0,0,0,0,0,0,0,0,0,0,0,0,0,0,0,0,0,0,0,0,0,0,0,0,0,0,0,0,0,0,0,0,0,0,0,0,0,0,0,0,0,0,0,0,0,0,0,0,0,0,0,0,0,0,0,0,0,0,0,0,0,0,0,0,0,0,0,0,0,0,0,0,0,0,0,0,0,0,0,0,0,0,0,0,0,0,0,0,0,0,0,0,0,0,0,0],"id":11,"left_children":[1,3,5,7,9,11,13,15,17,19,21,23,25,27,29,31,33,35,37,39,41,43,45,47,49,51,53,55,57,59,61,63,65,67,69,71,73,75,77,79,81,83,85,87,89,91,93,95,97,99,101,103,105,107,109,111,113,115,117,119,121,123,125,-1,-1,-1,-1,-1,-1,-1,-1,-1,-1,-1,-1,-1,-1,-1,-1,-1,-1,-1,-1,-1,-1,-1,-1,-1,-1,-1,-1,-1,-1,-1,-1,-1,-1,-1,-1,-1,-1,-1,-1,-1,-1,-1,-1,-1,-1,-1,-1,-1,-1,-1,-1,-1,-1,-1,-1,-1,-1,-1,-1,-1,-1,-1,-1],"loss_changes":[4.4040002E2,3.6578748E2,3.3308435E2,1.4805296E2,1.7642899E2,1.9686609E2,1.04366264E2,5.5510387E1,8.3051895E1,3.7159973E1,1.9478255E2,1.2764098E2,5.7052063E1,4.121367E1,3.836566E1,2.6314167E1,5.22181E1,3.08665E1,4.3583E1,2.7131622E1,1.4310608E1,7.7040375E1,8.2507515E1,8.612756E1,5.2883545E1,4.8735657E1,1.8904266E1,2.5453575E1,6.9547577E0,1.8737717E1,2.0929333E1,2.0689587E1,1.4709366E1,8.844673E0,1.5080898E1,2.1361633E1,1.1974178E1,2.0277328E1,2.62482E1,1.5235962E1,1.825629E1,9.244324E0,4.854853E0,2.1568436E1,4.8611664E1,5.284246E1,2.5891884E1,4.6666885E1,3.1684021E1,1.5778065E1,2.9472746E1,2.3689056E1,2.5638E1,1.0252348E1,1.6291931E1,2.1432426E1,2.0140366E1,7.792244E0,1.0062444E1,1.1906089E1,1.2078815E1,6.793708E0,1.0886536E1,0E0,0E0,0E0,0E0,0E0,0E0,0E0,0E0,0E0,0E0,0E0,0E0,0E0,0E0,0E0,0E0,0E0,0E0,0E0,0E0,0E0,0E0,0E0,0E0,0E0,0E0,0E0,0E0,0E0,0E0,0E0,0E0,0E0,0E0,0E0,0E0,0E0,0E0,0E0,0E0,0E0,0E0,0E0,0E0,0E0,0E0,0E0,0E0,0E0,0E0,0E0,0E0,0E0,0E0,0E0,0E0,0E0,0E0,0E0,0E0,0E0,0E0,0E0,0E0],"parents":[2147483647,0,0,1,1,2,2,3,3,4,4,5,5,6,6,7,7,8,8,9,9,10,10,11,11,12,12,13,13,14,14,15,15,16,16,17,17,18,18,19,19,20,20,21,21,22,22,23,23,24,24,25,25,26,26,27,27,28,28,29,29,30,30,31,31,32,32,33,33,34,34,35,35,36,36,37,37,38,38,39,39,40,40,41,41,42,42,43,43,44,44,45,45,46,46,47,47,48,48,49,49,50,50,51,51,52,52,53,53,54,54,55,55,56,56,57,57,58,58,59,59,60,60,61,61,62,62],"right_children":[2,4,6,8,10,12,14,16,18,20,22,24,26,28,30,32,34,36,38,40,42,44,46,48,50,52,54,56,58,60,62,64,66,68,70,72,74,76,78,80,82,84,86,88,90,92,94,96,98,100,102,104,106,108,110,112,114,116,118,120,122,124,126,-1,-1,-1,-1,-1,-1,-1,-1,-1,-1,-1,-1,-1,-1,-1,-1,-1,-1,-1,-1,-1,-1,-1,-1,-1,-1,-1,-1,-1,-1,-1,-1,-1,-1,-1,-1,-1,-1,-1,-1,-1,-1,-1,-1,-1,-1,-1,-1,-1,-1,-1,-1,-1,-1,-1,-1,-1,-1,-1,-1,-1,-1,-1,-1],"split_conditions":[1.6021961E-1,-5.0287837E-1,2.9817528E-1,-9.90385E-1,-5.542067E-1,6.232565E-1,7.7755386E-1,-6.910498E-1,-6.353935E-1,1.1720595E0,-3.411721E-1,-2.4676646E-1,6.499476E-1,3.5282304E0,2.4548583E0,-1.4344486E0,-6.9688994E-1,-9.486877E-1,-4.3902755E-1,-1.57511E-1,4.1811532E-1,-6.4862335E-1,1.2139277E0,-2.6324672E-1,-4.9900112E-1,-1.4661819E-1,-8.6745256E-1,-5.350487E-1,3.2464173E-1,4.5471025E-1,-6.6751164E-1,-5.325267E-1,-1.0883754E0,7.711706E-1,5.174981E-1,-6.9833815E-1,-1.2828382E-2,-3.1850457E-1,1.4960016E0,4.6098134E-1,9.7176504E-1,1.9191834E0,1.2348462E0,-1.279676E0,-3.2589555E-1,-2.6103836E-1,1.8968903E0,-1.031311E0,-5.9033835E-1,-1.6792062E-1,-9.401684E-1,3.246265E-1,1.0549895E0,8.551437E-1,9.3632746E-1,7.844709E-1,1.160371E0,3.1862829E0,8.5077554E-1,1.1490704E0,2.7155132E0,2.0487413E0,1.3559631E0,-1.6659606E-2,9.3643874E-2,-7.697106E-2,3.269785E-2,9.3804054E-2,-2.888347E-3,-5.0421054E-3,2.8335169E-2,-1.0554206E-1,-5.6961674E-2,1.3204035E-2,-3.8072284E-2,1.5580514E-2,-1.2354337E-2,-2.3432208E-2,-6.529706E-2,5.1844805E-2,-8.050259E-2,3.9788418E-5,5.0232846E-2,6.644812E-2,9.650329E-2,-9.939062E-2,1.6860675E-2,8.147459E-2,2.977534E-2,4.3162264E-2,1.905431E-2,-7.6598E-3,1.8219179E-2,-3.931496E-2,9.378354E-5,-4.687472E-2,-2.9986596E-3,-7.969934E-2,-3.6405675E-2,1.031198E-3,-2.6677087E-2,5.080189E-2,7.3548183E-3,-3.4322057E-2,-6.645619E-2,-1.0623573E-2,-3.740378E-2,3.132824E-2,-7.657387E-2,-6.0155142E-2,-9.355002E-2,6.9980435E-2,-3.80339E-2,1.1643069E-2,3.522366E-2,9.225573E-2,-1.7464958E-2,5.4162305E-2,-1.0959367E-1,-1.1172249E-2,5.8990624E-2,-4.326974E-2,3.506295E-2,-2.888509E-2,8.579072E-2,4.906669E-2,-6.501305E-2],"split_indices":[30,2,2,38,0,39,11,2,2,29,11,29,30,2,2,33,11,27,11,18,18,11,75,18,9,29,21,36,11,33,9,8,29,113,9,2,21,18,73,14,100,125,28,34,0,2,65,28,2,21,36,33,35,103,33,74,26,90,15,103,19,63,33,0,0,0,0,0,0,0,0,0,0,0,0,0,0,0,0,0,0,0,0,0,0,0,0,0,0,0,0,0,0,0,0,0,0,0,0,0,0,0,0,0,0,0,0,0,0,0,0,0,0,0,0,0,0,0,0,0,0,0,0,0,0,0,0],"split_type":[0,0,0,0,0,0,0,0,0,0,0,0,0,0,0,0,0,0,0,0,0,0,0,0,0,0,0,0,0,0,0,0,0,0,0,0,0,0,0,0,0,0,0,0,0,0,0,0,0,0,0,0,0,0,0,0,0,0,0,0,0,0,0,0,0,0,0,0,0,0,0,0,0,0,0,0,0,0,0,0,0,0,0,0,0,0,0,0,0,0,0,0,0,0,0,0,0,0,0,0,0,0,0,0,0,0,0,0,0,0,0,0,0,0,0,0,0,0,0,0,0,0,0,0,0,0,0],"sum_hessian":[2.6959229E4,1.4317136E4,1.2642092E4,3.857542E3,1.0459594E4,9.901344E3,2.740748E3,9.926939E2,2.8648481E3,1.7008856E3,8.758708E3,6.70536E3,3.1959836E3,1.9146198E3,8.2612823E2,1.9396013E2,7.9873376E2,7.394768E2,2.1253713E3,1.1454971E3,5.553885E2,4.717652E3,4.0410566E3,3.5758157E3,3.1295442E3,2.3781372E3,8.178466E2,1.728485E3,1.8613483E2,5.9448303E2,2.316452E2,8.887843E1,1.0508169E2,1.3629488E2,6.624389E2,5.002107E2,2.392661E2,1.1420825E3,9.832889E2,8.1651434E2,3.289828E2,5.4155646E2,1.3832032E1,4.4743646E2,4.2702153E3,3.2118044E3,8.2925214E2,1.80183E3,1.7739856E3,9.357155E2,2.1938289E3,9.4178235E2,1.4363547E3,4.1174084E1,7.7667255E2,1.9636044E2,1.5321245E3,1.3325412E2,5.2880703E1,2.0977936E2,3.8470367E2,7.6059425E1,1.5558577E2,6.7208855E1,2.166958E1,9.1558235E1,1.3523447E1,1.2613775E2,1.0157122E1,1.890464E2,4.733925E2,1.213105E2,3.7890018E2,6.041386E1,1.7885223E2,3.9802515E2,7.440574E2,7.991976E2,1.8409131E2,8.0857306E2,7.941249E0,2.2252362E2,1.06459175E2,3.9272095E2,1.488355E2,4.6757417E0,9.15629E0,3.396032E2,1.0783327E2,1.1427136E3,3.1275015E3,1.3911049E3,1.8206997E3,5.9828845E2,2.3096368E2,2.876557E2,1.5141743E3,1.8933952E2,1.584646E3,3.043464E2,6.313691E2,1.6823927E2,2.0255896E3,4.104739E2,5.313085E2,7.623149E2,6.740399E2,2.9851038E1,1.1323045E1,5.741076E2,2.0256491E2,1.7650082E2,1.9859615E1,9.4362573E2,5.8849884E2,1.2674303E2,6.511089E0,4.9751064E1,3.1296387E0,1.829312E2,2.6848167E1,3.6462057E2,2.0083094E1,7.145859E1,4.6008396E0,1.4756427E2,8.021509E0],"tree_param":{"num_deleted":"0","num_feature":"136","num_nodes":"127","size_leaf_vector":"1"}},{"base_weights":[2.505107E-3,-8.921658E-2,1.5553989E-1,9.5299914E-2,-2.2360878E-1,-6.632441E-2,2.7801678E-1,-3.953474E-1,1.4224918E-1,-1.2943661E-1,-4.0767238E-1,3.1559378E-1,-1.4251052E-1,1.4316069E-1,4.2693007E-1,1.6698591E-1,-5.810842E-1,6.898907E-1,9.257403E-2,-4.3871483E-1,-6.639511E-2,-4.6980983E-1,-1.7841372E-1,-1.8804203E-1,4.1394576E-1,-8.96705E-2,-5.500718E-1,2.6610336E-1,-6.082794E-3,3.5480815E-1,7.252272E-1,1.816107E-2,1.1062526E0,-7.8100663E-1,-3.1869903E-1,7.7997005E-1,3.042165E-1,4.1860383E-2,3.2580486E-1,-6.243957E-1,-2.6176435E-1,-1.5863913E-1,7.650531E-2,-6.188279E-1,-3.7322316E-1,2.215291E-1,-3.7342516E-1,-8.9662276E-2,-1.3035828E0,1.597765E-1,5.2569085E-1,-1.2627845E-2,-2.4568543E-1,-7.11501E-1,-3.16416E-1,2.090595E-1,5.7044184E-1,-2.3875317E-1,6.8424374E-2,4.3021587E-1,1.17319964E-1,5.9373045E-1,9.4343895E-1,2.016638E-2,-6.96059E-2,1.2733701E-1,-4.464448E-3,-7.937902E-2,1.2464831E-1,-1.8176673E-2,-7.018289E-2,9.192887E-2,5.2102573E-2,5.9196223E-2,-2.0701354E-2,-3.6323022E-3,1.9242523E-2,5.5628933E-2,2.4850575E-2,-1.129987E-1,-5.4013487E-2,-3.126971E-2,2.9655999E-2,-2.2105303E-2,4.2578564E-3,1.7833225E-2,-9.854868E-3,-8.4231004E-2,-5.3289074E-2,-3.2959677E-2,-7.592072E-2,4.5792647E-2,-3.3300181E-3,-5.928394E-2,-2.2766149E-2,-2.4048708E-2,5.196752E-2,-1.3974299E-1,-3.957242E-2,-4.890586E-2,3.504764E-2,5.5124946E-2,-5.2482344E-2,4.594168E-3,-2.5455369E-2,-2.9249666E-2,2.2559164E-2,9.115887E-2,-7.547007E-2,-4.87355E-2,7.3488276E-3,1.2230998E-2,3.489018E-2,5.9135903E-2,-9.630663E-2,-5.1984694E-2,-9.454363E-3,8.117828E-3,-9.043794E-2,4.6612285E-2,-7.7417465E-3,1.46917105E-2,-6.266866E-2,6.720845E-2,8.686261E-3,1.0153861E-1,5.1495563E-2],"categories":[],"categories_nodes":[],"categories_segments":[],"categories_sizes":[],"default_left":[0,0,0,0,0,0,0,0,0,0,0,0,0,0,0,0,0,0,0,0,0,0,0,0,0,0,0,0,0,0,0,0,0,0,0,0,0,0,0,0,0,0,0,0,0,0,0,0,0,0,0,0,0,0,0,0,0,0,0,0,0,0,0,0,0,0,0,0,0,0,0,0,0,0,0,0,0,0,0,0,0,0,0,0,0,0,0,0,0,0,0,0,0,0,0,0,0,0,0,0,0,0,