{"learner":{"attributes":{},"feature_names":[],"feature_types":[],"gradient_booster":{"model":{"gbtree_model_param":{"num_parallel_tree":"1","num_trees":"200"},"iteration_indptr":[0,1,2,3,4,5,6,7,8,9,10,11,12,13,14,15,16,17,18,19,20,21,22,23,24,25,26,27,28,29,30,31,32,33,34,35,36,37,38,39,40,41,42,43,44,45,46,47,48,49,50,51,52,53,54,55,56,57,58,59,60,61,62,63,64,65,66,67,68,69,70,71,72,73,74,75,76,77,78,79,80,81,82,83,84,85,86,87,88,89,90,91,92,93,94,95,96,97,98,99,100,101,102,103,104,105,106,107,108,109,110,111,112,113,114,115,116,117,118,119,120,121,122,123,124,125,126,127,128,129,130,131,132,133,134,135,136,137,138,139,140,141,142,143,144,145,146,147,148,149,150,151,152,153,154,155,156,157,158,159,160,161,162,163,164,165,166,167,168,169,170,171,172,173,174,175,176,177,178,179,180,181,182,183,184,185,186,187,188,189,190,191,192,193,194,195,196,197,198,199,200],"tree_info":[0,0,0,0,0,0,0,0,0,0,0,0,0,0,0,0,0,0,0,0,0,0,0,0,0,0,0,0,0,0,0,0,0,0,0,0,0,0,0,0,0,0,0,0,0,0,0,0,0,0,0,0,0,0,0,0,0,0,0,0,0,0,0,0,0,0,0,0,0,0,0,0,0,0,0,0,0,0,0,0,0,0,0,0,0,0,0,0,0,0,0,0,0,0,0,0,0,0,0,0,0,0,0,0,0,0,0,0,0,0,0,0,0,0,0,0,0,0,0,0,0,0,0,0,0,0,0,0,0,0,0,0,0,0,0,0,0,0,0,0,0,0,0,0,0,0,0,0,0,0,0,0,0,0,0,0,0,0,0,0,0,0,0,0,0,0,0,0,0,0,0,0,0,0,0,0,0,0,0,0,0,0,0,0,0,0,0,0,0,0,0,0,0,0,0,0,0,0,0,0],"trees":[{"base_weights":[-4.359008E-4,-1.3368435E-1,7.0484966E-1,8.561111E-2,-6.6036737E-1,-2.4505928E-1,9.336964E-1,-3.9152429E-1,2.975494E-1,-1.1570557E0,-4.465843E-1,4.1828957E-1,-5.758985E-1,7.1707374E-1,1.2722193E0,4.4473892E-1,-5.7503635E-1,7.8666145E-1,1.16464816E-1,-1.0538573E0,-1.579832E0,-7.020438E-1,-1.18161924E-1,-3.0769232E-1,7.3812425E-1,-8.167888E-1,-1.5668203E-1,4.607223E-1,1.0250614E0,1.1482455E0,1.6057069E0,-5.3246754E-1,6.346093E-1,-1.210959E0,-3.5740495E-1,6.040446E-1,1.2324325E0,-3.4086067E-2,4.386685E-1,-8.9754957E-1,-1.3109308E0,-1.6975425E0,-1.366013E0,-8.939941E-1,-4.7058824E-1,-3.3621264E-1,1.1792905E-1,7.821229E-2,-6.666667E-1,1.1338583E0,5.5691767E-1,1.0476191E0,-8.4097034E-1,-5.993266E-1,7.304348E-2,6.713348E-1,2.7633587E-1,1.1042236E0,6.871009E-1,1.3095238E0,8.5714287E-1,1.1578947E0,1.670905E0,-7.966805E-2,4.057971E-2,3.840355E-2,1.2527473E-1,-1.5913603E-1,-9.651816E-2,5.233755E-3,-5.053124E-2,1.7360406E-1,5.522578E-2,1.0819411E-1,1.5462185E-1,-3.1017333E-2,7.4707526E-3,6.358149E-3,5.4832626E-2,-5.4652303E-2,-1.00612E-1,-1.3972333E-1,-9.947276E-2,-1.7075025E-1,2.2222223E-2,-1.385124E-1,1.818182E-2,-1.4442989E-1,-8.146205E-2,-5.8035713E-2,-4.238921E-3,-1.2121213E-2,-5.0334778E-2,3.29588E-2,-1.0392157E-2,-1.07692316E-1,2.6751593E-2,-8.82353E-2,-1.0526316E-2,2.3529412E-2,1.25E-1,5.996409E-2,-8.888889E-2,-2.2222223E-2,1.5E-1,-9.432685E-2,-4.364821E-2,-1.3846155E-1,-4.7328245E-2,2.3580788E-2,-5.454546E-2,4.824825E-2,8.155039E-2,3.4909412E-2,-1.828255E-2,1.2317368E-1,8.859935E-2,3.0399999E-2,8.6033516E-2,1.1430388E-1,1.538874E-1,9.673203E-2,3.719298E-2,6.875E-2,1.3288592E-1,-0E0,1.6784373E-1],"categories":[],"categories_nodes":[],"categories_segments":[],"categories_sizes":[],"default_left":[0,0,0,0,0,0,0,0,0,0,0,0,0,0,0,0,0,0,0,0,0,0,0,0,0,0,0,0,0,0,0,0,0,0,0,0,0,0,0,0,0,0,0,0,0,0,0,0,0,0,0,0,0,0,0,0,0,0,0,0,0,0,0,0,0,0,0,0,0,0,0,0,0,0,0,0,0,0,0,0,0,0,0,0,0,0,0,0,0,0,0,0,0,0,0,0,0,0,0,0,0,0,0,0,0,0,0,0,0,0,0,0,0,0,0,0,0,0,0,0,0,0,0,0,0,0,0],"id":0,"left_children":[1,3,5,7,9,11,13,15,17,19,21,23,25,27,29,31,33,35,37,39,41,43,45,47,49,51,53,55,57,59,61,63,65,67,69,71,73,75,77,79,81,83,85,87,89,91,93,95,97,99,101,103,105,107,109,111,113,115,117,119,121,123,125,-1,-1,-1,-1,-1,-1,-1,-1,-1,-1,-1,-1,-1,-1,-1,-1,-1,-1,-1,-1,-1,-1,-1,-1,-1,-1,-1,-1,-1,-1,-1,-1,-1,-1,-1,-1,-1,-1,-1,-1,-1,-1,-1,-1,-1,-1,-1,-1,-1,-1,-1,-1,-1,-1,-1,-1,-1,-1,-1,-1,-1,-1,-1,-1],"loss_changes":[2.695037E3,2.785926E3,9.908457E2,1.7222961E3,7.5240454E2,1.9457434E2,2.6839844E2,8.04179E2,1.0444219E3,9.139746E1,4.1594934E2,6.878244E1,5.9579514E1,1.7652075E2,5.735034E1,1.753509E2,5.941542E2,2.5863306E2,4.1756006E2,6.7837036E1,8.16394E0,1.2348889E2,1.1178943E2,1.2658358E1,1.4086929E1,1.779889E1,2.2109802E1,4.7395935E1,2.6463257E1,4.8044434E1,9.320496E0,3.8500153E1,1.21920074E2,1.00839966E2,1.9409549E2,1.3166016E2,4.2007446E1,1.7626247E2,1.12716064E2,4.027655E1,1.627295E1,5.4368286E0,4.777649E0,6.5369385E1,5.950464E1,4.049964E1,4.9010063E1,1.0073636E1,5.628483E0,6.332794E0,9.35062E0,3.349206E0,1.4939667E1,6.694029E0,1.4599855E1,1.515979E1,2.1945915E1,2.1803528E1,1.2729645E1,2.3900269E1,1.9754364E1,3.288391E0,4.206787E0,0E0,0E0,0E0,0E0,0E0,0E0,0E0,0E0,0E0,0E0,0E0,0E0,0E0,0E0,0E0,0E0,0E0,0E0,0E0,0E0,0E0,0E0,0E0,0E0,0E0,0E0,0E0,0E0,0E0,0E0,0E0,0E0,0E0,0E0,0E0,0E0,0E0,0E0,0E0,0E0,0E0,0E0,0E0,0E0,0E0,0E0,0E0,0E0,0E0,0E0,0E0,0E0,0E0,0E0,0E0,0E0,0E0,0E0,0E0,0E0,0E0,0E0,0E0,0E0],"parents":[2147483647,0,0,1,1,2,2,3,3,4,4,5,5,6,6,7,7,8,8,9,9,10,10,11,11,12,12,13,13,14,14,15,15,16,16,17,17,18,18,19,19,20,20,21,21,22,22,23,23,24,24,25,25,26,26,27,27,28,28,29,29,30,30,31,31,32,32,33,33,34,34,35,35,36,36,37,37,38,38,39,39,40,40,41,41,42,42,43,43,44,44,45,45,46,46,47,47,48,48,49,49,50,50,51,51,52,52,53,53,54,54,55,55,56,56,57,57,58,58,59,59,60,60,61,61,62,62],"right_children":[2,4,6,8,10,12,14,16,18,20,22,24,26,28,30,32,34,36,38,40,42,44,46,48,50,52,54,56,58,60,62,64,66,68,70,72,74,76,78,80,82,84,86,88,90,92,94,96,98,100,102,104,106,108,110,112,114,116,118,120,122,124,126,-1,-1,-1,-1,-1,-1,-1,-1,-1,-1,-1,-1,-1,-1,-1,-1,-1,-1,-1,-1,-1,-1,-1,-1,-1,-1,-1,-1,-1,-1,-1,-1,-1,-1,-1,-1,-1,-1,-1,-1,-1,-1,-1,-1,-1,-1,-1,-1,-1,-1,-1,-1,-1,-1,-1,-1,-1,-1,-1,-1,-1,-1,-1,-1],"split_conditions":[3.1805253E-1,3.0419633E-1,-6.131534E-1,-9.065922E-1,-6.077176E-1,-6.574904E-1,1.2032533E0,-1.3461065E0,-9.0676033E-1,2.5323565E0,-2.0273173E-1,-6.6751164E-1,-6.4576834E-1,-3.413622E-1,3.5282304E0,-6.9568783E-1,-6.353935E-1,9.958506E-1,1.8522474E-1,-2.824077E-1,-6.6751164E-1,-3.0002725E-1,-4.8269364E-1,-6.67306E-1,-6.7478085E-1,-8.312699E-1,5.565797E-1,2.4121863E-1,-4.7295982E-1,3.5182995E-1,-5.751026E-1,-5.33916E-1,2.3221917E0,-6.910498E-1,-9.794177E-1,-6.838191E-1,2.9418757E0,-3.2505473E-1,-3.9572045E-1,3.396575E-1,3.3152252E-1,8.88766E0,-3.2952338E-1,-6.069027E-1,3.5981157E-1,3.234377E-1,-4.563591E-1,5.652229E-1,3.9920332E0,1.0792086E0,2.6273408E0,4.704449E-1,-6.352368E-1,-3.5486993E-1,7.467585E-1,9.858905E-1,8.7965775E-1,1.7033894E-1,2.692796E-1,-3.0331144E-1,7.4176866E-1,-5.18008E-1,1.1314662E0,-7.966805E-2,4.057971E-2,3.840355E-2,1.2527473E-1,-1.5913603E-1,-9.651816E-2,5.233755E-3,-5.053124E-2,1.7360406E-1,5.522578E-2,1.0819411E-1,1.5462185E-1,-3.1017333E-2,7.4707526E-3,6.358149E-3,5.4832626E-2,-5.4652303E-2,-1.00612E-1,-1.3972333E-1,-9.947276E-2,-1.7075025E-1,2.2222223E-2,-1.385124E-1,1.818182E-2,-1.4442989E-1,-8.146205E-2,-5.8035713E-2,-4.238921E-3,-1.2121213E-2,-5.0334778E-2,3.29588E-2,-1.0392157E-2,-1.07692316E-1,2.6751593E-2,-8.82353E-2,-1.0526316E-2,2.3529412E-2,1.25E-1,5.996409E-2,-8.888889E-2,-2.2222223E-2,1.5E-1,-9.432685E-2,-4.364821E-2,-1.3846155E-1,-4.7328245E-2,2.3580788E-2,-5.454546E-2,4.824825E-2,8.155039E-2,3.4909412E-2,-1.828255E-2,1.2317368E-1,8.859935E-2,3.0399999E-2,8.6033516E-2,1.1430388E-1,1.538874E-1,9.673203E-2,3.719298E-2,6.875E-2,1.3288592E-1,-0E0,1.6784373E-1],"split_indices":[2,25,9,21,9,0,2,24,25,25,2,9,9,9,2,2,2,9,21,0,9,21,9,3,3,24,2,22,3,22,9,8,9,2,25,9,9,9,9,22,18,26,12,2,18,22,0,18,2,25,20,2,12,5,51,21,51,22,18,9,14,23,21,0,0,0,0,0,0,0,0,0,0,0,0,0,0,0,0,0,0,0,0,0,0,0,0,0,0,0,0,0,0,0,0,0,0,0,0,0,0,0,0,0,0,0,0,0,0,0,0,0,0,0,0,0,0,0,0,0,0,0,0,0,0,0,0],"split_type":[0,0,0,0,0,0,0,0,0,0,0,0,0,0,0,0,0,0,0,0,0,0,0,0,0,0,0,0,0,0,0,0,0,0,0,0,0,0,0,0,0,0,0,0,0,0,0,0,0,0,0,0,0,0,0,0,0,0,0,0,0,0,0,0,0,0,0,0,0,0,0,0,0,0,0,0,0,0,0,0,0,0,0,0,0,0,0,0,0,0,0,0,0,0,0,0,0,0,0,0,0,0,0,0,0,0,0,0,0,0,0,0,0,0,0,0,0,0,0,0,0,0,0,0,0,0,0],"sum_hessian":[2.867525E4,2.411925E4,4.556E3,1.70295E4,7.08975E3,8.845E2,3.6715E3,5.2375E3,1.1792E4,2.132E3,4.95775E3,2.9425E2,5.9025E2,2.24075E3,1.43075E3,9.4225E2,4.29525E3,3.18525E3,8.60675E3,1.7165E3,4.155E2,2.788E3,2.16975E3,9E1,2.0425E2,3.7425E2,2.16E2,1.22425E3,1.0165E3,1.04625E3,3.845E2,1.53E2,7.8925E2,1.094E3,3.20125E3,2.26125E3,9.24E2,5.8665E3,2.74025E3,1.07025E3,6.4625E2,2.635E2,1.52E2,1.5225E3,1.2655E3,1.12775E3,1.042E3,4.375E1,4.625E1,6.25E1,1.4175E2,4.25E0,3.7E2,7.325E1,1.4275E2,5.7025E2,6.54E2,8.2175E2,1.9475E2,6.71E2,3.7525E2,5.125E1,3.3325E2,1.195E2,3.35E1,5.6275E2,2.265E2,4.2725E2,6.6675E2,8.4925E2,2.352E3,9.75E1,2.16375E3,6.275E2,2.965E2,1.65775E3,4.20875E3,6.2025E2,2.12E3,2.5425E2,8.16E2,5.05E2,1.4125E2,2.6225E2,1.25E0,1.5025E2,1.75E0,1.8975E2,1.33275E3,1.007E3,2.585E2,4.94E2,6.3375E2,5.33E2,5.09E2,5.5E0,3.825E1,3.3E1,1.325E1,7.5E0,5.5E1,1.3825E2,3.5E0,1.25E0,3E0,2.9425E2,7.575E1,8.75E0,6.45E1,1.135E2,2.925E1,2.4875E2,3.215E2,5.6475E2,8.925E1,5.1575E2,3.06E2,6.15E1,1.3325E2,3.9225E2,2.7875E2,3.05E2,7.025E1,1.5E1,3.625E1,1.5E0,3.3175E2],"tree_param":{"num_deleted":"0","num_feature":"74","num_nodes":"127","size_leaf_vector":"1"}},{"base_weights":[-1.1945358E-3,1.500587E-1,-5.7341474E-1,-6.15263E-2,6.6758883E-1,-7.9706657E-1,2.6611584E-1,4.845724E-1,-2.31138E-1,5.3109753E-1,1.1959305E0,-6.3182706E-1,-1.1991329E0,5.2768177E-1,-6.16814E-1,-6.020365E-1,6.60918E-1,-8.208195E-1,-8.1773356E-2,8.4542817E-1,3.2403958E-1,1.0614341E0,1.5399559E0,-9.338805E-1,-3.9675325E-1,-1.3939444E0,-1.0072325E0,1.6866264E-1,9.5987296E-1,-8.8926125E-1,1.595572E-1,4.615367E-1,-1.0025103E0,1.3076384E0,4.678493E-1,-1.3705612E0,-6.8228495E-1,1.06349036E-1,-3.041847E-1,9.7277427E-1,6.586811E-1,1.6604184E-1,5.4807687E-1,8.8364017E-1,1.2626923E0,1.5469023E0,-3.084254E-2,-8.449059E-1,-1.206732E0,-5.107761E-1,-1.746789E-1,-1.432437E0,-8.898507E-1,-8.2110775E-1,-1.2901766E0,3.2433626E-1,-2.08804E-1,1.0765237E0,5.747199E-1,-7.522322E-1,-1.2298626E0,8.3119696E-1,-5.249418E-2,-7.058182E-3,9.946209E-2,-1.3626818E-1,-5.858464E-2,1.5557581E-1,1.1041524E-1,1.0082926E-2,7.011839E-2,-1.5022175E-1,-8.454379E-2,-7.802657E-2,-2.4985788E-2,-1.4509496E-2,2.762036E-2,-5.3258922E-2,-1.5259442E-2,1.2113817E-1,8.934647E-2,9.3790226E-2,5.415771E-2,3.1481322E-2,2.2458602E-3,7.237925E-2,4.018678E-2,9.320673E-2,3.3546604E-2,1.4700326E-1,1.1174283E-1,1.4547656E-1,1.7046979E-1,-8.618633E-2,3.8635224E-2,-1.2415447E-1,-4.4669617E-2,-3.3204626E-2,-7.0064895E-2,-3.645515E-3,-3.611054E-2,-1.4401689E-1,3.6570586E-2,-4.2343576E-2,-1.4180525E-1,-9.889876E-2,-5.7128828E-2,-1.3314816E-1,7.784036E-3,-1.8422244E-2,4.1174244E-2,-1.025348E-2,-9.9319644E-2,-2.124569E-2,1.098521E-1,3.37014E-2,1.0242622E-1,8.05161E-2,-7.804495E-2,-7.405361E-2,-1.5107058E-1,1.0141082E-1,-5.6740355E-2,-1.18187346E-1,8.692964E-3],"categories":[],"categories_nodes":[],"categories_segments":[],"categories_sizes":[],"default_left":[0,0,0,0,0,0,0,0,0,0,0,0,0,0,0,0,0,0,0,0,0,0,0,0,0,0,0,0,0,0,0,0,0,0,0,0,0,0,0,0,0,0,0,0,0,0,0,0,0,0,0,0,0,0,0,0,0,0,0,0,0,0,0,0,0,0,0,0,0,0,0,0,0,0,0,0,0,0,0,0,0,0,0,0,0,0,0,0,0,0,0,0,0,0,0,0,0,0,0,0,0,0,0,0,0,0,0,0,0,0,0,0,0,0,0,0,0,0,0,0,0,0,0,0,0],"id":1,"left_children":[1,3,5,7,9,11,13,15,17,19,21,23,25,27,29,31,33,35,37,39,41,43,45,47,49,51,53,55,57,59,61,63,65,67,69,71,73,75,77,79,81,83,85,87,89,91,-1,93,95,97,99,101,103,105,107,109,111,113,115,117,119,121,123,-1,-1,-1,-1,-1,-1,-1,-1,-1,-1,-1,-1,-1,-1,-1,-1,-1,-1,-1,-1,-1,-1,-1,-1,-1,-1,-1,-1,-1,-1,-1,-1,-1,-1,-1,-1,-1,-1,-1,-1,-1,-1,-1,-1,-1,-1,-1,-1,-1,-1,-1,-1,-1,-1,-1,-1,-1,-1,-1,-1,-1,-1],"loss_changes":[2.4745984E3,2.4763115E3,1.1225609E3,1.486968E3,4.726162E2,3.1284717E2,2.9089487E2,7.2941064E2,1.0787927E3,3.3927515E2,6.0668213E1,2.3732092E2,4.995349E1,1.5052972E2,6.1061478E1,2.269497E2,4.0815405E2,1.8759192E2,4.0900327E2,4.8615723E1,1.1129852E2,3.363855E1,5.3078613E0,3.4529175E1,4.7622284E1,1.1902832E1,3.5576233E1,3.1311613E1,1.9170624E1,9.032211E0,1.0819667E1,4.152405E1,5.721982E1,3.625415E1,2.1596698E2,3.3108643E1,8.366278E1,2.2623474E2,1.5501013E2,2.2181885E1,2.7051514E1,3.944328E1,3.313327E1,1.3465607E1,1.2008484E1,2.972046E0,0E0,2.3457764E1,8.91095E0,4.1999664E1,1.6498146E1,9.275879E0,1.191914E1,1.7149323E1,1.5602356E1,1.6826958E1,1.2890409E1,9.786713E0,1.0825504E1,7.4273224E0,7.0762253E0,5.2352915E0,9.305968E0,0E0,0E0,0E0,0E0,0E0,0E0,0E0,0E0,0E0,0E0,0E0,0E0,0E0,0E0,0E0,0E0,0E0,0E0,0E0,0E0,0E0,0E0,0E0,0E0,0E0,0E0,0E0,0E0,0E0,0E0,0E0,0E0,0E0,0E0,0E0,0E0,0E0,0E0,0E0,0E0,0E0,0E0,0E0,0E0,0E0,0E0,0E0,0E0,0E0,0E0,0E0,0E0,0E0,0E0,0E0,0E0,0E0,0E0,0E0,0E0,0E0,0E0],"parents":[2147483647,0,0,1,1,2,2,3,3,4,4,5,5,6,6,7,7,8,8,9,9,10,10,11,11,12,12,13,13,14,14,15,15,16,16,17,17,18,18,19,19,20,20,21,21,22,22,23,23,24,24,25,25,26,26,27,27,28,28,29,29,30,30,31,31,32,32,33,33,34,34,35,35,36,36,37,37,38,38,39,39,40,40,41,41,42,42,43,43,44,44,45,45,47,47,48,48,49,49,50,50,51,51,52,52,53,53,54,54,55,55,56,56,57,57,58,58,59,59,60,60,61,61,62,62],"right_children":[2,4,6,8,10,12,14,16,18,20,22,24,26,28,30,32,34,36,38,40,42,44,46,48,50,52,54,56,58,60,62,64,66,68,70,72,74,76,78,80,82,84,86,88,90,92,-1,94,96,98,100,102,104,106,108,110,112,114,116,118,120,122,124,-1,-1,-1,-1,-1,-1,-1,-1,-1,-1,-1,-1,-1,-1,-1,-1,-1,-1,-1,-1,-1,-1,-1,-1,-1,-1,-1,-1,-1,-1,-1,-1,-1,-1,-1,-1,-1,-1,-1,-1,-1,-1,-1,-1,-1,-1,-1,-1,-1,-1,-1,-1,-1,-1,-1,-1,-1,-1,-1,-1,-1,-1],"split_conditions":[1.3620387E-1,-1.2057238E-1,6.162115E-1,-5.507679E-1,9.640636E-1,1.2172422E0,2.466883E0,-6.6984737E-1,-5.4925865E-1,-3.0150095E-1,2.6569438E0,-2.252593E-1,2.3872213E-1,1.9181721E0,3.5282304E0,-6.9688994E-1,-6.7705435E-1,-6.758106E-1,-3.0745164E-1,8.4436305E-2,3.6385912E-1,-3.0331144E-1,2.5549395E0,1.9191834E0,7.091191E-2,2.3514156E0,2.6751564E0,9.7260356E-1,1.038325E0,5.475277E0,3.005749E0,-5.783726E-1,-6.9568783E-1,-9.2799336E-1,-5.148048E-1,-1.2795051E0,-7.973837E-1,-4.2601964E-1,-3.484983E-1,-5.163863E-1,-4.8531052E-1,1.6677922E-1,-1.494283E-1,-6.1943847E-1,1.2461857E-2,1.9191834E0,-3.084254E-2,1.1072035E0,6.2819797E-1,4.0895677E-1,5.89116E-1,4.9813983E-1,1.6725274E0,4.9709495E-2,5.565797E-1,-6.776304E-1,8.84352E-2,4.6610686E-1,2.9026358E0,8.37347E-2,-4.6676004E-1,1.6843383E0,5.652229E-1,-7.058182E-3,9.946209E-2,-1.3626818E-1,-5.858464E-2,1.5557581E-1,1.1041524E-1,1.0082926E-2,7.011839E-2,-1.5022175E-1,-8.454379E-2,-7.802657E-2,-2.4985788E-2,-1.4509496E-2,2.762036E-2,-5.3258922E-2,-1.5259442E-2,1.2113817E-1,8.934647E-2,9.3790226E-2,5.415771E-2,3.1481322E-2,2.2458602E-3,7.237925E-2,4.018678E-2,9.320673E-2,3.3546604E-2,1.4700326E-1,1.1174283E-1,1.4547656E-1,1.7046979E-1,-8.618633E-2,3.8635224E-2,-1.2415447E-1,-4.4669617E-2,-3.3204626E-2,-7.0064895E-2,-3.645515E-3,-3.611054E-2,-1.4401689E-1,3.6570586E-2,-4.2343576E-2,-1.4180525E-1,-9.889876E-2,-5.7128828E-2,-1.3314816E-1,7.784036E-3,-1.8422244E-2,4.1174244E-2,-1.025348E-2,-9.9319644E-2,-2.124569E-2,1.098521E-1,3.37014E-2,1.0242622E-1,8.05161E-2,-7.804495E-2,-7.405361E-2,-1.5107058E-1,1.0141082E-1,-5.6740355E-2,-1.18187346E-1,8.692964E-3],"split_indices":[11,2,2,11,2,11,11,2,2,11,2,2,18,2,2,11,11,2,11,22,18,9,57,63,2,37,11,11,54,11,11,8,2,22,2,20,20,2,2,11,11,22,11,0,22,63,0,21,18,22,11,12,38,2,2,23,19,20,21,20,17,38,18,0,0,0,0,0,0,0,0,0,0,0,0,0,0,0,0,0,0,0,0,0,0,0,0,0,0,0,0,0,0,0,0,0,0,0,0,0,0,0,0,0,0,0,0,0,0,0,0,0,0,0,0,0,0,0,0,0,0,0,0,0,0],"split_type":[0,0,0,0,0,0,0,0,0,0,0,0,0,0,0,0,0,0,0,0,0,0,0,0,0,0,0,0,0,0,0,0,0,0,0,0,0,0,0,0,0,0,0,0,0,0,0,0,0,0,0,0,0,0,0,0,0,0,0,0,0,0,0,0,0,0,0,0,0,0,0,0,0,0,0,0,0,0,0,0,0,0,0,0,0,0,0,0,0,0,0,0,0,0,0,0,0,0,0,0,0,0,0,0,0,0,0,0,0,0,0,0,0,0,0,0,0,0,0,0,0,0,0,0,0],"sum_hessian":[2.8589502E4,2.261301E4,5.9764907E3,1.6051471E4,6.5615396E3,4.719312E3,1.257179E3,3.803497E3,1.2247974E4,5.216038E3,1.3455015E3,3.3465378E3,1.3727739E3,9.7017053E2,2.8700845E2,5.3074304E2,3.272754E3,2.4744639E3,9.77351E3,2.0702097E3,3.1458286E3,9.702634E2,3.7523798E2,1.4633118E3,1.8832261E3,6.781117E2,6.946623E2,5.3070593E2,4.394646E2,2.1234583E2,7.466264E1,1.4513715E2,3.8560587E2,7.5108356E2,2.5216704E3,4.9626373E2,1.9782001E3,5.2951934E3,4.4783164E3,1.2283604E3,8.418493E2,1.8458333E3,1.2999954E3,5.180244E2,4.52239E2,3.7399557E2,1.2424061E0,1.1065664E3,3.5674542E2,1.2434722E3,6.3975397E2,6.2829364E2,4.9818058E1,4.2137656E2,2.7328574E2,3.7584274E2,1.5486316E2,3.359277E2,1.0353692E2,1.537132E2,5.8632618E1,1.7215485E1,5.744716E1,7.306856E1,7.206859E1,2.0560599E2,1.799999E2,3.3543137E2,4.156522E2,9.8063214E2,1.5410382E3,3.9529648E2,1.0096726E2,1.6121172E3,3.6608295E2,2.1349172E3,3.1602761E3,1.78552E3,2.6927964E3,3.0287366E2,9.254867E2,2.46674E2,5.951753E2,9.0595276E2,9.3988055E2,5.886271E2,7.1136835E2,4.75332E2,4.269244E1,1.8255388E2,2.6968515E2,2.4257544E2,1.3142012E2,1.0918293E3,1.473707E1,3.4051495E2,1.6230463E1,6.419473E2,6.0152484E2,3.6805753E2,2.7169647E2,6.2580176E2,2.4918373E0,2.7413198E1,2.240486E1,2.5024913E2,1.7112743E2,2.6530212E2,7.9836235E0,5.4959892E1,3.2088284E2,1.3738148E2,1.7481676E1,5.4913754E0,3.304363E2,6.886999E1,3.4666927E1,2.2454655E0,1.5146774E2,2.2706615E1,3.5926E1,1.5467527E1,1.7479566E0,5.491043E0,5.1956116E1],"tree_param":{"num_deleted":"0","num_feature":"74","num_nodes":"125","size_leaf_vector":"1"}},{"base_weights":[1.0324683E-3,1.4048389E-1,-5.161669E-1,-7.2263E-2,5.489588E-1,-6.907326E-1,4.2497164E-1,3.697433E-1,-2.613831E-1,1.0456104E0,4.232333E-1,-5.3119665E-1,-1.0543606E0,6.5785885E-1,-3.555761E-1,-5.4160947E-1,5.1968837E-1,-7.251015E-1,-1.09633006E-1,9.420313E-1,1.3778199E0,6.4431125E-1,1.9518586E-1,-7.728315E-1,-2.44441E-1,-9.4586635E-1,-1.3729558E0,3.1748012E-1,9.1516787E-1,-6.489021E-1,8.984883E-2,3.8888827E-1,-8.859492E-1,1.141307E0,3.5862634E-1,-1.2169734E0,-6.20315E-1,6.1579674E-2,-3.0926242E-1,8.630209E-1,1.2104915E0,1.384584E0,-1.8457934E-2,9.390293E-1,5.4230356E-1,-4.557569E-2,3.2221192E-1,-9.8371226E-1,-6.290768E-1,-1.268242E-1,-4.9414715E-1,-1.1095806E0,-6.2717336E-1,-1.0548768E0,-1.4388366E0,5.815472E-1,3.4485864E-3,7.3155683E-1,1.1451852E0,6.771135E-1,-7.08825E-1,4.8078424E-1,-2.1619008E-1,-1.5195615E-3,1.0085787E-1,-1.16536595E-1,-4.7627892E-2,1.283386E-1,4.8891757E-2,-3.3058547E-3,5.4631174E-2,-1.3464938E-1,-6.7944095E-2,-4.1877225E-2,-8.023827E-2,-6.466418E-3,2.7733216E-2,-4.3461367E-2,-8.464969E-3,7.2091006E-2,1.06811896E-1,1.3119493E-1,8.184703E-2,1.4348258E-1,1.0943575E-1,1.0791148E-1,7.686537E-2,4.24889E-2,7.765372E-2,5.7530785E-3,-3.1954627E-2,4.131818E-2,2.6052191E-3,-1.0647191E-1,-5.480824E-2,-3.6439683E-2,-7.486902E-2,-2.0369578E-2,1.952002E-2,-5.5430856E-2,-1.9476332E-2,-1.158516E-1,-5.628706E-2,-7.083527E-2,-2.8459204E-2,-8.860392E-2,-1.4639412E-1,-1.44669E-1,1.6624287E-2,4.8100907E-2,1.11786045E-1,-9.1783E-3,8.555468E-2,8.2720794E-2,-1.2239055E-3,8.565794E-2,1.3316874E-1,1.2120497E-1,-4.4594865E-2,-7.756749E-2,8.994623E-3,6.806703E-2,-4.4738125E-2,-3.5411213E-2,5.7995874E-2],"categories":[],"categories_nodes":[],"categories_segments":[],"categories_sizes":[],"default_left":[0,0,0,0,0,0,0,0,0,0,0,0,0,0,0,0,0,0,0,0,0,0,0,0,0,0,0,0,0,0,0,0,0,0,0,0,0,0,0,0,0,0,0,0,0,0,0,0,0,0,0,0,0,0,0,0,0,0,0,0,0,0,0,0,0,0,0,0,0,0,0,0,0,0,0,0,0,0,0,0,0,0,0,0,0,0,0,0,0,0,0,0,0,0,0,0,0,0,0,0,0,0,0,0,0,0,0,0,0,0,0,0,0,0,0,0,0,0,0,0,0,0,0,0,0],"id":2,"left_children":[1,3,5,7,9,11,13,15,17,19,21,23,25,27,29,31,33,35,37,39,41,43,45,47,49,51,53,55,57,59,61,63,65,67,69,71,73,75,77,79,81,83,-1,85,87,89,91,93,95,97,99,101,103,105,107,109,111,113,115,117,119,121,123,-1,-1,-1,-1,-1,-1,-1,-1,-1,-1,-1,-1,-1,-1,-1,-1,-1,-1,-1,-1,-1,-1,-1,-1,-1,-1,-1,-1,-1,-1,-1,-1,-1,-1,-1,-1,-1,-1,-1,-1,-1,-1,-1,-1,-1,-1,-1,-1,-1,-1,-1,-1,-1,-1,-1,-1,-1,-1,-1,-1,-1,-1],"loss_changes":[2.0580864E3,1.9531858E3,9.9589087E2,1.2355232E3,4.8018018E2,2.9600757E2,1.7270236E2,6.0552686E2,7.2832184E2,5.218213E1,3.0962805E2,2.4615692E2,5.2552124E1,6.3741028E1,2.8629639E1,2.0099947E2,3.8042615E2,1.3077893E2,2.6662024E2,2.4153442E1,4.1367188E0,9.326489E1,9.2550545E1,5.78584E1,4.7730675E1,6.0107056E1,6.729065E0,2.6225224E1,1.672406E1,1.09662895E1,1.0597212E1,4.2546417E1,5.180316E1,7.188464E1,2.2221423E2,3.0216187E1,7.693689E1,1.1440829E2,1.01361694E2,2.6083313E1,9.571381E0,3.7633667E0,0E0,1.8279968E1,6.3463196E1,2.9563084E1,5.335594E1,2.6947266E1,3.61297E1,2.7457546E1,9.270889E0,1.9910095E1,1.0861237E1,3.6254044E0,4.3154297E0,8.725693E0,1.18834E1,1.6658531E1,8.699554E0,4.2757363E0,6.838188E0,7.506982E0,5.6830034E0,0E0,0E0,0E0,0E0,0E0,0E0,0E0,0E0,0E0,0E0,0E0,0E0,0E0,0E0,0E0,0E0,0E0,0E0,0E0,0E0,0E0,0E0,0E0,0E0,0E0,0E0,0E0,0E0,0E0,0E0,0E0,0E0,0E0,0E0,0E0,0E0,0E0,0E0,0E0,0E0,0E0,0E0,0E0,0E0,0E0,0E0,0E0,0E0,0E0,0E0,0E0,0E0,0E0,0E0,0E0,0E0,0E0,0E0,0E0,0E0,0E0,0E0],"parents":[2147483647,0,0,1,1,2,2,3,3,4,4,5,5,6,6,7,7,8,8,9,9,10,10,11,11,12,12,13,13,14,14,15,15,16,16,17,17,18,18,19,19,20,20,21,21,22,22,23,23,24,24,25,25,26,26,27,27,28,28,29,29,30,30,31,31,32,32,33,33,34,34,35,35,36,36,37,37,38,38,39,39,40,40,41,41,43,43,44,44,45,45,46,46,47,47,48,48,49,49,50,50,51,51,52,52,53,53,54,54,55,55,56,56,57,57,58,58,59,59,60,60,61,61,62,62],"right_children":[2,4,6,8,10,12,14,16,18,20,22,24,26,28,30,32,34,36,38,40,42,44,46,48,50,52,54,56,58,60,62,64,66,68,70,72,74,76,78,80,82,84,-1,86,88,90,92,94,96,98,100,102,104,106,108,110,112,114,116,118,120,122,124,-1,-1,-1,-1,-1,-1,-1,-1,-1,-1,-1,-1,-1,-1,-1,-1,-1,-1,-1,-1,-1,-1,-1,-1,-1,-1,-1,-1,-1,-1,-1,-1,-1,-1,-1,-1,-1,-1,-1,-1,-1,-1,-1,-1,-1,-1,-1,-1,-1,-1,-1,-1,-1,-1,-1,-1,-1,-1,-1,-1,-1,-1],"split_conditions":[1.22980155E-1,-1.8682992E-1,1.0170696E0,-5.256429E-1,-6.248745E-1,1.1511236E0,2.466883E0,-6.638842E-1,-5.3335685E-1,2.6569438E0,-2.4397781E-1,-1.391245E-1,3.557839E0,2.1036932E0,2.9981701E0,-6.929228E-1,-6.7044246E-1,-6.758106E-1,-3.041457E-1,-1.2936504E-1,3.2684943E-1,-4.8531052E-1,1.7134823E-1,-3.6108726E-1,1.2414213E-1,4.9709495E-2,-5.759506E-1,5.89116E-1,3.9920332E0,6.489805E-1,4.020669E0,-6.9568783E-1,-6.910498E-1,-1.2630683E0,-5.3666973E-1,-1.2628803E0,-4.6590203E-1,-3.518112E-1,1.5335537E-1,1.606551E0,3.3158126E-1,4.6430355E-1,-1.8457934E-2,-1.7959032E-2,1.5903445E-1,3.4371987E-1,-3.010382E-1,-8.876053E-3,2.5325227E-1,5.267638E-1,-5.207444E-1,5.727532E-1,1.0227218E0,6.985174E-1,3.8614001E0,9.7218966E-1,8.353045E-1,1.086526E0,-5.348393E-1,2.558962E-1,1.1374985E0,-6.5235627E-1,1.7272861E0,-1.5195615E-3,1.0085787E-1,-1.16536595E-1,-4.7627892E-2,1.283386E-1,4.8891757E-2,-3.3058547E-3,5.4631174E-2,-1.3464938E-1,-6.7944095E-2,-4.1877225E-2,-8.023827E-2,-6.466418E-3,2.7733216E-2,-4.3461367E-2,-8.464969E-3,7.2091006E-2,1.06811896E-1,1.3119493E-1,8.184703E-2,1.4348258E-1,1.0943575E-1,1.0791148E-1,7.686537E-2,4.24889E-2,7.765372E-2,5.7530785E-3,-3.1954627E-2,4.131818E-2,2.6052191E-3,-1.0647191E-1,-5.480824E-2,-3.6439683E-2,-7.486902E-2,-2.0369578E-2,1.952002E-2,-5.5430856E-2,-1.9476332E-2,-1.158516E-1,-5.628706E-2,-7.083527E-2,-2.8459204E-2,-8.860392E-2,-1.4639412E-1,-1.44669E-1,1.6624287E-2,4.8100907E-2,1.11786045E-1,-9.1783E-3,8.555468E-2,8.2720794E-2,-1.2239055E-3,8.565794E-2,1.3316874E-1,1.2120497E-1,-4.4594865E-2,-7.756749E-2,8.994623E-3,6.806703E-2,-4.4738125E-2,-3.5411213E-2,5.7995874E-2],"split_indices":[11,2,2,11,0,11,11,2,2,2,11,2,11,2,2,11,11,2,11,9,3,11,18,2,19,2,0,11,2,20,11,2,2,24,2,20,24,2,18,53,22,22,0,22,2,22,3,21,22,2,9,18,50,51,36,55,55,54,6,17,50,3,34,0,0,0,0,0,0,0,0,0,0,0,0,0,0,0,0,0,0,0,0,0,0,0,0,0,0,0,0,0,0,0,0,0,0,0,0,0,0,0,0,0,0,0,0,0,0,0,0,0,0,0,0,0,0,0,0,0,0,0,0,0,0],"split_type":[0,0,0,0,0,0,0,0,0,0,0,0,0,0,0,0,0,0,0,0,0,0,0,0,0,0,0,0,0,0,0,0,0,0,0,0,0,0,0,0,0,0,0,0,0,0,0,0,0,0,0,0,0,0,0,0,0,0,0,0,0,0,0,0,0,0,0,0,0,0,0,0,0,0,0,0,0,0,0,0,0,0,0,0,0,0,0,0,0,0,0,0,0,0,0,0,0,0,0,0,0,0,0,0,0,0,0,0,0,0,0,0,0,0,0,0,0,0,0,0,0,0,0,0,0],"sum_hessian":[2.8533312E4,2.2474332E4,6.05898E3,1.4778195E4,7.6961367E3,5.111202E3,9.477777E2,4.428072E3,1.0350123E4,1.5532075E3,6.142929E3,3.55428E3,1.5569221E3,7.3009955E2,2.1767815E2,6.252495E2,3.8028223E3,2.5509978E3,7.7991255E3,1.1869623E3,3.662453E2,3.1182004E3,3.0247288E3,1.9279755E3,1.6263047E3,1.164375E3,3.9254715E2,3.1527496E2,4.1482462E2,1.3097214E2,8.6706E1,1.6884795E2,4.5640158E2,7.813021E2,3.0215203E3,4.4614774E2,2.10485E3,4.198749E3,3.6003762E3,9.203183E2,2.6664395E2,3.6477988E2,1.465427E0,7.996545E2,2.318546E3,1.0448989E3,1.9798298E3,7.79154E2,1.1488214E3,1.106587E3,5.197177E2,7.675822E2,3.9679276E2,7.02732E1,3.2227396E2,1.7079916E2,1.4447578E2,2.330073E2,1.8181732E2,5.217431E0,1.25754715E2,3.7821575E1,4.8884426E1,1.0279409E2,6.605386E1,2.7023938E2,1.861622E2,6.407835E2,1.4051862E2,9.7908E2,2.0424402E3,3.5830728E2,8.7840454E1,1.0005617E3,1.1042885E3,2.649273E3,1.5494761E3,2.3101816E3,1.2901947E3,5.4630365E2,3.7401468E2,2.0995856E2,5.6685394E1,3.0758856E2,5.719131E1,4.3590924E2,3.637452E2,1.546263E3,7.72283E2,7.597599E2,2.8513907E2,1.5142963E3,4.6553363E2,6.557678E2,1.2338623E2,3.5883655E2,7.8998486E2,8.936323E2,2.1295467E2,4.3204617E2,8.76715E1,7.0349426E2,6.408799E1,3.1991647E2,7.68763E1,5.19835E1,1.82897E1,3.20803E2,1.470949E0,1.4543295E2,2.536621E1,1.3075476E2,1.3721033E1,2.0635783E2,2.664947E1,7.356728E1,1.0825004E2,3.4804087E0,1.7370225E0,1.1606965E2,9.68506E0,3.133915E1,6.4824247E0,4.2139538E1,6.744888E0],"tree_param":{"num_deleted":"0","num_feature":"74","num_nodes":"125","size_leaf_vector":"1"}},{"base_weights":[1.6639312E-3,-1.1880076E-1,4.682543E-1,5.401278E-2,-5.4307145E-1,6.750086E-1,-2.518444E-1,-3.2314026E-1,2.1374893E-1,-4.191752E-1,-9.458777E-1,5.292728E-1,9.984093E-1,-5.532519E-1,2.4386859E-1,2.861823E-1,-5.143886E-1,6.9837904E-1,1.0048425E-1,-7.155445E-1,-2.7590284E-1,-8.3443105E-1,-1.3000342E0,7.9304063E-1,3.3650246E-1,8.986129E-1,1.3071342E0,-3.222215E-1,-9.153189E-1,5.619467E-1,-2.7639663E-1,-5.860572E-1,4.9305353E-1,-1.1351409E0,-3.9909196E-1,1.1583996E0,5.831697E-1,-4.29394E-2,3.0688047E-1,-8.852755E-1,-5.8926964E-1,-1.0250154E-1,-4.105279E-1,-9.9433184E-1,-6.2209934E-1,-1.1634413E0,-1.5388956E0,1.0579032E0,7.284088E-1,4.979087E-1,1.9664216E-1,1.0577888E0,6.5836483E-1,1.342972E0,5.323085E-1,5.2971322E-2,-4.315347E-1,-1.1978322E0,-7.85822E-1,2.4115063E-1,7.7740437E-1,1.8010707E-1,-4.703348E-1,5.084359E-3,-1.0246761E-1,1.0973453E-1,2.4362734E-2,-1.1987045E-1,-5.385033E-2,-2.3411106E-2,-6.071632E-2,1.3064109E-1,5.9577502E-2,6.4947076E-2,-6.457388E-3,9.800422E-3,-2.356553E-2,5.6060623E-2,1.9658256E-2,-7.700615E-2,-1.09853484E-1,-4.6376538E-2,-7.861491E-2,-3.277039E-2,-4.017574E-6,-5.848033E-2,-2.6413063E-2,-1.05259955E-1,-6.393408E-2,-6.9171086E-2,-1.675613E-2,-1.22164406E-1,-4.979167E-2,-1.5524746E-1,-4.9980637E-2,1.1690246E-1,5.7285096E-2,8.5743174E-2,5.6166183E-2,5.2811857E-2,-2.091307E-2,2.8304784E-2,-1.5427835E-2,1.1360227E-1,7.82953E-2,7.677112E-2,4.1218515E-2,1.4076585E-1,1.0679742E-1,-4.6509225E-2,9.21698E-2,2.0008218E-2,-8.377243E-2,-2.6812023E-2,-6.0596634E-2,-1.2581412E-1,-3.787841E-3,-9.694088E-2,-6.0322743E-2,4.0128917E-2,-1.6230704E-2,5.7664134E-2,9.6419044E-2,2.7345786E-2,-9.014484E-2,-2.3941478E-2,-8.4141694E-2],"categories":[],"categories_nodes":[],"categories_segments":[],"categories_sizes":[],"default_left":[0,0,0,0,0,0,0,0,0,0,0,0,0,0,0,0,0,0,0,0,0,0,0,0,0,0,0,0,0,0,0,0,0,0,0,0,0,0,0,0,0,0,0,0,0,0,0,0,0,0,0,0,0,0,0,0,0,0,0,0,0,0,0,0,0,0,0,0,0,0,0,0,0,0,0,0,0,0,0,0,0,0,0,0,0,0,0,0,0,0,0,0,0,0,0,0,0,0,0,0,0,0,0,0,0,0,0,0,0,0,0,0,0,0,0,0,0,0,0,0,0,0,0,0,0,0,0],"id":3,"left_children":[1,3,5,7,9,11,13,15,17,19,21,23,25,27,29,31,33,35,37,39,41,43,45,47,49,51,53,55,57,59,61,63,65,67,69,71,73,75,77,79,81,83,85,87,89,91,93,95,97,99,101,103,105,107,109,111,113,115,117,119,121,123,125,-1,-1,-1,-1,-1,-1,-1,-1,-1,-1,-1,-1,-1,-1,-1,-1,-1,-1,-1,-1,-1,-1,-1,-1,-1,-1,-1,-1,-1,-1,-1,-1,-1,-1,-1,-1,-1,-1,-1,-1,-1,-1,-1,-1,-1,-1,-1,-1,-1,-1,-1,-1,-1,-1,-1,-1,-1,-1,-1,-1,-1,-1,-1,-1],"loss_changes":[1.5987671E3,1.6575829E3,8.6916455E2,9.679003E2,3.261532E2,2.1321118E2,1.947791E2,5.57177E2,6.1942773E2,2.123606E2,5.9634277E1,1.5879907E2,4.2194824E1,6.749817E1,8.1786705E1,2.064523E2,2.5995764E2,1.12625854E2,2.7084427E2,3.4429077E1,7.8772E1,3.92052E1,1.01651E1,2.1829102E1,4.074269E1,4.0106873E1,8.772766E0,2.0377811E1,1.0588501E1,2.0994186E1,1.6713886E1,6.136811E1,1.3901288E2,2.0948853E1,1.0524774E2,3.479303E1,7.3551025E1,1.4666795E2,1.0486783E2,1.6197754E1,2.2813873E1,3.407913E1,4.832782E1,1.313208E1,1.5911423E1,8.580597E0,1.0613708E0,1.3169098E1,2.2418945E1,1.8036072E1,2.948362E1,1.2874207E1,1.1200943E1,4.2941895E0,6.9383926E0,1.4956355E1,1.0795685E1,6.7483063E0,6.7567444E0,8.114057E0,6.30188E0,5.9738903E0,1.1118435E1,0E0,0E0,0E0,0E0,0E0,0E0,0E0,0E0,0E0,0E0,0E0,0E0,0E0,0E0,0E0,0E0,0E0,0E0,0E0,0E0,0E0,0E0,0E0,0E0,0E0,0E0,0E0,0E0,0E0,0E0,0E0,0E0,0E0,0E0,0E0,0E0,0E0,0E0,0E0,0E0,0E0,0E0,0E0,0E0,0E0,0E0,0E0,0E0,0E0,0E0,0E0,0E0,0E0,0E0,0E0,0E0,0E0,0E0,0E0,0E0,0E0,0E0,0E0,0E0],"parents":[2147483647,0,0,1,1,2,2,3,3,4,4,5,5,6,6,7,7,8,8,9,9,10,10,11,11,12,12,13,13,14,14,15,15,16,16,17,17,18,18,19,19,20,20,21,21,22,22,23,23,24,24,25,25,26,26,27,27,28,28,29,29,30,30,31,31,32,32,33,33,34,34,35,35,36,36,37,37,38,38,39,39,40,40,41,41,42,42,43,43,44,44,45,45,46,46,47,47,48,48,49,49,50,50,51,51,52,52,53,53,54,54,55,55,56,56,57,57,58,58,59,59,60,60,61,61,62,62],"right_children":[2,4,6,8,10,12,14,16,18,20,22,24,26,28,30,32,34,36,38,40,42,44,46,48,50,52,54,56,58,60,62,64,66,68,70,72,74,76,78,80,82,84,86,88,90,92,94,96,98,100,102,104,106,108,110,112,114,116,118,120,122,124,126,-1,-1,-1,-1,-1,-1,-1,-1,-1,-1,-1,-1,-1,-1,-1,-1,-1,-1,-1,-1,-1,-1,-1,-1,-1,-1,-1,-1,-1,-1,-1,-1,-1,-1,-1,-1,-1,-1,-1,-1,-1,-1,-1,-1,-1,-1,-1,-1,-1,-1,-1,-1,-1,-1,-1,-1,-1,-1,-1,-1,-1,-1,-1,-1],"split_conditions":[1.4578293E-1,-1.216585E-1,5.659745E-1,-5.148048E-1,8.211921E-1,1.1363331E0,1.3748603E0,-6.0829103E-1,-5.507679E-1,-3.3988485E-1,2.6751564E0,-2.4067189E-1,3.5282304E0,2.1164546E0,2.466883E0,-6.9568783E-1,-6.758106E-1,-6.7705435E-1,-2.6103836E-1,-6.411562E-2,2.5325227E-1,2.2642593E-1,1.9191834E0,-5.932361E-1,2.2150394E-1,-5.8845866E-2,4.50267E-1,-5.389035E-1,3.1805253E-1,2.4548583E0,-6.737983E-1,-6.9688994E-1,-6.929228E-1,1.9191834E0,-5.9876305E-1,-1.279676E0,-3.6625624E-1,-3.5307342E-1,-8.2632445E-2,9.211753E-1,9.955695E-1,3.6003217E-2,1.5006791E-1,2.065702E-1,4.9709495E-2,5.5670756E-1,3.3438537E0,-4.5053524E-1,8.4436305E-2,1.6456788E0,1.6710429E-1,3.6821094E-1,4.689945E-1,3.8570642E-1,9.125314E-1,9.4967794E-1,-4.5327023E-1,9.829598E-1,2.628391E-1,-6.14982E-1,7.772424E-1,4.5005918E0,5.475277E0,5.084359E-3,-1.0246761E-1,1.0973453E-1,2.4362734E-2,-1.1987045E-1,-5.385033E-2,-2.3411106E-2,-6.071632E-2,1.3064109E-1,5.9577502E-2,6.4947076E-2,-6.457388E-3,9.800422E-3,-2.356553E-2,5.6060623E-2,1.9658256E-2,-7.700615E-2,-1.09853484E-1,-4.6376538E-2,-7.861491E-2,-3.277039E-2,-4.017574E-6,-5.848033E-2,-2.6413063E-2,-1.05259955E-1,-6.393408E-2,-6.9171086E-2,-1.675613E-2,-1.22164406E-1,-4.979167E-2,-1.5524746E-1,-4.9980637E-2,1.1690246E-1,5.7285096E-2,8.5743174E-2,5.6166183E-2,5.2811857E-2,-2.091307E-2,2.8304784E-2,-1.5427835E-2,1.1360227E-1,7.82953E-2,7.677112E-2,4.1218515E-2,1.4076585E-1,1.0679742E-1,-4.6509225E-2,9.21698E-2,2.0008218E-2,-8.377243E-2,-2.6812023E-2,-6.0596634E-2,-1.2581412E-1,-3.787841E-3,-9.694088E-2,-6.0322743E-2,4.0128917E-2,-1.6230704E-2,5.7664134E-2,9.6419044E-2,2.7345786E-2,-9.014484E-2,-2.3941478E-2,-8.4141694E-2],"split_indices":[2,11,11,2,11,2,2,11,11,2,11,11,2,11,11,2,2,11,2,18,22,18,63,19,22,11,11,19,2,2,0,11,11,63,24,24,24,11,22,54,24,18,18,5,2,18,42,3,22,35,19,22,22,14,24,39,15,18,55,3,18,57,11,0,0,0,0,0,0,0,0,0,0,0,0,0,0,0,0,0,0,0,0,0,0,0,0,0,0,0,0,0,0,0,0,0,0,0,0,0,0,0,0,0,0,0,0,0,0,0,0,0,0,0,0,0,0,0,0,0,0,0,0,0,0,0,0],"split_type":[0,0,0,0,0,0,0,0,0,0,0,0,0,0,0,0,0,0,0,0,0,0,0,0,0,0,0,0,0,0,0,0,0,0,0,0,0,0,0,0,0,0,0,0,0,0,0,0,0,0,0,0,0,0,0,0,0,0,0,0,0,0,0,0,0,0,0,0,0,0,0,0,0,0,0,0,0,0,0,0,0,0,0,0,0,0,0,0,0,0,0,0,0,0,0,0,0,0,0,0,0,0,0,0,0,0,0,0,0,0,0,0,0,0,0,0,0,0,0,0,0,0,0,0,0,0,0],"sum_hessian":[2.8441943E4,2.2606201E4,5.835742E3,1.6063929E4,6.542272E3,4.5340044E3,1.3017379E3,4.779062E3,1.1284866E4,5.004894E3,1.5373779E3,3.1273474E3,1.4066569E3,8.094521E2,4.922858E2,1.1415511E3,3.6375107E3,2.136817E3,9.14805E3,1.6297152E3,3.375179E3,1.1719443E3,3.6543356E2,1.3191877E3,1.8081598E3,1.0659844E3,3.406725E2,4.9529837E2,3.1415372E2,3.054566E2,1.8682921E2,2.1848997E2,9.2306116E2,5.6840375E2,3.069107E3,4.2615674E2,1.71066E3,5.397882E3,3.7501677E3,6.926659E2,9.370493E2,1.4759153E3,1.8992637E3,6.664086E2,5.0553574E2,2.362212E2,1.2921236E2,2.5575014E2,1.0634376E3,8.382336E2,9.6992615E2,6.3912823E2,4.2685617E2,3.2491116E2,1.5761323E1,1.1186446E2,3.8343393E2,9.614714E1,2.1800656E2,1.2357877E2,1.8187782E2,5.5726948E1,1.3110225E2,8.9465225E1,1.2902475E2,2.6869263E2,6.543685E2,5.127663E2,5.563739E1,1.7129915E3,1.3561156E3,3.3635016E2,8.980657E1,1.5518181E3,1.5884198E2,3.118006E3,2.2798757E3,1.135051E3,2.6151167E3,4.5270267E2,2.3996324E2,5.7430457E2,3.6274478E2,4.6083542E2,1.0150799E3,8.6570715E2,1.0335565E3,5.707597E2,9.564893E1,4.3794385E2,6.759189E1,2.1645569E2,1.9765518E1,1.2705787E2,2.1544864E0,2.0693332E2,4.881682E1,5.972018E2,4.662358E2,8.041285E2,3.4105114E1,7.784461E2,1.9148004E2,4.9506995E2,1.4405829E2,2.9410446E2,1.3275172E2,2.5970352E2,6.520765E1,4.3709497E0,1.1390373E1,9.6672935E1,1.5191525E1,1.9927873E2,1.8415518E2,9.131481E1,4.8323326E0,1.0655921E2,1.1144736E2,8.846932E1,3.5109455E1,8.962908E1,9.224874E1,5.198703E1,3.7399201E0,8.1827286E1,4.9274967E1],"tree_param":{"num_deleted":"0","num_feature":"74","num_nodes":"127","size_leaf_vector":"1"}},{"base_weights":[-1.8634157E-3,1.2311167E-1,-3.8758862E-1,-1.9218287E-1,3.2739475E-1,2.7666903E-1,-5.4805636E-1,2.294215E-1,-3.6813492E-1,2.3139566E-1,7.737843E-1,-2.3782498E-1,4.6370167E-1,-4.5262218E-1,-9.743852E-1,-3.1076577E-1,4.0913367E-1,-2.381137E-1,-7.4378145E-1,5.346389E-1,6.641285E-2,6.5530807E-1,1.0408111E0,2.9587418E-1,-4.6884176E-1,6.26272E-1,9.752232E-2,-2.4763769E-1,-6.8430907E-1,-1.0630268E0,-6.4665747E-1,3.9920956E-1,-4.987339E-1,1.1546454E0,2.875239E-1,-1.2789391E0,-2.1126275E-1,-9.459111E-1,-5.710978E-1,8.8510823E-1,3.993849E-1,-8.8972256E-2,2.2538434E-1,4.628509E-1,8.509387E-1,1.1466227E0,7.479783E-1,-2.4561092E-2,6.134739E-1,-3.0709422E-1,-7.1711576E-1,5.163405E-1,1.0083739E0,3.2666922E-1,-2.7241793E-1,-4.0266988E-1,-1.17546804E-1,-5.347235E-1,-9.003746E-1,-9.521279E-1,-1.2688516E0,-5.137514E-1,-9.7013915E-1,-2.3561507E-3,8.826004E-2,-3.2817464E-2,-9.711848E-2,1.2490039E-1,6.1205406E-2,2.126905E-2,6.069345E-2,-1.457483E-1,-9.528582E-2,-6.12973E-3,-3.9888322E-2,-9.711781E-2,1.9536968E-1,-2.0464877E-2,-6.2129255E-2,1.0611534E-1,7.1772605E-2,3.3661436E-2,6.733687E-2,8.262816E-3,-2.1258248E-2,3.310261E-2,6.8490165E-3,5.9988078E-2,2.6103128E-2,7.648912E-2,1.09147266E-1,1.19767405E-1,8.244517E-2,8.75067E-2,1.3690062E-2,8.530484E-3,-9.894487E-2,1.0345717E-1,2.9474646E-2,-2.0526988E-2,-1.0412009E-1,-1.3957928E-2,-9.022718E-2,-1.371544E-1,5.3528596E-2,8.0598466E-2,1.2680595E-1,2.4290135E-2,1.01438455E-1,4.8575785E-2,-5.1378936E-2,-2.6184333E-2,-5.9711616E-2,5.4723425E-3,-2.4023445E-2,-6.584328E-2,-3.1549897E-2,-1.22085705E-1,-8.1679545E-2,-1.1002107E-1,-8.096371E-2,-1.2773255E-1,1.945196E-2,-3.415239E-2,-9.508742E-2,-1.1530317E-1,-4.14808E-2],"categories":[],"categories_nodes":[],"categories_segments":[],"categories_sizes":[],"default_left":[0,0,0,0,0,0,0,0,0,0,0,0,0,0,0,0,0,0,0,0,0,0,0,0,0,0,0,0,0,0,0,0,0,0,0,0,0,0,0,0,0,0,0,0,0,0,0,0,0,0,0,0,0,0,0,0,0,0,0,0,0,0,0,0,0,0,0,0,0,0,0,0,0,0,0,0,0,0,0,0,0,0,0,0,0,0,0,0,0,0,0,0,0,0,0,0,0,0,0,0,0,0,0,0,0,0,0,0,0,0,0,0,0,0,0,0,0,0,0,0,0,0,0,0,0,0,0],"id":4,"left_children":[1,3,5,7,9,11,13,15,17,19,21,23,25,27,29,31,33,35,37,39,41,43,45,47,49,51,53,55,57,59,61,63,65,67,69,71,73,75,77,79,81,83,85,87,89,91,93,95,97,99,101,103,105,107,109,111,113,115,117,119,121,123,125,-1,-1,-1,-1,-1,-1,-1,-1,-1,-1,-1,-1,-1,-1,-1,-1,-1,-1,-1,-1,-1,-1,-1,-1,-1,-1,-1,-1,-1,-1,-1,-1,-1,-1,-1,-1,-1,-1,-1,-1,-1,-1,-1,-1,-1,-1,-1,-1,-1,-1,-1,-1,-1,-1,-1,-1,-1,-1,-1,-1,-1,-1,-1,-1],"loss_changes":[1.358296E3,1.3707992E3,7.351301E2,6.20838E2,5.532534E2,1.2927426E2,2.2552979E2,2.3938469E2,2.8820465E2,5.3179724E2,7.161902E1,4.43424E1,5.8561447E1,2.1544421E2,2.879834E1,8.238133E1,1.6737091E2,1.2235269E2,5.243463E1,1.77193E2,1.701111E2,5.9309265E1,2.085254E1,1.1100013E1,9.843399E0,2.8118317E1,2.585587E1,4.8565567E1,6.838049E1,1.6992249E1,8.90139E0,2.6478765E1,3.8952354E1,1.2500458E1,3.791617E1,5.023987E0,1.2035858E2,5.3014954E1,1.497406E1,2.9947327E1,4.6283264E1,7.389497E1,5.63954E1,2.2010117E1,1.5416382E1,7.4468994E0,1.4546684E1,5.933958E0,7.042179E0,1.1259827E1,1.03654175E1,1.9744919E1,6.9288635E0,1.0592743E1,2.1625652E1,2.994728E1,2.7743233E1,3.400302E1,2.2310547E1,1.0127319E1,3.6732483E0,1.1501904E1,5.874077E0,0E0,0E0,0E0,0E0,0E0,0E0,0E0,0E0,0E0,0E0,0E0,0E0,0E0,0E0,0E0,0E0,0E0,0E0,0E0,0E0,0E0,0E0,0E0,0E0,0E0,0E0,0E0,0E0,0E0,0E0,0E0,0E0,0E0,0E0,0E0,0E0,0E0,0E0,0E0,0E0,0E0,0E0,0E0,0E0,0E0,0E0,0E0,0E0,0E0,0E0,0E0,0E0,0E0,0E0,0E0,0E0,0E0,0E0,0E0,0E0,0E0,0E0,0E0,0E0],"parents":[2147483647,0,0,1,1,2,2,3,3,4,4,5,5,6,6,7,7,8,8,9,9,10,10,11,11,12,12,13,13,14,14,15,15,16,16,17,17,18,18,19,19,20,20,21,21,22,22,23,23,24,24,25,25,26,26,27,27,28,28,29,29,30,30,31,31,32,32,33,33,34,34,35,35,36,36,37,37,38,38,39,39,40,40,41,41,42,42,43,43,44,44,45,45,46,46,47,47,48,48,49,49,50,50,51,51,52,52,53,53,54,54,55,55,56,56,57,57,58,58,59,59,60,60,61,61,62,62],"right_children":[2,4,6,8,10,12,14,16,18,20,22,24,26,28,30,32,34,36,38,40,42,44,46,48,50,52,54,56,58,60,62,64,66,68,70,72,74,76,78,80,82,84,86,88,90,92,94,96,98,100,102,104,106,108,110,112,114,116,118,120,122,124,126,-1,-1,-1,-1,-1,-1,-1,-1,-1,-1,-1,-1,-1,-1,-1,-1,-1,-1,-1,-1,-1,-1,-1,-1,-1,-1,-1,-1,-1,-1,-1,-1,-1,-1,-1,-1,-1,-1,-1,-1,-1,-1,-1,-1,-1,-1,-1,-1,-1,-1,-1,-1,-1,-1,-1,-1,-1,-1,-1,-1,-1,-1,-1,-1],"split_conditions":[4.363789E-2,-6.15441E-1,-6.085665E-1,-1.027856E0,1.0344157E0,-6.5120417E-1,1.6205654E0,-1.3626295E0,7.3955667E-1,-6.161307E-1,6.4827025E-1,-6.683623E-1,-6.14982E-1,-3.4220347E-1,4.790259E-1,-6.9688994E-1,-6.929228E-1,-6.7923427E-1,-1.1249557E0,-5.765541E-1,1.6093887E-1,-2.978756E-1,-6.1943847E-1,-6.6751164E-1,2.7018905E0,2.829848E0,4.9354282E-1,2.3872213E-1,1.0307703E0,3.557839E0,1.9191834E0,-5.783726E-1,2.935693E0,-1.1247325E0,1.6209704E0,-1.3792545E0,-4.4659677E-1,-5.827673E-1,-1.0803844E0,-6.426727E-1,6.114064E-1,4.6579596E-2,2.2150394E-1,-5.701329E-1,1.9191834E0,4.7414523E-1,5.948259E-1,3.939003E0,-6.7923427E-1,8.087953E-1,-4.961136E-1,-6.8467027E-1,2.2465652E-2,1.1026078E0,-6.466184E-1,1.0549895E0,3.2464173E-1,2.0249449E-1,-9.636325E-1,1.5704751E-1,3.7194455E0,8.6753446E-1,5.424745E-1,-2.3561507E-3,8.826004E-2,-3.2817464E-2,-9.711848E-2,1.2490039E-1,6.1205406E-2,2.126905E-2,6.069345E-2,-1.457483E-1,-9.528582E-2,-6.12973E-3,-3.9888322E-2,-9.711781E-2,1.9536968E-1,-2.0464877E-2,-6.2129255E-2,1.0611534E-1,7.1772605E-2,3.3661436E-2,6.733687E-2,8.262816E-3,-2.1258248E-2,3.310261E-2,6.8490165E-3,5.9988078E-2,2.6103128E-2,7.648912E-2,1.09147266E-1,1.19767405E-1,8.244517E-2,8.75067E-2,1.3690062E-2,8.530484E-3,-9.894487E-2,1.0345717E-1,2.9474646E-2,-2.0526988E-2,-1.0412009E-1,-1.3957928E-2,-9.022718E-2,-1.371544E-1,5.3528596E-2,8.0598466E-2,1.2680595E-1,2.4290135E-2,1.01438455E-1,4.8575785E-2,-5.1378936E-2,-2.6184333E-2,-5.9711616E-2,5.4723425E-3,-2.4023445E-2,-6.584328E-2,-3.1549897E-2,-1.22085705E-1,-8.1679545E-2,-1.1002107E-1,-8.096371E-2,-1.2773255E-1,1.945196E-2,-3.415239E-2,-9.508742E-2,-1.1530317E-1,-4.14808E-2],"split_indices":[11,21,0,25,21,9,11,20,0,25,18,0,3,0,18,11,11,0,21,11,18,9,0,9,25,21,22,18,25,11,63,8,0,25,9,20,25,53,24,11,53,22,22,3,63,22,25,41,0,51,17,0,17,50,0,25,11,18,20,18,36,22,5,0,0,0,0,0,0,0,0,0,0,0,0,0,0,0,0,0,0,0,0,0,0,0,0,0,0,0,0,0,0,0,0,0,0,0,0,0,0,0,0,0,0,0,0,0,0,0,0,0,0,0,0,0,0,0,0,0,0,0,0,0,0,0,0],"split_type":[0,0,0,0,0,0,0,0,0,0,0,0,0,0,0,0,0,0,0,0,0,0,0,0,0,0,0,0,0,0,0,0,0,0,0,0,0,0,0,0,0,0,0,0,0,0,0,0,0,0,0,0,0,0,0,0,0,0,0,0,0,0,0,0,0,0,0,0,0,0,0,0,0,0,0,0,0,0,0,0,0,0,0,0,0,0,0,0,0,0,0,0,0,0,0,0,0,0,0,0,0,0,0,0,0,0,0,0,0,0,0,0,0,0,0,0,0,0,0,0,0,0,0,0,0,0,0],"sum_hessian":[2.8174893E4,2.128064E4,6.894253E3,8.366963E3,1.2913677E4,1.3412817E3,5.552971E3,2.4635847E3,5.903378E3,1.0629294E4,2.2843833E3,3.5752408E2,9.837577E2,4.5389775E3,1.01399396E3,6.148152E2,1.8487695E3,4.3866694E3,1.5167086E3,3.7445183E3,6.8847754E3,1.5847191E3,6.996642E2,1.0792139E2,2.4960269E2,6.8079785E2,3.0295984E2,2.4093657E3,2.1296118E3,7.9635706E2,2.1763695E2,1.2846515E2,4.8635007E2,2.5809003E2,1.5906796E3,1.0914751E2,4.277522E3,6.9671375E2,8.1999493E2,1.0411509E3,2.7033674E3,3.4818833E3,3.402892E3,8.005354E2,7.8418365E2,5.1181152E2,1.8785268E2,5.418016E1,5.3741226E1,1.5249254E2,9.711015E1,5.3051794E2,1.5027988E2,1.8715192E2,1.15807915E2,1.0983466E3,1.311019E3,1.2604541E3,8.691577E2,5.2117346E2,2.7518356E2,1.560927E2,6.1544247E1,6.903701E1,5.9428143E1,3.585902E2,1.2775985E2,2.1874722E2,3.934281E1,1.2900945E3,3.0058508E2,6.828741E1,4.08601E1,2.37806E3,1.8994617E3,6.913544E2,5.359352E0,9.939971E1,7.205952E2,5.0484143E2,5.363094E2,2.201277E3,5.0209045E2,1.4580686E3,2.0238146E3,2.0329401E3,1.3699519E3,4.7562625E2,3.2490918E2,5.80646E2,2.0353764E2,4.3945743E2,7.235411E1,1.5515285E2,3.2699837E1,4.9460037E1,4.7201242E0,2.2184914E1,3.1556313E1,1.3504124E2,1.7451294E1,2.4000847E1,7.31093E1,4.561673E0,5.259563E2,8.6763405E1,6.3516464E1,1.6803717E2,1.9114738E1,2.7720884E1,8.808703E1,6.3836273E2,4.5998376E2,5.4554846E2,7.6547064E2,8.044796E2,4.559745E2,1.7696858E2,6.9218915E2,2.5227594E2,2.6889752E2,2.7372565E2,1.4579E0,1.13252304E2,4.28404E1,4.5487206E1,1.6057041E1],"tree_param":{"num_deleted":"0","num_feature":"74","num_nodes":"127","size_leaf_vector":"1"}},{"base_weights":[-3.0825015E-3,-1.028243E-1,4.055552E-1,4.8744313E-2,-4.7035035E-1,5.7895494E-1,-1.5284942E-1,-2.6110598E-1,1.9275251E-1,-3.3476904E-1,-7.672468E-1,4.754881E-1,9.528992E-1,-3.8916656E-1,2.9000184E-1,2.7622476E-1,-4.2401868E-1,5.264555E-1,6.6489704E-2,-6.063993E-1,-1.9778581E-1,-6.902025E-1,-1.1432787E0,6.8962574E-1,3.2399032E-1,8.4328234E-1,1.1547544E0,-2.1537055E-1,-7.396913E-1,5.104623E-1,-2.503932E-1,-3.2524085E-1,5.210551E-1,-9.999858E-1,-3.302501E-1,9.1746837E-1,4.300903E-1,-1.0992309E-1,2.1746197E-1,-8.244013E-1,-4.964958E-1,-4.0313843E-1,-1.2264198E-1,-8.1416106E-1,-5.205232E-1,-1.0318124E0,-1.282071E0,6.110408E-1,9.1583186E-1,1.9534904E-1,4.6880138E-1,1.097008E0,7.1993417E-1,1.2139944E0,7.9712737E-1,-1.4590885E-1,-7.6536745E-1,-8.6288E-1,-2.4742086E-1,4.4363984E-1,1.2311298E0,-5.977974E-1,-3.2252304E-2,2.4721337E-2,-6.8428144E-2,9.3773045E-2,2.9146984E-2,-1.13750234E-1,-4.7466617E-2,-1.2602192E-2,-4.8062827E-2,1.092511E-1,4.4292044E-2,2.5147036E-2,5.459219E-2,1.1363047E-2,-1.9511404E-2,3.6677625E-2,1.1621571E-2,-9.157443E-2,-2.8915742E-2,-5.750772E-2,-1.0482802E-2,-5.408458E-2,-2.0577008E-2,-4.1954048E-2,-6.982574E-3,-8.337868E-2,1.1136899E-2,-4.2345043E-2,-8.770583E-2,-8.998915E-2,-1.2649947E-1,-1.3047305E-1,-6.803704E-2,6.622198E-2,2.9778853E-2,8.3216555E-2,1.2528893E-1,6.4810985E-3,3.6070134E-2,5.920306E-2,3.0606074E-2,1.1119224E-1,-2.4629978E-2,7.695864E-2,1.6692195E-2,1.01617806E-1,1.277289E-1,9.004565E-2,-5.603045E-2,-2.119228E-2,3.6115002E-2,-8.3951E-2,7.7382855E-2,-8.956304E-2,2.2746654E-2,4.9689293E-2,-5.598835E-2,4.6595745E-2,-1.1469646E-1,1.3157406E-1,-1.4674957E-2,-2.2342185E-2,-8.930769E-2,-2.075453E-2,3.892833E-2],"categories":[],"categories_nodes":[],"categories_segments":[],"categories_sizes":[],"default_left":[0,0,0,0,0,0,0,0,0,0,0,0,0,0,0,0,0,0,0,0,0,0,0,0,0,0,0,0,0,0,0,0,0,0,0,0,0,0,0,0,0,0,0,0,0,0,0,0,0,0,0,0,0,0,0,0,0,0,0,0,0,0,0,0,0,0,0,0,0,0,0,0,0,0,0,0,0,0,0,0,0,0,0,0,0,0,0,0,0,0,0,0,0,0,0,0,0,0,0,0,0,0,0,0,0,0,0,0,0,0,0,0,0,0,0,0,0,0,0,0,0,0,0,0,0,0,0],"id":5,"left_children":[1,3,5,7,9,11,13,15,17,19,21,23,25,27,29,31,33,35,37,39,41,43,45,47,49,51,53,55,57,59,61,63,65,67,69,71,73,75,77,79,81,83,85,87,89,91,93,95,97,99,101,103,105,107,109,111,113,115,117,119,121,123,125,-1,-1,-1,-1,-1,-1,-1,-1,-1,-1,-1,-1,-1,-1,-1,-1,-1,-1,-1,-1,-1,-1,-1,-1,-1,-1,-1,-1,-1,-1,-1,-1,-1,-1,-1,-1,-1,-1,-1,-1,-1,-1,-1,-1,-1,-1,-1,-1,-1,-1,-1,-1,-1,-1,-1,-1,-1,-1,-1,-1,-1,-1,-1,-1],"loss_changes":[1.1439154E3,1.2567058E3,5.332578E2,7.127944E2,2.648994E2,1.6212097E2,1.3674016E2,4.43822E2,4.5946375E2,1.6820737E2,5.9015625E1,1.0661322E2,1.915393E1,5.1725586E1,5.431438E1,1.7391049E2,2.0975195E2,1.1240027E2,2.1077676E2,3.5914856E1,4.6378784E1,3.5664673E1,4.0841675E0,2.3680908E1,3.5872772E1,1.7776184E1,5.7572937E0,2.169476E1,1.688144E1,1.5026321E1,1.0018911E1,7.0449905E1,7.997867E1,3.8767334E1,1.0272275E2,4.8607758E1,4.9590637E1,6.953079E1,6.442357E1,2.4504822E1,3.1039398E1,2.178415E1,3.4534393E1,1.8069946E1,2.4792984E1,4.981842E0,1.1785278E0,1.6075989E1,8.815735E0,2.2081352E1,1.8018204E1,4.1234283E0,1.0911957E1,2.0877075E0,7.240103E0,1.708161E1,7.926964E0,8.240936E0,1.3726831E1,1.1095043E1,3.3264122E0,5.442156E0,6.1713295E0,0E0,0E0,0E0,0E0,0E0,0E0,0E0,0E0,0E0,0E0,0E0,0E0,0E0,0E0,0E0,0E0,0E0,0E0,0E0,0E0,0E0,0E0,0E0,0E0,0E0,0E0,0E0,0E0,0E0,0E0,0E0,0E0,0E0,0E0,0E0,0E0,0E0,0E0,0E0,0E0,0E0,0E0,0E0,0E0,0E0,0E0,0E0,0E0,0E0,0E0,0E0,0E0,0E0,0E0,0E0,0E0,0E0,0E0,0E0,0E0,0E0,0E0,0E0,0E0],"parents":[2147483647,0,0,1,1,2,2,3,3,4,4,5,5,6,6,7,7,8,8,9,9,10,10,11,11,12,12,13,13,14,14,15,15,16,16,17,17,18,18,19,19,20,20,21,21,22,22,23,23,24,24,25,25,26,26,27,27,28,28,29,29,30,30,31,31,32,32,33,33,34,34,35,35,36,36,37,37,38,38,39,39,40,40,41,41,42,42,43,43,44,44,45,45,46,46,47,47,48,48,49,49,50,50,51,51,52,52,53,53,54,54,55,55,56,56,57,57,58,58,59,59,60,60,61,61,62,62],"right_children":[2,4,6,8,10,12,14,16,18,20,22,24,26,28,30,32,34,36,38,40,42,44,46,48,50,52,54,56,58,60,62,64,66,68,70,72,74,76,78,80,82,84,86,88,90,92,94,96,98,100,102,104,106,108,110,112,114,116,118,120,122,124,126,-1,-1,-1,-1,-1,-1,-1,-1,-1,-1,-1,-1,-1,-1,-1,-1,-1,-1,-1,-1,-1,-1,-1,-1,-1,-1,-1,-1,-1,-1,-1,-1,-1,-1,-1,-1,-1,-1,-1,-1,-1,-1,-1,-1,-1,-1,-1,-1,-1,-1,-1,-1,-1,-1,-1,-1,-1,-1,-1,-1,-1,-1,-1,-1],"split_conditions":[1.7228594E-1,-1.216585E-1,5.0646776E-1,-5.0287837E-1,5.659745E-1,1.6034489E0,1.6034489E0,-6.0829103E-1,-5.01179E-1,-3.3127135E-1,2.6751564E0,-2.4067189E-1,3.5282304E0,2.2850568E0,3.005749E0,-6.758106E-1,-6.758106E-1,-6.5325165E-1,-3.0278063E-1,-1.030132E0,9.405426E-3,2.3068868E-1,2.99252E0,1.9191834E0,5.8639556E-1,-3.2761285E-1,2.6579624E-1,2.8351116E-1,1.0373706E0,3.6392379E0,-6.725189E-1,-6.9688994E-1,-6.8366617E-1,-1.2961301E0,-7.856646E-1,-1.279676E0,-5.9788525E-1,-4.2514265E-1,-3.319155E-1,-2.549591E-1,3.4760782E-1,-4.1154405E-1,-5.077247E-1,1.6470567E0,1.9191834E0,1.9191834E0,1.0412087E0,-3.9073643E-1,1.5134741E0,-3.763922E-2,1.0578614E-2,1.1471597E0,1.0373477E0,-3.1083164E-1,8.099259E-1,1.0605177E-1,2.1351943E0,2.6231174E0,3.005749E0,1.4072689E0,2.5081375E0,-6.683623E-1,2.3075724E0,2.4721337E-2,-6.8428144E-2,9.3773045E-2,2.9146984E-2,-1.13750234E-1,-4.7466617E-2,-1.2602192E-2,-4.8062827E-2,1.092511E-1,4.4292044E-2,2.5147036E-2,5.459219E-2,1.1363047E-2,-1.9511404E-2,3.6677625E-2,1.1621571E-2,-9.157443E-2,-2.8915742E-2,-5.750772E-2,-1.0482802E-2,-5.408458E-2,-2.0577008E-2,-4.1954048E-2,-6.982574E-3,-8.337868E-2,1.1136899E-2,-4.2345043E-2,-8.770583E-2,-8.998915E-2,-1.2649947E-1,-1.3047305E-1,-6.803704E-2,6.622198E-2,2.9778853E-2,8.3216555E-2,1.2528893E-1,6.4810985E-3,3.6070134E-2,5.920306E-2,3.0606074E-2,1.1119224E-1,-2.4629978E-2,7.695864E-2,1.6692195E-2,1.01617806E-1,1.277289E-1,9.004565E-2,-5.603045E-2,-2.119228E-2,3.6115002E-2,-8.3951E-2,7.7382855E-2,-8.956304E-2,2.2746654E-2,4.9689293E-2,-5.598835E-2,4.6595745E-2,-1.1469646E-1,1.3157406E-1,-1.4674957E-2,-2.2342185E-2,-8.930769E-2,-2.075453E-2,3.892833E-2],"split_indices":[2,11,11,2,11,2,2,11,11,2,11,11,2,11,11,2,2,11,2,20,18,18,25,63,2,14,11,19,50,37,12,11,11,20,25,24,20,11,11,12,18,12,23,39,63,63,50,3,20,17,11,54,8,23,15,23,44,24,11,35,25,0,24,0,0,0,0,0,0,0,0,0,0,0,0,0,0,0,0,0,0,0,0,0,0,0,0,0,0,0,0,0,0,0,0,0,0,0,0,0,0,0,0,0,0,0,0,0,0,0,0,0,0,0,0,0,0,0,0,0,0,0,0,0,0,0,0],"split_type":[0,0,0,0,0,0,0,0,0,0,0,0,0,0,0,0,0,0,0,0,0,0,0,0,0,0,0,0,0,0,0,0,0,0,0,0,0,0,0,0,0,0,0,0,0,0,0,0,0,0,0,0,0,0,0,0,0,0,0,0,0,0,0,0,0,0,0,0,0,0,0,0,0,0,0,0,0,0,0,0,0,0,0,0,0,0,0,0,0,0,0,0,0,0,0,0,0,0,0,0,0,0,0,0,0,0,0,0,0,0,0,0,0,0,0,0,0,0,0,0,0,0,0,0,0,0,0],"sum_hessian":[2.8063836E4,2.2558438E4,5.5053984E3,1.5972293E4,6.586144E3,4.200876E3,1.3045226E3,5.067712E3,1.0904581E4,4.5228555E3,2.0632886E3,3.2922212E3,9.086549E2,8.50692E2,4.538305E2,1.1788489E3,3.8888628E3,2.9924895E3,7.912092E3,1.5150894E3,3.007766E3,1.7147858E3,3.4850287E2,1.3626307E3,1.9295905E3,5.9222595E2,3.1642892E2,5.697934E2,2.8089865E2,3.2237094E2,1.3145958E2,3.4094168E2,8.379072E2,5.4311993E2,3.345743E3,5.8999536E2,2.4024941E3,3.648754E3,4.263338E3,5.056309E2,1.00945856E3,8.0459863E2,2.2031675E3,9.886979E2,7.260879E2,1.9795567E2,1.505472E2,1.0140474E3,3.4858328E2,1.0230895E3,9.06501E2,1.9114651E2,4.0107947E2,2.6940765E2,4.702126E1,5.0702423E2,6.2769176E1,2.2407254E2,5.6826103E1,2.9649466E2,2.5876272E1,5.0035015E1,8.142457E1,1.3153453E2,2.0940715E2,2.965723E2,5.413349E2,4.2951703E2,1.13602936E2,1.4196108E3,1.9261321E3,4.300603E2,1.5993503E2,9.4634235E2,1.4561517E3,1.0066977E3,2.6420562E3,1.7216656E3,2.5416724E3,4.313134E2,7.431748E1,8.4038214E2,1.690764E2,4.7290448E2,3.3169412E2,3.3168835E2,1.8714791E3,9.682651E2,2.0432816E1,5.724236E2,1.5366434E2,1.2953276E2,6.842292E1,1.4395749E2,6.589716E0,8.706817E2,1.4336569E2,2.8204208E2,6.65412E1,5.7251056E2,4.5057892E2,5.143733E2,3.9212766E2,1.8921793E2,1.9285858E0,3.6767603E2,3.3403435E1,6.943993E1,1.9996773E2,4.4007973E1,3.013288E0,4.491336E2,5.789061E1,6.031825E1,2.450928E0,2.1771176E2,6.3607697E0,1.662755E1,4.0198555E1,2.9308942E2,3.4052496E0,2.4421717E1,1.4545563E0,2.2837154E1,2.7197859E1,5.7868114E1,2.3556456E1],"tree_param":{"num_deleted":"0","num_feature":"74","num_nodes":"127","size_leaf_vector":"1"}},{"base_weights":[8.689429E-5,7.918642E-2,-4.3131956E-1,-3.7041802E-2,4.485336E-1,-5.742951E-1,1.0836967E-1,2.8889725E-1,-1.4780666E-1,3.5316065E-1,8.082597E-1,-4.255528E-1,-8.00374E-1,3.0031526E-1,-3.5801512E-1,-2.535854E-1,4.2313093E-1,-4.8075354E-1,-4.0603887E-2,5.5438715E-1,1.8750356E-1,7.166612E-1,1.1184506E0,-6.4462733E-1,-2.3813008E-1,-6.968952E-1,-1.0755543E0,9.769208E-2,6.290702E-1,-5.618796E-1,5.472612E-2,5.5767226E-1,-4.8241794E-1,7.958628E-1,3.0355513E-1,-7.634013E-1,-3.541568E-1,6.438807E-2,-2.2959982E-1,4.8489252E-1,7.950486E-1,3.068056E-1,5.482561E-2,6.2032443E-1,9.8015237E-1,1.1490213E0,3.8603863E-1,-8.096336E-1,-5.439655E-1,-3.0841964E-1,8.377042E-2,-6.182646E-1,-1.0162528E0,-1.153573E0,-7.836421E-1,3.290403E-1,-4.656021E-2,-7.2399014E-1,6.485092E-1,-4.9592125E-1,-1.2356101E0,-2.5234604E-1,2.9785365E-1,6.127979E-3,9.707446E-2,-1.0025469E-1,-2.723076E-2,9.4214E-2,2.4281478E-2,8.8090515E-3,4.4555377E-2,-9.121575E-2,-4.244595E-2,-2.2143694E-2,-5.4223873E-2,-7.181027E-3,1.850096E-2,-4.027426E-2,-1.5297941E-2,9.091505E-2,4.336181E-2,8.084958E-2,-1.3532546E-1,3.898902E-2,6.141302E-3,-1.059232E-3,2.3554957E-2,5.0635606E-2,8.628399E-2,1.0020559E-1,-2.5198597E-2,1.1767366E-1,3.969581E-2,1.1013528E-1,-3.2181874E-2,-8.1976674E-2,8.520456E-2,-4.5870826E-2,-7.7465534E-2,-2.7156001E-2,-8.2860075E-2,3.9813775E-3,1.0743117E-1,-6.8642356E-2,-3.5536375E-2,-1.0458988E-1,-5.2123605E-3,-1.1812649E-1,-5.433001E-2,-4.7342595E-2,-1.1411708E-1,1.9437337E-2,6.1204236E-2,-9.015179E-3,7.660158E-2,5.161732E-2,-1.4733665E-1,1.694729E-2,7.122897E-2,-5.513358E-2,7.436333E-2,-2.3084719E-2,-1.3260442E-1,-5.4530006E-2,4.349585E-2,-6.496568E-2,4.2811755E-2],"categories":[],"categories_nodes":[],"categories_segments":[],"categories_sizes":[],"default_left":[0,0,0,0,0,0,0,0,0,0,0,0,0,0,0,0,0,0,0,0,0,0,0,0,0,0,0,0,0,0,0,0,0,0,0,0,0,0,0,0,0,0,0,0,0,0,0,0,0,0,0,0,0,0,0,0,0,0,0,0,0,0,0,0,0,0,0,0,0,0,0,0,0,0,0,0,0,0,0,0,0,0,0,0,0,0,0,0,0,0,0,0,0,0,0,0,0,0,0,0,0,0,0,0,0,0,0,0,0,0,0,0,0,0,0,0,0,0,0,0,0,0,0,0,0,0,0],"id":6,"left_children":[1,3,5,7,9,11,13,15,17,19,21,23,25,27,29,31,33,35,37,39,41,43,45,47,49,51,53,55,57,59,61,63,65,67,69,71,73,75,77,79,81,83,85,87,89,91,93,95,97,99,101,103,105,107,109,111,113,115,117,119,121,123,125,-1,-1,-1,-1,-1,-1,-1,-1,-1,-1,-1,-1,-1,-1,-1,-1,-1,-1,-1,-1,-1,-1,-1,-1,-1,-1,-1,-1,-1,-1,-1,-1,-1,-1,-1,-1,-1,-1,-1,-1,-1,-1,-1,-1,-1,-1,-1,-1,-1,-1,-1,-1,-1,-1,-1,-1,-1,-1,-1,-1,-1,-1,-1,-1],"loss_changes":[9.513899E2,1.0114336E3,3.3339386E2,6.470702E2,1.9319702E2,1.1450696E2,8.11759E1,3.311461E2,4.7743948E2,1.4855084E2,3.2756348E1,8.451608E1,3.7810974E1,4.2710472E1,2.2285988E1,1.67788E2,1.6219928E2,1.16307556E2,2.0082466E2,3.3282104E1,3.87228E1,2.2608215E1,5.5453186E0,1.5342072E1,2.5207203E1,2.4155243E1,7.4821167E0,1.3312124E1,6.9044876E0,7.258724E0,6.671814E0,4.0744144E1,7.670459E1,7.133594E1,8.4436066E1,5.038385E1,5.6095154E1,1.0690605E2,4.7887253E1,3.3640686E1,1.4079224E1,2.624543E1,1.3716339E1,1.8149292E1,6.814499E0,4.8740845E0,6.543404E0,6.7261505E0,1.131189E1,1.729358E1,8.676235E0,1.399292E1,5.474457E0,4.2328796E0,8.418812E0,5.717598E0,8.792993E0,4.419933E0,7.26458E0,1.1606972E1,1.068182E0,8.207795E0,6.4213715E0,0E0,0E0,0E0,0E0,0E0,0E0,0E0,0E0,0E0,0E0,0E0,0E0,0E0,0E0,0E0,0E0,0E0,0E0,0E0,0E0,0E0,0E0,0E0,0E0,0E0,0E0,0E0,0E0,0E0,0E0,0E0,0E0,0E0,0E0,0E0,0E0,0E0,0E0,0E0,0E0,0E0,0E0,0E0,0E0,0E0,0E0,0E0,0E0,0E0,0E0,0E0,0E0,0E0,0E0,0E0,0E0,0E0,0E0,0E0,0E0,0E0,0E0,0E0,0E0],"parents":[2147483647,0,0,1,1,2,2,3,3,4,4,5,5,6,6,7,7,8,8,9,9,10,10,11,11,12,12,13,13,14,14,15,15,16,16,17,17,18,18,19,19,20,20,21,21,22,22,23,23,24,24,25,25,26,26,27,27,28,28,29,29,30,30,31,31,32,32,33,33,34,34,35,35,36,36,37,37,38,38,39,39,40,40,41,41,42,42,43,43,44,44,45,45,46,46,47,47,48,48,49,49,50,50,51,51,52,52,53,53,54,54,55,55,56,56,57,57,58,58,59,59,60,60,61,61,62,62],"right_children":[2,4,6,8,10,12,14,16,18,20,22,24,26,28,30,32,34,36,38,40,42,44,46,48,50,52,54,56,58,60,62,64,66,68,70,72,74,76,78,80,82,84,86,88,90,92,94,96,98,100,102,104,106,108,110,112,114,116,118,120,122,124,126,-1,-1,-1,-1,-1,-1,-1,-1,-1,-1,-1,-1,-1,-1,-1,-1,-1,-1,-1,-1,-1,-1,-1,-1,-1,-1,-1,-1,-1,-1,-1,-1,-1,-1,-1,-1,-1,-1,-1,-1,-1,-1,-1,-1,-1,-1,-1,-1,-1,-1,-1,-1,-1,-1,-1,-1,-1,-1,-1,-1,-1,-1,-1,-1],"split_conditions":[3.2464173E-1,-2.6486676E-2,6.890948E-1,-5.256429E-1,1.1363331E0,1.1511236E0,2.466883E0,-6.2545484E-1,-5.0287837E-1,-2.4067189E-1,3.5282304E0,-1.9875628E-1,1.9191834E0,2.4548583E0,2.9981701E0,-6.9688994E-1,-6.5325165E-1,-6.2015426E-1,-1.8777704E-1,1.9191834E0,-8.72389E-2,1.9191834E0,1.067942E0,-4.0084177E-1,1.5992804E-1,2.8229861E0,1.4578293E-1,6.221752E-1,4.6610686E-1,2.6280432E0,-7.786882E-1,-6.9568783E-1,-6.9568783E-1,-1.229853E0,-9.137579E-1,-1.2628803E0,-3.6233002E-1,-3.3723456E-1,-3.3458424E-1,-1.2464607E0,1.3538461E0,9.6920574E-1,-2.17677E-1,2.2394322E-1,3.2757828E0,3.1862829E0,-4.1154405E-1,1.3154646E0,1.4909339E0,2.6521618E0,1.8453858E0,9.959353E-1,2.4026668E0,4.824916E-1,2.3386035E0,7.654254E-1,9.324748E-1,9.0979093E-1,6.468093E-1,3.1063411E0,-8.4792805E-1,-6.5760607E-1,1.4273679E0,6.127979E-3,9.707446E-2,-1.0025469E-1,-2.723076E-2,9.4214E-2,2.4281478E-2,8.8090515E-3,4.4555377E-2,-9.121575E-2,-4.244595E-2,-2.2143694E-2,-5.4223873E-2,-7.181027E-3,1.850096E-2,-4.027426E-2,-1.5297941E-2,9.091505E-2,4.336181E-2,8.084958E-2,-1.3532546E-1,3.898902E-2,6.141302E-3,-1.059232E-3,2.3554957E-2,5.0635606E-2,8.628399E-2,1.0020559E-1,-2.5198597E-2,1.1767366E-1,3.969581E-2,1.1013528E-1,-3.2181874E-2,-8.1976674E-2,8.520456E-2,-4.5870826E-2,-7.7465534E-2,-2.7156001E-2,-8.2860075E-2,3.9813775E-3,1.0743117E-1,-6.8642356E-2,-3.5536375E-2,-1.0458988E-1,-5.2123605E-3,-1.1812649E-1,-5.433001E-2,-4.7342595E-2,-1.1411708E-1,1.9437337E-2,6.1204236E-2,-9.015179E-3,7.660158E-2,5.161732E-2,-1.4733665E-1,1.694729E-2,7.122897E-2,-5.513358E-2,7.436333E-2,-2.3084719E-2,-1.3260442E-1,-5.4530006E-2,4.349585E-2,-6.496568E-2,4.2811755E-2],"split_indices":[11,2,2,11,2,11,11,2,2,11,2,2,63,2,2,11,11,2,11,63,19,63,54,2,23,25,2,11,20,40,23,2,2,24,20,20,11,2,2,24,51,54,12,23,46,46,12,55,25,41,53,50,53,5,25,55,15,11,24,41,23,12,24,0,0,0,0,0,0,0,0,0,0,0,0,0,0,0,0,0,0,0,0,0,0,0,0,0,0,0,0,0,0,0,0,0,0,0,0,0,0,0,0,0,0,0,0,0,0,0,0,0,0,0,0,0,0,0,0,0,0,0,0,0,0,0,0],"split_type":[0,0,0,0,0,0,0,0,0,0,0,0,0,0,0,0,0,0,0,0,0,0,0,0,0,0,0,0,0,0,0,0,0,0,0,0,0,0,0,0,0,0,0,0,0,0,0,0,0,0,0,0,0,0,0,0,0,0,0,0,0,0,0,0,0,0,0,0,0,0,0,0,0,0,0,0,0,0,0,0,0,0,0,0,0,0,0,0,0,0,0,0,0,0,0,0,0,0,0,0,0,0,0,0,0,0,0,0,0,0,0,0,0,0,0,0,0,0,0,0,0,0,0,0,0,0,0],"sum_hessian":[2.7878336E4,2.3559463E4,4.318874E3,1.792091E4,5.638552E3,3.4142893E3,9.045844E2,4.5450225E3,1.3375889E4,4.458474E3,1.1800779E3,2.061117E3,1.3531725E3,6.410922E2,2.6349222E2,9.0137573E2,3.6436467E3,3.2569805E3,1.0118908E4,2.0120527E3,2.4464211E3,9.1360376E2,2.6647418E2,9.4918945E2,1.1119275E3,9.859489E2,3.672235E2,3.974358E2,2.4365643E2,1.7613358E2,8.7358635E1,1.979975E2,7.0337823E2,8.836256E2,2.7600212E3,1.0059667E3,2.251014E3,6.5055645E3,3.6133438E3,1.5635646E3,4.4848813E2,1.2874514E3,1.1589698E3,6.7146063E2,2.4214311E2,2.5525124E2,1.12229395E1,3.569799E2,5.922096E2,9.126786E2,1.9924883E2,7.935107E2,1.9243823E2,2.8744653E2,7.977699E1,1.5214632E2,2.4528946E2,2.9376175E0,2.4071883E2,1.6200896E2,1.4124623E1,3.858612E1,4.8772514E1,9.045061E1,1.075469E2,2.0129651E2,5.0208173E2,6.982421E2,1.8538351E2,1.0970339E3,1.6629872E3,6.979543E2,3.0801233E2,1.3210168E3,9.29997E2,3.0556824E3,3.4498818E3,1.107168E3,2.5061758E3,1.6678786E2,1.3967767E3,4.4631805E2,2.1700528E0,9.6136536E2,3.2608603E2,8.516378E2,3.0733203E2,4.5889444E2,2.125662E2,2.3809723E2,4.0458894E0,2.4563434E2,9.616891E0,5.3055763E0,5.9173636E0,3.5531976E2,1.6601253E0,4.3458588E2,1.5762373E2,8.537076E2,5.8971012E1,1.9177858E2,7.4702463E0,6.2886255E2,1.6464815E2,1.8661519E2,5.8230443E0,2.7407443E2,1.3372088E1,4.3959183E1,3.5817814E1,1.0423349E2,4.7912823E1,2.336444E2,1.164507E1,1.2236923E0,1.7139252E0,2.8713995E1,2.1200482E2,1.556077E2,6.4012628E0,1.4596729E0,1.266495E1,2.7199373E1,1.1386746E1,5.4129186E0,4.3359596E1],"tree_param":{"num_deleted":"0","num_feature":"74","num_nodes":"127","size_leaf_vector":"1"}},{"base_weights":[2.0518615E-4,9.628253E-2,-3.012588E-1,-1.0747698E-1,2.9255158E-1,1.22344725E-1,-4.5191824E-1,1.4487168E-1,-2.6558787E-1,2.071892E-1,6.160394E-1,-2.0934615E-1,3.1327128E-1,-3.5729477E-1,-7.521259E-1,-1.21586695E-1,3.1858626E-1,-6.2176293E-1,-1.5598255E-1,4.2290348E-1,5.2208968E-2,4.930402E-1,8.333113E-1,1.4943269E-1,-3.5518757E-1,1.7682791E-1,6.708754E-1,-5.385789E-1,-2.1497107E-1,-6.6719013E-1,-1.0309011E0,3.419154E-1,-2.6377544E-1,6.4430624E-1,1.9135374E-1,-1.0408796E0,-5.3798217E-1,-7.901368E-2,-3.5418746E-1,7.026235E-1,3.2372615E-1,2.1595551E-1,-2.0938763E-2,7.5581855E-1,3.9480636E-1,7.431142E-1,1.1221457E0,1.9964737E-1,-9.2406595E-1,-2.4336712E-1,-7.25018E-1,1.2344424E-1,6.45863E-1,7.067298E-1,-2.1841411E-1,-4.2819E-1,-6.885677E-1,-3.2581112E-1,-8.494897E-2,-5.534366E-1,-8.646117E-1,-1.0428177E0,7.655508E-2,-2.5759777E-2,6.601418E-2,-7.284217E-2,-8.572417E-3,1.04078166E-1,5.4469276E-2,1.1560047E-2,3.830335E-2,-1.1368837E-1,-6.268164E-2,-3.849895E-2,-6.9713704E-2,-2.006946E-2,4.5522726E-3,-4.0810015E-2,4.9147643E-3,8.202383E-2,2.4861114E-2,4.4768553E-2,2.1818118E-2,-5.8385236E-3,2.8054899E-2,3.277799E-2,-5.1818104E-3,6.4872295E-2,1.0438041E-1,4.082868E-2,-5.6803282E-2,7.5860135E-2,-6.421218E-2,-2.3267312E-2,1.1309834E-1,4.03559E-2,-8.251866E-3,-1.4166983E-2,-1.4111812E-1,-1.8391194E-2,-8.045011E-2,-8.281627E-2,5.729776E-3,1.4773599E-2,-7.1504936E-2,-7.2059825E-2,7.239502E-2,5.4149825E-2,8.9518726E-2,-9.547479E-2,5.790025E-2,-4.7232486E-2,4.151217E-3,-2.9452592E-2,-7.482264E-2,-1.3098392E-2,-4.3535277E-2,-2.9542511E-2,1.0625275E-4,-5.773921E-2,3.0562967E-2,-9.094687E-2,-1.3695093E-2,-1.08073525E-1,-4.1257452E-2],"categories":[],"categories_nodes":[],"categories_segments":[],"categories_sizes":[],"default_left":[0,0,0,0,0,0,0,0,0,0,0,0,0,0,0,0,0,0,0,0,0,0,0,0,0,0,0,0,0,0,0,0,0,0,0,0,0,0,0,0,0,0,0,0,0,0,0,0,0,0,0,0,0,0,0,0,0,0,0,0,0,0,0,0,0,0,0,0,0,0,0,0,0,0,0,0,0,0,0,0,0,0,0,0,0,0,0,0,0,0,0,0,0,0,0,0,0,0,0,0,0,0,0,0,0,0,0,0,0,0,0,0,0,0,0,0,0,0,0,0,0,0,0,0,0],"id":7,"left_children":[1,3,5,7,9,11,13,15,17,19,21,23,25,27,29,31,33,35,37,39,41,43,45,47,49,51,53,55,57,59,61,63,65,67,69,71,73,75,77,79,81,83,85,87,89,91,93,95,97,99,101,103,105,107,109,111,113,115,117,119,121,123,-1,-1,-1,-1,-1,-1,-1,-1,-1,-1,-1,-1,-1,-1,-1,-1,-1,-1,-1,-1,-1,-1,-1,-1,-1,-1,-1,-1,-1,-1,-1,-1,-1,-1,-1,-1,-1,-1,-1,-1,-1,-1,-1,-1,-1,-1,-1,-1,-1,-1,-1,-1,-1,-1,-1,-1,-1,-1,-1,-1,-1,-1,-1],"loss_changes":[8.003343E2,8.380196E2,4.2625153E2,4.1026392E2,2.946065E2,1.11068436E2,1.3967133E2,1.8339163E2,2.4668298E2,2.823569E2,5.9130005E1,3.3590584E1,5.4180786E1,9.657602E1,2.7245361E1,1.0316512E2,9.92617E1,5.1661194E1,7.373637E1,9.773419E1,5.8890747E1,3.6487823E1,2.0109436E1,1.020797E1,1.8681358E1,2.0123428E1,9.942596E0,2.6983643E1,3.0251999E1,1.989151E1,6.6567383E0,7.029944E1,9.9000015E1,2.6021057E1,2.5017128E1,9.0937805E0,2.9961578E1,5.280545E1,2.9422913E1,4.9106567E1,3.4033234E1,2.69188E1,3.66201E1,1.1248749E1,1.3722656E1,1.3692932E1,2.5302582E0,1.0301277E1,3.034586E0,1.1583637E1,8.549187E0,1.4886201E1,9.294228E0,8.711395E0,7.9870763E0,1.9748535E1,1.616098E1,2.4140999E1,1.7528305E1,1.2076462E1,1.0640503E1,6.060791E0,0E0,0E0,0E0,0E0,0E0,0E0,0E0,0E0,0E0,0E0,0E0,0E0,0E0,0E0,0E0,0E0,0E0,0E0,0E0,0E0,0E0,0E0,0E0,0E0,0E0,0E0,0E0,0E0,0E0,0E0,0E0,0E0,0E0,0E0,0E0,0E0,0E0,0E0,0E0,0E0,0E0,0E0,0E0,0E0,0E0,0E0,0E0,0E0,0E0,0E0,0E0,0E0,0E0,0E0,0E0,0E0,0E0,0E0,0E0,0E0,0E0,0E0,0E0],"parents":[2147483647,0,0,1,1,2,2,3,3,4,4,5,5,6,6,7,7,8,8,9,9,10,10,11,11,12,12,13,13,14,14,15,15,16,16,17,17,18,18,19,19,20,20,21,21,22,22,23,23,24,24,25,25,26,26,27,27,28,28,29,29,30,30,31,31,32,32,33,33,34,34,35,35,36,36,37,37,38,38,39,39,40,40,41,41,42,42,43,43,44,44,45,45,46,46,47,47,48,48,49,49,50,50,51,51,52,52,53,53,54,54,55,55,56,56,57,57,58,58,59,59,60,60,61,61],"right_children":[2,4,6,8,10,12,14,16,18,20,22,24,26,28,30,32,34,36,38,40,42,44,46,48,50,52,54,56,58,60,62,64,66,68,70,72,74,76,78,80,82,84,86,88,90,92,94,96,98,100,102,104,106,108,110,112,114,116,118,120,122,124,-1,-1,-1,-1,-1,-1,-1,-1,-1,-1,-1,-1,-1,-1,-1,-1,-1,-1,-1,-1,-1,-1,-1,-1,-1,-1,-1,-1,-1,-1,-1,-1,-1,-1,-1,-1,-1,-1,-1,-1,-1,-1,-1,-1,-1,-1,-1,-1,-1,-1,-1,-1,-1,-1,-1,-1,-1,-1,-1,-1,-1,-1,-1],"split_conditions":[4.363789E-2,-3.7281504E-1,-5.705147E-1,-9.0676033E-1,3.5780707E-1,-6.348967E-1,1.1511236E0,-1.0521678E0,-5.757617E-1,-3.5968527E-1,1.2032533E0,-6.629263E-1,2.2825887E0,-2.385108E-1,3.557839E0,-6.7044246E-1,-6.2151474E-1,-6.910498E-1,1.3566743E-2,-1.027856E0,-4.6179506E-1,-3.6497477E-1,3.5282304E0,1.7501159E0,2.9440818E0,1.001767E0,1.4918004E0,1.0065511E0,-9.216544E-2,-2.8784367E-1,3.4877293E0,-6.9568783E-1,-6.5195787E-1,-6.9953465E-1,-3.6373755E-1,-1.100693E0,-4.2237765E-1,-4.3198282E-1,-2.1797097E-1,-5.163863E-1,-2.711388E-1,-3.1083164E-1,-5.479909E-1,9.438468E-1,4.539219E-1,3.2757828E0,1.2527791E0,-6.67306E-1,4.488102E-1,-4.580101E-1,1.1802725E0,4.4280654E-1,-1.3018905E-1,3.9920332E0,-4.0301493E-1,7.3082376E-1,-3.2045954E-1,-4.7810298E-1,-3.4527266E-1,1.2802644E0,1.0412087E0,1.0591822E0,7.655508E-2,-2.5759777E-2,6.601418E-2,-7.284217E-2,-8.572417E-3,1.04078166E-1,5.4469276E-2,1.1560047E-2,3.830335E-2,-1.1368837E-1,-6.268164E-2,-3.849895E-2,-6.9713704E-2,-2.006946E-2,4.5522726E-3,-4.0810015E-2,4.9147643E-3,8.202383E-2,2.4861114E-2,4.4768553E-2,2.1818118E-2,-5.8385236E-3,2.8054899E-2,3.277799E-2,-5.1818104E-3,6.4872295E-2,1.0438041E-1,4.082868E-2,-5.6803282E-2,7.5860135E-2,-6.421218E-2,-2.3267312E-2,1.1309834E-1,4.03559E-2,-8.251866E-3,-1.4166983E-2,-1.4111812E-1,-1.8391194E-2,-8.045011E-2,-8.281627E-2,5.729776E-3,1.4773599E-2,-7.1504936E-2,-7.2059825E-2,7.239502E-2,5.4149825E-2,8.9518726E-2,-9.547479E-2,5.790025E-2,-4.7232486E-2,4.151217E-3,-2.9452592E-2,-7.482264E-2,-1.3098392E-2,-4.3535277E-2,-2.9542511E-2,1.0625275E-4,-5.773921E-2,3.0562967E-2,-9.094687E-2,-1.3695093E-2,-1.08073525E-1,-4.1257452E-2],"split_indices":[11,21,0,25,2,9,11,21,2,11,2,0,2,2,11,11,11,2,25,25,0,11,2,6,25,55,15,25,23,0,37,2,2,11,2,21,25,2,2,11,3,23,19,55,3,46,21,3,55,3,54,19,21,2,6,53,0,0,5,5,50,50,0,0,0,0,0,0,0,0,0,0,0,0,0,0,0,0,0,0,0,0,0,0,0,0,0,0,0,0,0,0,0,0,0,0,0,0,0,0,0,0,0,0,0,0,0,0,0,0,0,0,0,0,0,0,0,0,0,0,0,0,0,0,0],"split_type":[0,0,0,0,0,0,0,0,0,0,0,0,0,0,0,0,0,0,0,0,0,0,0,0,0,0,0,0,0,0,0,0,0,0,0,0,0,0,0,0,0,0,0,0,0,0,0,0,0,0,0,0,0,0,0,0,0,0,0,0,0,0,0,0,0,0,0,0,0,0,0,0,0,0,0,0,0,0,0,0,0,0,0,0,0,0,0,0,0,0,0,0,0,0,0,0,0,0,0,0,0,0,0,0,0,0,0,0,0,0,0,0,0,0,0,0,0,0,0,0,0,0,0,0,0],"sum_hessian":[2.763017E4,2.0953059E4,6.6771123E3,1.028058E4,1.0672479E4,1.7518075E3,4.9253047E3,3.9601584E3,6.320422E3,8.445508E3,2.2269705E3,6.3994836E2,1.1118591E3,3.7465933E3,1.1787112E3,1.5629978E3,2.3971606E3,1.4861931E3,4.8342285E3,3.5301812E3,4.9153267E3,1.4240657E3,8.0290485E2,1.849458E2,4.5500256E2,8.058736E2,3.059856E2,1.6465385E3,2.100055E3,9.060529E2,2.726583E2,3.6659128E2,1.1964066E3,6.722111E2,1.7249495E3,2.4569078E2,1.2405023E3,3.483054E3,1.3511748E3,9.224412E2,2.60774E3,1.5171417E3,3.398185E3,3.8567633E2,1.0383893E3,6.145623E2,1.8834256E2,1.7745888E2,7.4869123E0,3.5064194E2,1.04360634E2,7.2465906E2,8.121455E1,2.9432428E2,1.166131E1,9.506975E2,6.9584094E2,1.1328378E3,9.672171E2,5.7724817E2,3.288048E2,2.712783E2,1.3799999E0,1.2718165E2,2.3940962E2,3.3059305E2,8.6581354E2,1.3308118E2,5.3912994E2,1.237488E3,4.8746146E2,1.9803012E2,4.7660664E1,6.3423883E2,6.0626355E2,1.761415E3,1.7216389E3,1.1918516E3,1.5932332E2,7.3200415E2,1.9043704E2,1.1977626E3,1.4099775E3,2.891525E2,1.2279893E3,2.756516E2,3.1225334E3,2.8350104E2,1.0217528E2,1.0246199E3,1.3769452E1,6.082148E2,6.347548E0,1.0564831E0,1.8728607E2,1.02764404E2,7.469448E1,3.3680472E0,4.118865E0,3.1824942E2,3.239251E1,9.215219E1,1.2208442E1,7.050568E2,1.9602175E1,3.9453905E0,7.726916E1,1.5888976E2,1.3543454E2,5.960286E0,5.701024E0,8.6903436E2,8.1663124E1,9.2279236E1,6.035617E2,4.084959E2,7.243418E2,2.7988477E2,6.8733234E2,5.61907E2,1.5341197E1,3.0947708E2,1.9327715E1,2.5520927E2,1.6069017E1],"tree_param":{"num_deleted":"0","num_feature":"74","num_nodes":"125","size_leaf_vector":"1"}},{"base_weights":[-1.486437E-3,7.557693E-2,-3.249671E-1,-4.1173156E-2,3.6398348E-1,-4.514293E-1,1.1801935E-1,1.856737E-1,-1.6747534E-1,2.1046083E-1,5.1557803E-1,-3.7177625E-1,-7.5344276E-1,2.6197436E-1,-3.5334182E-1,-1.4175165E-1,3.1518525E-1,-5.398662E-1,-1.0214033E-1,4.425421E-1,9.60953E-2,4.5047644E-1,8.3923113E-1,-5.5500096E-1,-2.3848645E-1,-8.0567575E-1,-3.0230364E-1,7.030289E-2,5.175876E-1,-1.3106517E-1,-6.713759E-1,4.607119E-1,-2.4686119E-1,6.226194E-1,1.8694654E-1,-8.090017E-1,-3.2227844E-1,-2.2584067E-1,2.6925964E-2,4.864395E-1,-1.3739383E-3,1.594467E-1,-9.373699E-2,5.307458E-1,2.0437427E-1,6.5270513E-1,9.6923697E-1,-4.712087E-1,-8.112581E-1,-3.4464964E-1,-1.4103754E-1,-7.0231956E-1,-1.0234509E0,-4.822413E-1,8.4528744E-2,2.3876548E-1,-1.04355626E-1,4.7537363E-1,1.118099E0,2.2173351E-1,-2.901701E-1,-7.461613E-1,7.2314315E-2,-1.0006017E-2,8.48843E-2,-8.911542E-2,-1.2821537E-2,9.048005E-2,4.7565043E-2,1.0540455E-2,3.331187E-2,-6.2189918E-2,-9.576445E-2,-4.3305404E-2,-1.0266197E-2,-5.299894E-3,-3.3583704E-2,1.5605703E-2,-1.1110695E-2,6.994077E-2,4.0193353E-2,-6.1740585E-2,2.6872186E-2,1.1524334E-2,4.246711E-2,-1.3767219E-2,4.2473733E-2,7.624795E-2,4.721939E-2,2.2610854E-2,-9.882944E-2,1.2074049E-2,8.298802E-2,9.858772E-2,-4.0962577E-2,-5.3550877E-2,-7.2453083E-3,-8.4384955E-2,-6.197479E-3,-2.2653136E-2,-4.892446E-2,-1.819064E-2,2.561647E-2,-9.322059E-2,-6.334114E-2,-1.0872467E-1,-7.107294E-2,2.4458634E-2,-6.512614E-2,9.487932E-2,-2.9656315E-2,3.31497E-2,-2.461556E-2,-7.824383E-3,-1.22628294E-1,3.2998785E-2,6.787761E-2,1.2524581E-1,-1.362108E-2,3.3352982E-2,-7.54754E-2,-1.0106249E-2,-9.095629E-2,3.6653023E-2,-7.9243325E-2,1.0959865E-1,-4.083855E-2],"categories":[],"categories_nodes":[],"categories_segments":[],"categories_sizes":[],"default_left":[0,0,0,0,0,0,0,0,0,0,0,0,0,0,0,0,0,0,0,0,0,0,0,0,0,0,0,0,0,0,0,0,0,0,0,0,0,0,0,0,0,0,0,0,0,0,0,0,0,0,0,0,0,0,0,0,0,0,0,0,0,0,0,0,0,0,0,0,0,0,0,0,0,0,0,0,0,0,0,0,0,0,0,0,0,0,0,0,0,0,0,0,0,0,0,0,0,0,0,0,0,0,0,0,0,0,0,0,0,0,0,0,0,0,0,0,0,0,0,0,0,0,0,0,0,0,0],"id":8,"left_children":[1,3,5,7,9,11,13,15,17,19,21,23,25,27,29,31,33,35,37,39,41,43,45,47,49,51,53,55,57,59,61,63,65,67,69,71,73,75,77,79,81,83,85,87,89,91,93,95,97,99,101,103,105,107,109,111,113,115,117,119,121,123,125,-1,-1,-1,-1,-1,-1,-1,-1,-1,-1,-1,-1,-1,-1,-1,-1,-1,-1,-1,-1,-1,-1,-1,-1,-1,-1,-1,-1,-1,-1,-1,-1,-1,-1,-1,-1,-1,-1,-1,-1,-1,-1,-1,-1,-1,-1,-1,-1,-1,-1,-1,-1,-1,-1,-1,-1,-1,-1,-1,-1,-1,-1,-1,-1],"loss_changes":[6.8472125E2,7.46942E2,2.9610425E2,4.5247665E2,1.4866077E2,9.8621155E1,7.978101E1,2.3955974E2,2.4675613E2,8.429875E1,6.737689E1,7.93663E1,1.9951935E1,4.406865E1,1.9364857E1,1.0153389E2,1.5946149E2,8.839407E1,1.3781035E2,2.0436295E1,2.563E1,5.2820007E1,1.2397644E1,2.9036377E1,1.9464386E1,1.6556458E1,6.3422832E0,1.5195965E1,9.243584E0,9.226024E0,6.336609E0,5.1943832E1,1.0417845E2,4.896167E1,3.4025795E1,1.8208313E1,2.0361458E1,8.377551E1,7.532431E1,1.6893997E1,1.6033817E1,1.8678257E1,1.2213116E1,2.7044556E1,1.7347134E1,2.098922E1,7.621826E0,2.6494873E1,8.158203E0,1.5294945E1,1.6038288E1,7.7049866E0,4.111786E0,7.768387E0,1.0028172E1,1.1897479E1,7.3406105E0,1.0481583E1,4.3141747E0,5.8516307E0,1.3134664E1,5.5796165E0,5.9752107E0,0E0,0E0,0E0,0E0,0E0,0E0,0E0,0E0,0E0,0E0,0E0,0E0,0E0,0E0,0E0,0E0,0E0,0E0,0E0,0E0,0E0,0E0,0E0,0E0,0E0,0E0,0E0,0E0,0E0,0E0,0E0,0E0,0E0,0E0,0E0,0E0,0E0,0E0,0E0,0E0,0E0,0E0,0E0,0E0,0E0,0E0,0E0,0E0,0E0,0E0,0E0,0E0,0E0,0E0,0E0,0E0,0E0,0E0,0E0,0E0,0E0,0E0,0E0,0E0],"parents":[2147483647,0,0,1,1,2,2,3,3,4,4,5,5,6,6,7,7,8,8,9,9,10,10,11,11,12,12,13,13,14,14,15,15,16,16,17,17,18,18,19,19,20,20,21,21,22,22,23,23,24,24,25,25,26,26,27,27,28,28,29,29,30,30,31,31,32,32,33,33,34,34,35,35,36,36,37,37,38,38,39,39,40,40,41,41,42,42,43,43,44,44,45,45,46,46,47,47,48,48,49,49,50,50,51,51,52,52,53,53,54,54,55,55,56,56,57,57,58,58,59,59,60,60,61,61,62,62],"right_children":[2,4,6,8,10,12,14,16,18,20,22,24,26,28,30,32,34,36,38,40,42,44,46,48,50,52,54,56,58,60,62,64,66,68,70,72,74,76,78,80,82,84,86,88,90,92,94,96,98,100,102,104,106,108,110,112,114,116,118,120,122,124,126,-1,-1,-1,-1,-1,-1,-1,-1,-1,-1,-1,-1,-1,-1,-1,-1,-1,-1,-1,-1,-1,-1,-1,-1,-1,-1,-1,-1,-1,-1,-1,-1,-1,-1,-1,-1,-1,-1,-1,-1,-1,-1,-1,-1,-1,-1,-1,-1,-1,-1,-1,-1,-1,-1,-1,-1,-1,-1,-1,-1,-1,-1,-1,-1],"split_conditions":[1.7256907E-1,-1.2057238E-1,5.8639556E-1,-8.341029E-1,3.555721E-1,1.6205654E0,2.466883E0,-1.2462554E0,-1.2130057E0,-3.352214E-1,1.9181721E0,-2.252593E-1,3.4124267E-1,1.9181721E0,-6.299317E-1,-6.929228E-1,-6.0829103E-1,-6.1087817E-1,4.7891874E-2,5.298726E-1,4.979494E-1,3.5974374E-1,6.60019E-1,1.9191834E0,2.5033632E-1,3.557839E0,5.0109863E-1,9.651008E-1,2.8677177E0,-4.6676004E-1,1.1184195E0,-6.9568783E-1,-6.910498E-1,-6.8366617E-1,-3.7301362E-1,-4.2237765E-1,3.388825E-1,-1.7959032E-2,1.3841796E-1,-5.163863E-1,9.447269E-1,1.029493E-1,1.5201911E0,-4.145637E-1,4.6887162E-1,-5.389035E-1,3.3301914E0,-3.891748E-1,1.7793988E0,4.3921047E-1,-3.2952338E-1,-3.9205933E-1,4.93751E-1,-5.380838E-1,5.931523E-1,2.500769E0,1.091166E0,3.9920332E0,7.6143336E-1,1.4291337E0,9.138023E-1,1.3456191E0,1.6115638E0,-1.0006017E-2,8.48843E-2,-8.911542E-2,-1.2821537E-2,9.048005E-2,4.7565043E-2,1.0540455E-2,3.331187E-2,-6.2189918E-2,-9.576445E-2,-4.3305404E-2,-1.0266197E-2,-5.299894E-3,-3.3583704E-2,1.5605703E-2,-1.1110695E-2,6.994077E-2,4.0193353E-2,-6.1740585E-2,2.6872186E-2,1.1524334E-2,4.246711E-2,-1.3767219E-2,4.2473733E-2,7.624795E-2,4.721939E-2,2.2610854E-2,-9.882944E-2,1.2074049E-2,8.298802E-2,9.858772E-2,-4.0962577E-2,-5.3550877E-2,-7.2453083E-3,-8.4384955E-2,-6.197479E-3,-2.2653136E-2,-4.892446E-2,-1.819064E-2,2.561647E-2,-9.322059E-2,-6.334114E-2,-1.0872467E-1,-7.107294E-2,2.4458634E-2,-6.512614E-2,9.487932E-2,-2.9656315E-2,3.31497E-2,-2.461556E-2,-7.824383E-3,-1.22628294E-1,3.2998785E-2,6.787761E-2,1.2524581E-1,-1.362108E-2,3.3352982E-2,-7.54754E-2,-1.0106249E-2,-9.095629E-2,3.6653023E-2,-7.9243325E-2,1.0959865E-1,-4.083855E-2],"split_indices":[11,2,2,25,18,11,11,20,20,11,2,2,2,2,3,11,11,2,18,57,25,22,18,63,18,11,55,54,36,17,50,2,2,11,2,25,23,22,22,11,52,12,39,11,3,19,46,12,36,22,12,5,18,8,55,41,51,2,6,47,22,25,52,0,0,0,0,0,0,0,0,0,0,0,0,0,0,0,0,0,0,0,0,0,0,0,0,0,0,0,0,0,0,0,0,0,0,0,0,0,0,0,0,0,0,0,0,0,0,0,0,0,0,0,0,0,0,0,0,0,0,0,0,0,0,0,0],"split_type":[0,0,0,0,0,0,0,0,0,0,0,0,0,0,0,0,0,0,0,0,0,0,0,0,0,0,0,0,0,0,0,0,0,0,0,0,0,0,0,0,0,0,0,0,0,0,0,0,0,0,0,0,0,0,0,0,0,0,0,0,0,0,0,0,0,0,0,0,0,0,0,0,0,0,0,0,0,0,0,0,0,0,0,0,0,0,0,0,0,0,0,0,0,0,0,0,0,0,0,0,0,0,0,0,0,0,0,0,0,0,0,0,0,0,0,0,0,0,0,0,0,0,0,0,0,0,0],"sum_hessian":[2.7465412E4,2.2181775E4,5.2836377E3,1.5790477E4,6.3912983E3,4.110241E3,1.1733965E3,5.6472256E3,1.0143251E4,3.1766416E3,3.2146567E3,3.254207E3,8.5603406E2,8.992172E2,2.7417926E2,1.60059E3,4.0466355E3,1.5128984E3,8.630353E3,1.0476936E3,2.128948E3,2.6783157E3,5.363412E2,1.3690709E3,1.8851361E3,7.665024E2,8.9531624E1,5.146112E2,3.84606E2,1.6221674E2,1.1196252E2,2.3726408E2,1.3633259E3,1.1899774E3,2.856658E3,6.751204E2,8.37778E2,4.4063994E3,4.2239526E3,9.5332654E2,9.436712E1,1.5963645E3,5.3258344E2,2.0187256E3,6.5959E2,2.2275865E2,3.1358252E2,1.0338546E3,3.3521637E2,9.010135E2,9.8412256E2,5.226687E2,2.4383372E2,6.093886E1,2.8592764E1,2.6176508E2,2.5284615E2,3.6101913E2,2.3586857E1,5.029629E1,1.1192044E2,1.0172931E2,1.0233209E1,9.735202E1,1.3991208E2,2.1100043E2,1.1523254E3,4.0575995E2,7.842175E2,1.8348241E3,1.02183386E3,3.0118762E2,3.7393283E2,5.5623737E2,2.8154065E2,1.7142347E3,2.6921648E3,2.1822795E3,2.0416732E3,2.6875235E2,6.8457416E2,2.8371588E1,6.599553E1,1.3695452E3,2.268194E2,4.9165533E2,4.09281E1,4.0476144E2,1.6139642E3,6.485812E2,1.1008823E1,5.607523E1,1.6668343E2,3.101249E2,3.4576163E0,8.899979E2,1.4385669E2,3.2112234E2,1.4094019E1,4.9732224E2,4.0369122E2,8.9280255E2,9.132002E1,1.1764885E2,4.0501984E2,2.004623E2,4.3371433E1,1.141302E1,4.9525845E1,8.293826E0,2.0298939E1,2.2000911E2,4.175598E1,2.4814066E2,4.7054987E0,2.1206442E2,1.489547E2,2.130607E1,2.2807865E0,4.5720295E1,4.5759954E0,8.663344E1,2.5287004E1,3.7852407E0,9.794407E1,2.8608716E0,7.372337E0],"tree_param":{"num_deleted":"0","num_feature":"74","num_nodes":"127","size_leaf_vector":"1"}},{"base_weights":[3.8721988E-3,8.641661E-2,-2.3902729E-1,-1.4257693E-1,2.1142136E-1,-3.7668747E-1,9.082256E-2,8.581683E-2,-3.2953763E-1,1.1156941E-1,4.4330704E-1,-3.1013E-1,-7.679901E-1,1.963332E-1,-2.9623413E-1,-2.1247527E-1,2.3888002E-1,-4.2524457E-1,-1.2378037E-1,3.2941282E-1,-6.1153355E-3,3.6168554E-1,6.945974E-1,-5.899288E-1,-2.4104595E-1,-6.83785E-1,-1.0377296E0,3.714017E-2,4.5106938E-1,-4.0705374E-1,2.2063808E-1,2.6288116E-1,-4.3539825E-1,5.498426E-1,1.2648624E-1,-6.9835025E-1,-3.5070297E-1,-1.911163E-1,2.2032851E-1,5.0993246E-1,2.0983267E-1,-1.1613103E-1,1.279181E-1,5.413087E-1,2.4354799E-1,5.885647E-1,9.5315725E-1,-5.014184E-1,-8.752224E-1,-1.1620086E-1,-3.3660918E-1,-5.713113E-1,-9.4108707E-1,-1.0682819E0,-3.1164297E-1,-3.8064096E-2,3.2049564E-1,4.0550205E-1,1.0631654E0,-3.0773962E-1,-7.3541814E-1,-5.556621E-2,4.8908624E-1,-9.733834E-3,4.9707443E-2,-8.546499E-2,-2.7163444E-2,1.0083809E-1,4.2732235E-2,8.456207E-3,4.3137323E-2,-7.684069E-2,-1.2483825E-2,-3.0863618E-2,-6.933242E-2,-1.970615E-3,-2.8480679E-2,-4.295147E-3,5.3975966E-2,8.198514E-2,3.874981E-2,3.121368E-2,1.3252615E-3,4.49231E-3,-2.1703735E-2,2.2765111E-2,-4.1103195E-3,5.5627476E-2,-4.854169E-2,2.6482537E-2,-2.374337E-2,6.6950634E-2,3.1523574E-2,1.0023563E-1,6.285869E-2,-6.76661E-2,-3.7149236E-2,-8.999558E-2,4.468346E-2,2.4040113E-3,-2.5163466E-2,-4.5950424E-2,-1.903573E-2,-4.063139E-2,-7.5812E-2,-1.0062762E-1,-4.124111E-2,4.608165E-3,-1.0877488E-1,-8.1204854E-2,9.789727E-2,6.9139935E-3,-1.833831E-2,3.5527002E-2,-1.02932595E-1,2.8889973E-2,6.3186444E-2,1.1121779E-1,-1.857829E-2,-2.353591E-2,-8.75873E-2,-7.8444E-2,4.876166E-2,1.4614944E-2,-1.0664778E-1,7.100932E-2,-2.8946355E-2],"categories":[],"categories_nodes":[],"categories_segments":[],"categories_sizes":[],"default_left":[0,0,0,0,0,0,0,0,0,0,0,0,0,0,0,0,0,0,0,0,0,0,0,0,0,0,0,0,0,0,0,0,0,0,0,0,0,0,0,0,0,0,0,0,0,0,0,0,0,0,0,0,0,0,0,0,0,0,0,0,0,0,0,0,0,0,0,0,0,0,0,0,0,0,0,0,0,0,0,0,0,0,0,0,0,0,0,0,0,0,0,0,0,0,0,0,0,0,0,0,0,0,0,0,0,0,0,0,0,0,0,0,0,0,0,0,0,0,0,0,0,0,0,0,0,0,0],"id":9,"left_children":[1,3,5,7,9,11,13,15,17,19,21,23,25,27,29,31,33,35,37,39,41,43,45,47,49,51,53,55,57,59,61,63,65,67,69,71,73,75,77,79,81,83,85,87,89,91,93,95,97,99,101,103,105,107,109,111,113,115,117,119,121,123,125,-1,-1,-1,-1,-1,-1,-1,-1,-1,-1,-1,-1,-1,-1,-1,-1,-1,-1,-1,-1,-1,-1,-1,-1,-1,-1,-1,-1,-1,-1,-1,-1,-1,-1,-1,-1,-1,-1,-1,-1,-1,-1,-1,-1,-1,-1,-1,-1,-1,-1,-1,-1,-1,-1,-1,-1,-1,-1,-1,-1,-1,-1,-1,-1],"loss_changes":[5.4547595E2,5.812772E2,3.133611E2,3.062296E2,3.040929E2,1.2656366E2,8.3068756E1,1.4745952E2,7.7600525E1,2.3542747E2,8.0835815E1,8.0320435E1,1.5350433E1,6.4779495E1,2.5052448E1,1.1619169E2,7.452038E1,5.453781E1,2.9082346E1,6.942203E1,8.7946175E1,6.323642E1,2.5982666E1,2.0357697E1,3.9810074E1,1.5141541E1,3.3558807E0,2.098975E1,1.6706215E1,1.1488071E1,5.7802086E0,2.960221E1,5.0992035E1,3.138324E1,2.0017237E1,2.3046295E1,3.0284058E1,1.683646E1,1.7312197E1,4.835559E1,3.8994965E1,5.324158E1,4.53315E1,1.8463043E1,1.8517326E1,1.5037201E1,3.8404694E0,1.4113571E1,6.734833E0,2.7540697E1,3.3907562E1,1.139048E1,5.211212E0,3.5027466E0,6.043156E0,1.2146094E1,1.0062321E1,1.495388E1,2.7748528E0,1.1205879E1,5.3405724E0,8.137272E0,6.9934196E0,0E0,0E0,0E0,0E0,0E0,0E0,0E0,0E0,0E0,0E0,0E0,0E0,0E0,0E0,0E0,0E0,0E0,0E0,0E0,0E0,0E0,0E0,0E0,0E0,0E0,0E0,0E0,0E0,0E0,0E0,0E0,0E0,0E0,0E0,0E0,0E0,0E0,0E0,0E0,0E0,0E0,0E0,0E0,0E0,0E0,0E0,0E0,0E0,0E0,0E0,0E0,0E0,0E0,0E0,0E0,0E0,0E0,0E0,0E0,0E0,0E0,0E0,0E0,0E0],"parents":[2147483647,0,0,1,1,2,2,3,3,4,4,5,5,6,6,7,7,8,8,9,9,10,10,11,11,12,12,13,13,14,14,15,15,16,16,17,17,18,18,19,19,20,20,21,21,22,22,23,23,24,24,25,25,26,26,27,27,28,28,29,29,30,30,31,31,32,32,33,33,34,34,35,35,36,36,37,37,38,38,39,39,40,40,41,41,42,42,43,43,44,44,45,45,46,46,47,47,48,48,49,49,50,50,51,51,52,52,53,53,54,54,55,55,56,56,57,57,58,58,59,59,60,60,61,61,62,62],"right_children":[2,4,6,8,10,12,14,16,18,20,22,24,26,28,30,32,34,36,38,40,42,44,46,48,50,52,54,56,58,60,62,64,66,68,70,72,74,76,78,80,82,84,86,88,90,92,94,96,98,100,102,104,106,108,110,112,114,116,118,120,122,124,126,-1,-1,-1,-1,-1,-1,-1,-1,-1,-1,-1,-1,-1,-1,-1,-1,-1,-1,-1,-1,-1,-1,-1,-1,-1,-1,-1,-1,-1,-1,-1,-1,-1,-1,-1,-1,-1,-1,-1,-1,-1,-1,-1,-1,-1,-1,-1,-1,-1,-1,-1,-1,-1,-1,-1,-1,-1,-1,-1,-1,-1,-1,-1,-1],"split_conditions":[1.0578614E-2,-4.37946E-1,2.650465E-1,-5.01179E-1,3.515378E-1,1.6205654E0,2.1164546E0,-6.1087817E-1,-8.306335E-1,-4.145637E-1,8.149841E-1,-3.9819148E-1,2.968301E0,1.3748603E0,3.9920332E0,-6.7044246E-1,-6.320937E-1,-6.353935E-1,3.2724994E-1,-1.0036368E0,-1.7887902E-1,2.7470062E-2,1.9191834E0,1.9191834E0,3.234377E-1,1.9191834E0,1.7465149E0,1.5418214E-1,4.0937634E0,5.475277E0,8.351717E-1,-6.9568783E-1,-6.910498E-1,-6.9953465E-1,-4.2333817E-3,2.7164834E0,4.9016538E-1,-5.9191155E-1,1.4828615E-1,-6.373832E-1,1.17035836E-1,1.2461857E-2,2.1368809E-1,1.1616459E0,1.5225524E0,9.297071E-2,2.0681276E0,-1.0135071E0,1.7453818E0,-3.0851305E-1,2.223905E-1,2.1975746E0,4.4650185E-1,1.7693322E0,2.4902563E0,5.659745E-1,2.9603314E0,3.5282304E0,2.5081375E0,8.291441E-2,1.5086755E0,1.1800507E-1,-4.059675E-1,-9.733834E-3,4.9707443E-2,-8.546499E-2,-2.7163444E-2,1.0083809E-1,4.2732235E-2,8.456207E-3,4.3137323E-2,-7.684069E-2,-1.2483825E-2,-3.0863618E-2,-6.933242E-2,-1.970615E-3,-2.8480679E-2,-4.295147E-3,5.3975966E-2,8.198514E-2,3.874981E-2,3.121368E-2,1.3252615E-3,4.49231E-3,-2.1703735E-2,2.2765111E-2,-4.1103195E-3,5.5627476E-2,-4.854169E-2,2.6482537E-2,-2.374337E-2,6.6950634E-2,3.1523574E-2,1.0023563E-1,6.285869E-2,-6.76661E-2,-3.7149236E-2,-8.999558E-2,4.468346E-2,2.4040113E-3,-2.5163466E-2,-4.5950424E-2,-1.903573E-2,-4.063139E-2,-7.5812E-2,-1.0062762E-1,-4.124111E-2,4.608165E-3,-1.0877488E-1,-8.1204854E-2,9.789727E-2,6.9139935E-3,-1.833831E-2,3.5527002E-2,-1.02932595E-1,2.8889973E-2,6.3186444E-2,1.1121779E-1,-1.857829E-2,-2.353591E-2,-8.75873E-2,-7.8444E-2,4.876166E-2,1.4614944E-2,-1.0664778E-1,7.100932E-2,-2.8946355E-2],"split_indices":[11,2,2,11,18,11,11,2,20,11,2,2,25,2,2,11,11,2,18,25,2,22,63,63,22,63,47,23,37,11,18,2,2,11,52,72,57,25,23,11,22,22,22,24,57,14,43,20,37,3,18,57,5,11,24,11,43,2,25,19,59,6,23,0,0,0,0,0,0,0,0,0,0,0,0,0,0,0,0,0,0,0,0,0,0,0,0,0,0,0,0,0,0,0,0,0,0,0,0,0,0,0,0,0,0,0,0,0,0,0,0,0,0,0,0,0,0,0,0,0,0,0,0,0,0,0,0],"split_type":[0,0,0,0,0,0,0,0,0,0,0,0,0,0,0,0,0,0,0,0,0,0,0,0,0,0,0,0,0,0,0,0,0,0,0,0,0,0,0,0,0,0,0,0,0,0,0,0,0,0,0,0,0,0,0,0,0,0,0,0,0,0,0,0,0,0,0,0,0,0,0,0,0,0,0,0,0,0,0,0,0,0,0,0,0,0,0,0,0,0,0,0,0,0,0,0,0,0,0,0,0,0,0,0,0,0,0,0,0,0,0,0,0,0,0,0,0,0,0,0,0,0,0,0,0,0,0],"sum_hessian":[2.720376E4,2.0304377E4,6.899382E3,7.169882E3,1.3134495E4,4.8677314E3,2.0316504E3,3.227574E3,3.942308E3,9.182091E3,3.9524045E3,4.1616587E3,7.060726E2,1.5968469E3,4.3480353E2,1.0944003E3,2.1331736E3,2.6900012E3,1.2523069E3,3.2199395E3,5.962151E3,2.985217E3,9.671877E2,8.2257806E2,3.3390808E3,5.407886E2,1.6528401E2,9.834207E2,6.134262E2,3.582135E2,7.659003E1,3.493258E2,7.450745E2,5.652874E2,1.5678862E3,5.7498834E2,2.1150127E3,1.0477296E3,2.0457729E2,1.281742E3,1.9381975E3,3.2745269E3,2.687624E3,1.1829736E3,1.8022433E3,6.882285E2,2.7895914E2,6.2991034E2,1.9266774E2,1.448698E3,1.8903828E3,3.7853918E2,1.6224936E2,1.5815776E2,7.126245E0,7.778423E2,2.0557841E2,5.724712E2,4.095501E1,2.7651767E2,8.169583E1,3.814053E1,3.8449497E1,1.3786145E2,2.1146436E2,2.080997E2,5.369748E2,1.1767022E2,4.476172E2,1.3794757E3,1.8841057E2,5.120943E2,6.289409E1,1.8854227E3,2.2959003E2,3.707109E2,6.7701874E2,1.1261985E2,9.195744E1,3.613522E2,9.203897E2,1.2743914E3,6.638062E2,1.261551E3,2.012976E3,1.6900457E3,9.975784E2,1.1664293E3,1.6544287E1,1.7263246E3,7.591869E1,5.29868E2,1.5836055E2,2.4042648E2,3.853266E1,2.663938E2,3.635165E2,1.8944287E2,3.224866E0,7.12122E2,7.365759E2,1.0260521E3,8.643306E2,2.026898E2,1.7584938E2,1.4363487E2,1.8614496E1,2.6919575E0,1.554658E2,5.402399E0,1.7238463E0,4.4792526E2,3.2991702E2,2.0113356E2,4.444845E0,3.793428E2,1.9312837E2,3.9513878E1,1.4411312E0,2.4652455E2,2.9993105E1,7.889227E1,2.8035603E0,3.2509136E1,5.6313925E0,3.001661E1,8.432887E0],"tree_param":{"num_deleted":"0","num_feature":"74","num_nodes":"127","size_leaf_vector":"1"}},{"base_weights":[-1.2960668E-4,5.658714E-2,-2.9849997E-1,-2.2505693E-2,3.3469242E-1,-4.106245E-1,1.6671899E-1,2.5023606E-1,-8.8600375E-2,6.141701E-1,2.711541E-1,-5.624238E-1,-2.972032E-1,-9.877392E-2,3.7942836E-1,2.431539E-2,4.2214572E-1,-3.512012E-1,-1.484408E-2,5.641644E-1,9.045557E-1,1.5768316E-1,4.3432963E-1,-5.0197846E-1,-8.238687E-1,-4.475477E-1,-1.6271968E-1,-2.1238403E-1,2.220551E-1,4.033371E-1,-5.9281737E-1,5.156981E-1,-6.153707E-2,7.159266E-1,3.1252098E-1,-5.2610666E-1,-2.6914904E-1,1.1742517E-1,-1.05697654E-1,5.151613E-1,9.4490176E-1,1.1121857E0,7.391579E-1,-1.810015E-1,2.001906E-1,3.9196384E-1,8.6337477E-1,-7.7883345E-1,-4.5829624E-1,-7.0733005E-1,-1.0488575E0,-9.189524E-1,-4.180121E-1,-2.0136018E-1,3.0751443E-1,-9.268674E-2,-4.7625396E-1,-3.1903976E-1,3.6713782E-1,2.2938886E-1,5.1864654E-1,-9.6175796E-1,4.398873E-1,-7.7724457E-3,7.615593E-2,-3.595873E-2,4.7126138E-3,7.780256E-2,1.1034355E-2,4.167378E-2,1.5021174E-2,-5.4969322E-2,2.0933795E-1,-2.0587899E-2,-4.3198027E-2,9.021859E-3,5.989444E-2,-1.5600338E-2,5.4409043E-3,3.3267464E-2,5.8469605E-2,9.8308675E-2,-1.1162106E-1,1.1406564E-1,-1.0371836E-2,1.04569994E-1,4.970434E-2,-2.693525E-2,3.166657E-2,4.0841963E-2,1.3377452E-2,3.2164153E-2,6.5596715E-2,9.436229E-2,1.7228458E-2,-4.8987944E-2,-9.3591556E-2,-3.8327422E-2,-6.0311746E-2,-7.487283E-2,1.3213276E-2,-1.0895025E-1,-8.414696E-3,-1.0117495E-1,3.985318E-2,-2.1243688E-2,-4.9970116E-2,-2.4900107E-2,1.4143847E-2,-3.354629E-2,4.8513964E-2,-1.3689636E-2,8.65537E-2,-5.521367E-2,2.8042434E-2,2.6169015E-2,-1.0182861E-1,-2.2820443E-2,5.3416044E-2,4.1018467E-2,-1.2074694E-2,7.4998245E-2,4.234926E-2,-1.25041E-1,1.4715187E-2,1.2616514E-1,-6.665931E-2],"categories":[],"categories_nodes":[],"categories_segments":[],"categories_sizes":[],"default_left":[0,0,0,0,0,0,0,0,0,0,0,0,0,0,0,0,0,0,0,0,0,0,0,0,0,0,0,0,0,0,0,0,0,0,0,0,0,0,0,0,0,0,0,0,0,0,0,0,0,0,0,0,0,0,0,0,0,0,0,0,0,0,0,0,0,0,0,0,0,0,0,0,0,0,0,0,0,0,0,0,0,0,0,0,0,0,0,0,0,0,0,0,0,0,0,0,0,0,0,0,0,0,0,0,0,0,0,0,0,0,0,0,0,0,0,0,0,0,0,0,0,0,0,0,0,0,0],"id":10,"left_children":[1,3,5,7,9,11,13,15,17,19,21,23,25,27,29,31,33,35,37,39,41,43,45,47,49,51,53,55,57,59,61,63,65,67,69,71,73,75,77,79,81,83,85,87,89,91,93,95,97,99,101,103,105,107,109,111,113,115,117,119,121,123,125,-1,-1,-1,-1,-1,-1,-1,-1,-1,-1,-1,-1,-1,-1,-1,-1,-1,-1,-1,-1,-1,-1,-1,-1,-1,-1,-1,-1,-1,-1,-1,-1,-1,-1,-1,-1,-1,-1,-1,-1,-1,-1,-1,-1,-1,-1,-1,-1,-1,-1,-1,-1,-1,-1,-1,-1,-1,-1,-1,-1,-1,-1,-1,-1],"loss_changes":[4.576094E2,4.9980624E2,2.2536911E2,3.189482E2,8.917737E1,5.976056E1,4.7448387E1,1.3403069E2,2.7583087E2,1.3011322E1,7.586691E1,2.3091797E1,4.024942E1,1.36875305E1,1.1078499E1,6.299178E1,6.2894928E1,4.4675323E1,1.3363905E2,1.4383942E1,3.8188171E0,3.4884144E1,3.0227356E1,1.4284119E1,6.540558E0,1.2718246E1,1.9217596E1,8.7008E0,7.838187E0,9.021622E0,4.8415046E0,3.2459938E1,4.119224E1,1.9913605E1,2.4110245E1,6.2696808E1,2.1831223E1,5.926897E1,5.3105316E1,8.79393E0,8.156075E0,2.1239853E0,5.284191E0,1.1976665E1,2.9694763E1,2.8236374E1,8.17244E0,6.9651413E0,1.1156067E1,6.564331E0,3.5432968E0,7.0846367E0,1.4796112E1,1.5954819E1,9.350605E0,8.239997E0,5.1020794E0,8.928189E0,7.8801203E0,1.1662934E1,5.6973877E0,3.0193777E0,4.2404404E0,0E0,0E0,0E0,0E0,0E0,0E0,0E0,0E0,0E0,0E0,0E0,0E0,0E0,0E0,0E0,0E0,0E0,0E0,0E0,0E0,0E0,0E0,0E0,0E0,0E0,0E0,0E0,0E0,0E0,0E0,0E0,0E0,0E0,0E0,0E0,0E0,0E0,0E0,0E0,0E0,0E0,0E0,0E0,0E0,0E0,0E0,0E0,0E0,0E0,0E0,0E0,0E0,0E0,0E0,0E0,0E0,0E0,0E0,0E0,0E0,0E0,0E0,0E0,0E0],"parents":[2147483647,0,0,1,1,2,2,3,3,4,4,5,5,6,6,7,7,8,8,9,9,10,10,11,11,12,12,13,13,14,14,15,15,16,16,17,17,18,18,19,19,20,20,21,21,22,22,23,23,24,24,25,25,26,26,27,27,28,28,29,29,30,30,31,31,32,32,33,33,34,34,35,35,36,36,37,37,38,38,39,39,40,40,41,41,42,42,43,43,44,44,45,45,46,46,47,47,48,48,49,49,50,50,51,51,52,52,53,53,54,54,55,55,56,56,57,57,58,58,59,59,60,60,61,61,62,62],"right_children":[2,4,6,8,10,12,14,16,18,20,22,24,26,28,30,32,34,36,38,40,42,44,46,48,50,52,54,56,58,60,62,64,66,68,70,72,74,76,78,80,82,84,86,88,90,92,94,96,98,100,102,104,106,108,110,112,114,116,118,120,122,124,126,-1,-1,-1,-1,-1,-1,-1,-1,-1,-1,-1,-1,-1,-1,-1,-1,-1,-1,-1,-1,-1,-1,-1,-1,-1,-1,-1,-1,-1,-1,-1,-1,-1,-1,-1,-1,-1,-1,-1,-1,-1,-1,-1,-1,-1,-1,-1,-1,-1,-1,-1,-1,-1,-1,-1,-1,-1,-1,-1,-1,-1,-1,-1,-1],"split_conditions":[9.0967464E-1,5.0063854E-1,1.4711425E0,-1.027856E0,-6.4034986E-1,-6.1286753E-1,-6.403325E-1,-9.7938E-1,-9.551174E-1,1.8108189E0,1.1799912E0,3.557839E0,1.8522474E-1,2.708535E0,1.6710429E-1,-6.9688994E-1,-6.4862335E-1,-1.1249557E0,2.7470062E-2,9.958506E-1,-4.7407037E-1,-5.2701634E-1,2.8541107E0,-7.1249145E-1,1.9191834E0,-4.3404737E-1,-1.1328704E-1,2.798767E0,-6.725189E-1,1.9806571E0,1.3989552E0,-2.1856866E0,-1.1492182E0,1.9191834E0,3.247116E-1,-2.9998282E-1,-1.5596719E-1,1.804876E0,1.4023142E-1,-1.8064333E-1,5.326589E-1,8.907419E-1,-6.1746883E-1,8.3633083E-1,-3.6082646E-1,1.9191834E0,2.5191134E-1,-5.743897E-1,-2.8987172E-1,1.5774888E0,3.3154564E0,6.8825114E-1,-1.9902924E-1,2.124153E0,-6.649066E-1,2.2245343E0,8.22495E-1,2.3573954E0,-4.9501643E-1,5.4897755E-1,-9.3816024E-1,1.1363055E0,-2.9176766E-1,-7.7724457E-3,7.615593E-2,-3.595873E-2,4.7126138E-3,7.780256E-2,1.1034355E-2,4.167378E-2,1.5021174E-2,-5.4969322E-2,2.0933795E-1,-2.0587899E-2,-4.3198027E-2,9.021859E-3,5.989444E-2,-1.5600338E-2,5.4409043E-3,3.3267464E-2,5.8469605E-2,9.8308675E-2,-1.1162106E-1,1.1406564E-1,-1.0371836E-2,1.04569994E-1,4.970434E-2,-2.693525E-2,3.166657E-2,4.0841963E-2,1.3377452E-2,3.2164153E-2,6.5596715E-2,9.436229E-2,1.7228458E-2,-4.8987944E-2,-9.3591556E-2,-3.8327422E-2,-6.0311746E-2,-7.487283E-2,1.3213276E-2,-1.0895025E-1,-8.414696E-3,-1.0117495E-1,3.985318E-2,-2.1243688E-2,-4.9970116E-2,-2.4900107E-2,1.4143847E-2,-3.354629E-2,4.8513964E-2,-1.3689636E-2,8.65537E-2,-5.521367E-2,2.8042434E-2,2.6169015E-2,-1.0182861E-1,-2.2820443E-2,5.3416044E-2,4.1018467E-2,-1.2074694E-2,7.4998245E-2,4.234926E-2,-1.25041E-1,1.4715187E-2,1.2616514E-1,-6.665931E-2],"split_indices":[25,21,21,25,25,12,9,21,21,21,21,11,21,21,19,11,11,21,22,9,11,23,21,21,63,5,12,25,12,21,34,19,21,63,19,37,25,45,12,23,41,22,19,37,19,63,11,17,15,6,42,52,19,37,23,24,15,24,8,22,19,5,14,0,0,0,0,0,0,0,0,0,0,0,0,0,0,0,0,0,0,0,0,0,0,0,0,0,0,0,0,0,0,0,0,0,0,0,0,0,0,0,0,0,0,0,0,0,0,0,0,0,0,0,0,0,0,0,0,0,0,0,0,0,0,0,0],"split_type":[0,0,0,0,0,0,0,0,0,0,0,0,0,0,0,0,0,0,0,0,0,0,0,0,0,0,0,0,0,0,0,0,0,0,0,0,0,0,0,0,0,0,0,0,0,0,0,0,0,0,0,0,0,0,0,0,0,0,0,0,0,0,0,0,0,0,0,0,0,0,0,0,0,0,0,0,0,0,0,0,0,0,0,0,0,0,0,0,0,0,0,0,0,0,0,0,0,0,0,0,0,0,0,0,0,0,0,0,0,0,0,0,0,0,0,0,0,0,0,0,0,0,0,0,0,0,0],"sum_hessian":[2.7039324E4,2.2721115E4,4.31821E3,1.7690793E4,5.0303223E3,3.479675E3,8.385349E2,3.4502876E3,1.4240505E4,9.301832E2,4.100139E3,1.4863862E3,1.9932888E3,3.7322733E2,4.6530756E2,1.4914248E3,1.9588628E3,3.121829E3,1.1118676E4,7.960439E2,1.3413933E2,2.419562E3,1.6805771E3,1.2096404E3,2.7674582E2,9.400461E2,1.0532427E3,2.7587433E2,9.7353E1,4.5471082E2,1.059675E1,2.2107565E2,1.2703491E3,5.308146E2,1.4280482E3,9.951398E2,2.1266892E3,4.5273037E3,6.5913716E3,7.073561E2,8.868779E1,5.6938282E1,7.720105E1,2.6944656E2,2.1501155E3,1.5312849E3,1.4929227E2,1.6255394E2,1.0470864E3,1.8504233E2,9.17035E1,5.364992E1,8.863962E2,9.737949E2,7.944778E1,1.9071364E2,8.51607E1,2.0330421E1,7.7022575E1,1.824572E2,2.722536E2,7.858094E0,2.7386558E0,6.496262E1,1.5611304E2,3.3878717E2,9.3156195E2,4.8118692E2,4.9627655E1,8.686993E2,5.59349E2,9.8704236E2,8.097439E0,1.5332074E3,5.934819E2,4.286308E3,2.4099573E2,5.015516E3,1.5758557E3,1.9676123E2,5.1059485E2,8.758813E1,1.0996609E0,5.5696037E1,1.2422465E0,3.26031E1,4.4597946E1,2.2921306E2,4.0233486E1,5.187067E2,1.6314088E3,1.210945E3,3.2033994E2,1.3343288E2,1.5859385E1,5.8697643E1,1.038563E2,6.9216785E2,3.549186E2,1.764488E2,8.593514E0,8.787193E1,3.831565E0,5.0336525E1,3.3133957E0,2.530875E2,6.333087E2,8.552141E2,1.1858086E2,1.7004688E1,6.2443085E1,1.8312206E2,7.591575E0,7.764451E1,7.5161886E0,1.1448282E1,8.88214E0,1.6794231E1,6.0228344E1,1.2021275E2,6.2244446E1,7.7341385E1,1.9491223E2,6.133838E0,1.7242558E0,1.4910442E0,1.2476116E0],"tree_param":{"num_deleted":"0","num_feature":"74","num_nodes":"127","size_leaf_vector":"1"}},{"base_weights":[-1.5717938E-3,1.1577818E-1,-1.3442461E-1,-3.606582E-2,2.8378975E-1,8.533041E-2,-2.4813204E-1,8.453263E-2,-1.9058749E-1,2.1497366E-1,5.2278227E-1,-2.5141862E-1,1.7858016E-1,-1.730759E-1,-4.877528E-1,-1.6800563E-1,1.733831E-1,-7.527877E-2,-4.0592918E-1,3.6104882E-1,7.286095E-2,7.394616E-1,4.4810632E-1,1.6248006E-1,-3.3139926E-1,1.1741737E-1,4.2543194E-1,1.3043553E-1,-2.0959811E-1,-4.1026518E-1,-7.2288257E-1,3.3671412E-1,-2.5165907E-1,6.58229E-1,1.2776153E-1,-2.5921034E-2,-3.5834306E-1,-3.759568E-1,-8.30576E-1,7.0859545E-1,3.026667E-1,1.5098742E-1,-2.2224662E-1,6.6592085E-1,1.0196599E0,3.4325695E-1,6.1712474E-1,-5.3234404E-1,2.3896345E-1,-5.471268E-1,-2.2642763E-1,-8.1588113E-1,1.3320838E-1,6.7293245E-1,2.8945532E-1,7.579364E-2,8.359092E-1,-3.1058306E-1,-6.4285554E-2,-6.23936E-1,-3.3407044E-1,-5.6125087E-1,-8.862504E-1,-8.0532385E-3,7.109035E-2,-1.9676035E-2,-8.715916E-2,6.872525E-2,-1.4936553E-1,2.23686E-2,2.1161453E-4,-9.8513804E-2,-1.2149106E-3,-4.1592672E-2,1.2170847E-2,-2.9098392E-2,-5.34918E-2,-9.075992E-2,2.8527355E-2,8.352236E-2,4.310975E-2,4.375465E-2,2.1039601E-2,2.2231787E-2,-2.7506563E-3,-5.1818978E-2,-3.0300638E-3,6.754625E-2,-1.01967834E-1,-1.4845416E-2,1.0481258E-1,5.7128984E-2,2.4243115E-2,6.330101E-2,-1.1372157E-1,-1.05021454E-1,5.8425304E-2,5.270479E-2,2.9728822E-3,-7.063178E-2,-3.3315767E-2,-2.6069706E-2,5.474172E-2,-9.6473865E-2,4.9925633E-2,-6.6310726E-4,2.4031172E-2,8.24854E-2,4.1793548E-2,4.7587905E-2,7.456803E-3,-3.722504E-2,1.4486211E-2,9.820686E-2,2.6097323E-4,-2.5833657E-2,-6.0667515E-2,-1.2812823E-2,2.2009226E-2,-5.234276E-2,-9.1004096E-2,-1.20919105E-2,-4.2229008E-2,-5.968538E-2,4.580818E-2,-9.063306E-2,1.6786503E-2],"categories":[],"categories_nodes":[],"categories_segments":[],"categories_sizes":[],"default_left":[0,0,0,0,0,0,0,0,0,0,0,0,0,0,0,0,0,0,0,0,0,0,0,0,0,0,0,0,0,0,0,0,0,0,0,0,0,0,0,0,0,0,0,0,0,0,0,0,0,0,0,0,0,0,0,0,0,0,0,0,0,0,0,0,0,0,0,0,0,0,0,0,0,0,0,0,0,0,0,0,0,0,0,0,0,0,0,0,0,0,0,0,0,0,0,0,0,0,0,0,0,0,0,0,0,0,0,0,0,0,0,0,0,0,0,0,0,0,0,0,0,0,0,0,0,0,0],"id":11,"left_children":[1,3,5,7,9,11,13,15,17,19,21,23,25,27,29,31,33,35,37,39,41,43,45,47,49,51,53,55,57,59,61,63,65,67,69,71,73,75,77,79,81,83,85,87,89,91,93,95,97,99,101,103,105,107,109,111,113,115,117,119,121,123,125,-1,-1,-1,-1,-1,-1,-1,-1,-1,-1,-1,-1,-1,-1,-1,-1,-1,-1,-1,-1,-1,-1,-1,-1,-1,-1,-1,-1,-1,-1,-1,-1,-1,-1,-1,-1,-1,-1,-1,-1,-1,-1,-1,-1,-1,-1,-1,-1,-1,-1,-1,-1,-1,-1,-1,-1,-1,-1,-1,-1,-1,-1,-1,-1],"loss_changes":[4.1973062E2,3.6470758E2,3.1554718E2,1.3996304E2,1.1150214E2,1.3527661E2,1.495816E2,9.468719E1,8.1718445E1,1.09394424E2,2.4207458E1,3.0983643E1,5.0878716E1,7.028775E1,3.5857178E1,4.646317E1,6.895437E1,2.9964394E1,1.4297668E1,5.2520386E1,6.1660843E1,7.298828E0,1.9820297E1,8.203758E0,1.7615189E1,3.9970394E1,2.2334518E1,2.6203814E1,8.300734E1,2.4127655E1,1.2455444E1,2.4507586E1,3.1917027E1,1.7776222E1,3.4397038E1,2.4135012E1,8.853931E0,1.4351776E1,6.6921196E0,1.2748611E1,2.7623245E1,2.692237E1,3.1790567E1,5.66745E0,2.7693787E0,1.5952744E1,1.2745331E1,9.507213E0,8.278412E0,8.474312E0,1.4162006E1,9.319019E0,3.9850098E1,8.821777E0,1.7343182E1,1.9658752E1,5.9512596E0,5.147946E1,4.2168793E1,1.0789413E1,2.0709068E1,9.321037E0,5.2794037E0,0E0,0E0,0E0,0E0,0E0,0E0,0E0,0E0,0E0,0E0,0E0,0E0,0E0,0E0,0E0,0E0,0E0,0E0,0E0,0E0,0E0,0E0,0E0,0E0,0E0,0E0,0E0,0E0,0E0,0E0,0E0,0E0,0E0,0E0,0E0,0E0,0E0,0E0,0E0,0E0,0E0,0E0,0E0,0E0,0E0,0E0,0E0,0E0,0E0,0E0,0E0,0E0,0E0,0E0,0E0,0E0,0E0,0E0,0E0,0E0,0E0,0E0,0E0,0E0],"parents":[2147483647,0,0,1,1,2,2,3,3,4,4,5,5,6,6,7,7,8,8,9,9,10,10,11,11,12,12,13,13,14,14,15,15,16,16,17,17,18,18,19,19,20,20,21,21,22,22,23,23,24,24,25,25,26,26,27,27,28,28,29,29,30,30,31,31,32,32,33,33,34,34,35,35,36,36,37,37,38,38,39,39,40,40,41,41,42,42,43,43,44,44,45,45,46,46,47,47,48,48,49,49,50,50,51,51,52,52,53,53,54,54,55,55,56,56,57,57,58,58,59,59,60,60,61,61,62,62],"right_children":[2,4,6,8,10,12,14,16,18,20,22,24,26,28,30,32,34,36,38,40,42,44,46,48,50,52,54,56,58,60,62,64,66,68,70,72,74,76,78,80,82,84,86,88,90,92,94,96,98,100,102,104,106,108,110,112,114,116,118,120,122,124,126,-1,-1,-1,-1,-1,-1,-1,-1,-1,-1,-1,-1,-1,-1,-1,-1,-1,-1,-1,-1,-1,-1,-1,-1,-1,-1,-1,-1,-1,-1,-1,-1,-1,-1,-1,-1,-1,-1,-1,-1,-1,-1,-1,-1,-1,-1,-1,-1,-1,-1,-1,-1,-1,-1,-1,-1,-1,-1,-1,-1,-1,-1,-1,-1],"split_conditions":[1.6021961E-1,-3.4855244E-1,-4.83539E-1,-4.3109334E-1,9.131027E-1,-6.348967E-1,3.2464173E-1,-1.100693E0,2.5031844E-1,-3.2927075E-1,-6.466184E-1,-6.683623E-1,1.8836067E0,-5.540738E-1,1.9191834E0,-6.9688994E-1,-6.8366617E-1,1.3653208E0,2.1553323E0,-6.0829103E-1,1.2139277E0,2.9754236E0,-2.2177406E-1,-1.405757E0,-6.650625E-1,-6.8467027E-1,-6.683623E-1,1.6661003E0,-1.5445165E-1,-7.34265E-1,1.0221925E0,-5.783726E-1,1.0514063E1,3.6105866E0,2.6662636E-1,-6.8467027E-1,5.679704E-1,-4.42067E-3,2.0795384E-1,-2.1174085E-1,-3.4220347E-1,8.4084404E-1,1.2151021E0,2.1727762E0,-6.2402505E-1,-4.4799474E-1,3.1063411E0,-3.978366E-1,-2.920366E-1,3.755426E-1,6.574995E-2,6.499476E-1,-4.8269364E-1,2.2215798E-1,1.912471E0,-1.1249557E0,-1.6095077E-1,6.7976093E-1,1.4023142E-1,2.3264608E0,-2.1695407E-1,1.1809765E0,1.1072035E0,-8.0532385E-3,7.109035E-2,-1.9676035E-2,-8.715916E-2,6.872525E-2,-1.4936553E-1,2.23686E-2,2.1161453E-4,-9.8513804E-2,-1.2149106E-3,-4.1592672E-2,1.2170847E-2,-2.9098392E-2,-5.34918E-2,-9.075992E-2,2.8527355E-2,8.352236E-2,4.310975E-2,4.375465E-2,2.1039601E-2,2.2231787E-2,-2.7506563E-3,-5.1818978E-2,-3.0300638E-3,6.754625E-2,-1.01967834E-1,-1.4845416E-2,1.0481258E-1,5.7128984E-2,2.4243115E-2,6.330101E-2,-1.1372157E-1,-1.05021454E-1,5.8425304E-2,5.270479E-2,2.9728822E-3,-7.063178E-2,-3.3315767E-2,-2.6069706E-2,5.474172E-2,-9.6473865E-2,4.9925633E-2,-6.6310726E-4,2.4031172E-2,8.24854E-2,4.1793548E-2,4.7587905E-2,7.456803E-3,-3.722504E-2,1.4486211E-2,9.820686E-2,2.6097323E-4,-2.5833657E-2,-6.0667515E-2,-1.2812823E-2,2.2009226E-2,-5.234276E-2,-9.1004096E-2,-1.20919105E-2,-4.2229008E-2,-5.968538E-2,4.580818E-2,-9.063306E-2,1.6786503E-2],"split_indices":[22,21,0,11,21,9,11,21,0,11,0,0,21,11,63,11,11,41,40,11,41,21,9,19,12,0,0,38,21,23,11,8,1,17,0,0,15,56,8,22,0,56,37,56,9,19,41,23,17,55,23,22,9,11,20,21,40,0,12,56,19,20,21,0,0,0,0,0,0,0,0,0,0,0,0,0,0,0,0,0,0,0,0,0,0,0,0,0,0,0,0,0,0,0,0,0,0,0,0,0,0,0,0,0,0,0,0,0,0,0,0,0,0,0,0,0,0,0,0,0,0,0,0,0,0,0,0],"split_type":[0,0,0,0,0,0,0,0,0,0,0,0,0,0,0,0,0,0,0,0,0,0,0,0,0,0,0,0,0,0,0,0,0,0,0,0,0,0,0,0,0,0,0,0,0,0,0,0,0,0,0,0,0,0,0,0,0,0,0,0,0,0,0,0,0,0,0,0,0,0,0,0,0,0,0,0,0,0,0,0,0,0,0,0,0,0,0,0,0,0,0,0,0,0,0,0,0,0,0,0,0,0,0,0,0,0,0,0,0,0,0,0,0,0,0,0,0,0,0,0,0,0,0,0,0,0,0],"sum_hessian":[2.6920594E4,1.429438E4,1.2626213E4,7.5088677E3,6.785512E3,4.3054995E3,8.320713E3,4.217622E3,3.2912454E3,5.2699653E3,1.5155471E3,9.33325E2,3.3721746E3,6.3373843E3,1.9833291E3,1.0974543E3,3.1201677E3,2.1443582E3,1.1468871E3,2.597993E3,2.6719724E3,3.861613E2,1.1293859E3,1.5097906E2,7.8234595E2,2.7037407E3,6.6843384E2,6.804072E2,5.656977E3,1.4937911E3,4.8953802E2,1.5560323E2,9.418512E2,2.6718768E2,2.8529802E3,1.8268953E3,3.1746295E2,1.0730355E3,7.385155E1,3.720509E2,2.2259421E3,2.1130532E3,5.589191E2,3.085547E2,7.760659E1,6.988747E2,4.305111E2,1.4380166E1,1.3659889E2,2.5469972E2,5.2764624E2,4.414199E1,2.6595989E3,2.356188E2,4.3281503E2,6.3252313E2,4.7884132E1,3.336877E3,2.3200999E3,3.907717E2,1.1030194E3,2.4830615E2,2.4123187E2,7.393995E1,8.1663284E1,8.664401E2,7.5411026E1,2.6430353E2,2.8841593E0,1.6173938E3,1.2355863E3,2.4859997E1,1.8020353E3,2.835802E2,3.3882755E1,7.0109503E2,3.7194046E2,6.9257576E1,4.593974E0,2.540931E2,1.1795782E2,9.0267883E2,1.3232632E3,1.5095538E3,6.034994E2,2.19222E2,3.3969714E2,3.074138E2,1.140901E0,1.745933E0,7.586066E1,2.1283955E2,4.8603516E2,4.2728128E2,3.2298036E0,9.864517E0,4.5156484E0,5.6831535E1,7.9767365E1,1.4472484E2,1.099749E2,5.0590552E2,2.1740732E1,3.989302E1,4.2489696E0,1.1539205E3,1.5056783E3,1.4625095E2,8.936786E1,2.3110619E2,2.0170885E2,8.389708E1,5.4862604E2,4.0586746E1,7.297384E0,2.8379783E3,4.9889877E2,1.8951819E3,4.2491794E2,2.9127615E2,9.9495544E1,3.2357837E2,7.7944104E2,2.4032657E2,7.9795837E0,2.3686006E2,4.3718123E0],"tree_param":{"num_deleted":"0","num_feature":"74","num_nodes":"127","size_leaf_vector":"1"}},{"base_weights":[2.2508854E-3,-1.0554877E-1,1.3078673E-1,6.853238E-2,-2.2803368E-1,2.0360488E-1,-1.5395908E-1,-2.779272E-1,1.3115129E-1,-1.4430828E-1,-4.2840114E-1,1.4060463E-1,4.608976E-1,-2.5848413E-1,1.3615282E-1,2.6043767E-1,-4.12291E-1,4.8188E-1,6.3578755E-2,-3.3343133E-1,-3.562091E-2,-4.6625572E-1,1.54084E-1,3.266499E-1,6.973213E-2,3.9500663E-1,7.7558136E-1,-2.0187156E-1,-5.837111E-1,-3.621139E-2,3.1207046E-1,-1.2703875E-1,7.0263726E-1,-7.439421E-1,-2.5900632E-1,9.4014484E-1,3.884397E-1,-5.7035197E-2,1.6869646E-1,-7.61346E-1,-2.812453E-1,-9.413284E-2,1.6101862E-1,-6.696535E-1,-4.0926716E-1,-3.5661872E-2,6.3643765E-1,4.1417047E-1,5.0756212E-2,-2.6771694E-1,9.3064696E-2,5.1481414E-1,2.4407996E-1,5.312843E-1,8.9432275E-1,-2.3811369E-1,7.494778E-2,-7.178881E-1,-3.0384654E-1,-7.398361E-2,8.400799E-1,2.502932E-1,8.3412594E-1,1.661757E-2,-8.474444E-2,7.536817E-2,-8.254904E-2,-8.300651E-2,-1.4636576E-3,-2.9918632E-2,3.099531E-2,9.8189086E-2,-7.1683384E-2,2.8720468E-2,6.219084E-2,-8.954713E-4,-3.343399E-2,1.2065024E-2,4.2168207E-2,-8.648422E-2,1.0107863E-2,-2.4738792E-2,-7.294121E-2,2.0700234E-3,-2.2344466E-2,2.0728512E-2,-2.970819E-2,-9.959295E-2,-6.069211E-2,-4.9691524E-2,-2.28886E-2,-5.10454E-2,2.7382255E-2,1.5601479E-1,4.6114232E-2,5.331831E-2,2.6180899E-2,-4.1133523E-2,2.6038468E-2,3.9551784E-3,-3.8613133E-2,1.2766746E-2,-1.5292905E-2,5.5110343E-2,1.0008196E-2,1.9700019E-2,6.502765E-2,6.0669947E-2,-6.2051713E-2,7.717738E-2,1.1104567E-1,-1.9965522E-2,-5.4926854E-2,-3.0024452E-4,7.610099E-2,-8.837923E-2,-4.6531137E-2,-3.788441E-2,1.0704558E-1,-1.2445349E-2,6.2009104E-2,2.0955393E-2,1.2925927E-1,2.748478E-2,-7.036502E-2,9.513314E-2,-1.928204E-2],"categories":[],"categories_nodes":[],"categories_segments":[],"categories_sizes":[],"default_left":[0,0,0,0,0,0,0,0,0,0,0,0,0,0,0,0,0,0,0,0,0,0,0,0,0,0,0,0,0,0,0,0,0,0,0,0,0,0,0,0,0,0,0,0,0,0,0,0,0,0,0,0,0,0,0,0,0,0,0,0,0,0,0,0,0,0,0,0,0,0,0,0,0,0,0,0,0,0,0,0,0,0,0,0,0,0,0,0,0,0,0,0,0,0,0,0,0,0,0,0,0,0,0,0,0,0,0,0,0,0,0,0,0,0,0,0,0,0,0,0,0,0,0,0,0,0,0],"id":12,"left_children":[1,3,5,7,9,11,13,15,17,19,21,23,25,27,29,31,33,35,37,39,41,43,45,47,49,51,53,55,57,59,61,63,65,67,69,71,73,75,77,79,81,83,85,87,89,91,93,95,97,99,101,103,105,107,109,111,113,115,117,119,121,123,125,-1,-1,-1,-1,-1,-1,-1,-1,-1,-1,-1,-1,-1,-1,-1,-1,-1,-1,-1,-1,-1,-1,-1,-1,-1,-1,-1,-1,-1,-1,-1,-1,-1,-1,-1,-1,-1,-1,-1,-1,-1,-1,-1,-1,-1,-1,-1,-1,-1,-1,-1,-1,-1,-1,-1,-1,-1,-1,-1,-1,-1,-1,-1,-1],"loss_changes":[3.70197E2,3.0984393E2,2.5271454E2,1.3025168E2,1.4302957E2,1.5725089E2,7.531018E1,6.6590744E1,1.2045885E2,1.23676315E2,5.5488617E1,1.02792755E2,